%YAML:1.0
---
opencv_ml_svm:
   format: 3
   svmType: C_SVC
   kernel:
      type: RBF
      gamma: 5.0624999999999998e-01
   C: 1.2500000000000000e+01
   term_criteria: { epsilon:1.1920928955078125e-07, iterations:1000 }
   var_count: 50
   class_count: 13
   class_labels: !!opencv-matrix
      rows: 13
      cols: 1
      dt: i
      data: [ 0, 1, 2, 3, 4, 5, 6, 7, 8, 9, 10, 11, 12 ]
   sv_total: 132
   support_vectors:
      - [ 0., 0., 0., 0., 0., 0., 0., 0., 0., 0., 0., 0., 1., 0., 0., 0.,
          0., 0., 0., 0., 0., 0., 0., 0., 0., 0., 0., 0., 0., 0., 0., 0.,
          0., 0., 0., 0., 0., 0., 0., 0., 0., 0., 0., 0., 0., 0., 0., 0.,
          0., 0. ]
      - [ 0., 1., 0., 0., 0., 0., 0., 0., 0., 0., 0., 0., 0., 0., 0., 0.,
          0., 0., 0., 0., 0., 0., 0., 0., 0., 0., 0., 0., 0., 0., 0., 0.,
          0., 0., 0., 0., 0., 0., 0., 0., 0., 0., 0., 0., 0., 0., 0., 0.,
          0., 0. ]
      - [ 0., 0., 0., 0., 0., 0., 0., 0., 0., 0., 0., 0., 0., 0., 0., 0.,
          0., 0., 0., 0., 0., 0., 0., 0., 0., 0., 0., 0., 0., 0., 0., 0.,
          0., 0., 0., 0., 0., 0., 0., 0., 0., 0., 0., 1., 0., 0., 0., 0.,
          0., 0. ]
      - [ 1., 0., 0., 0., 0., 0., 0., 0., 0., 0., 0., 0., 0., 0., 0., 0.,
          0., 0., 0., 0., 0., 0., 0., 0., 0., 0., 0., 0., 0., 0., 0., 0.,
          0., 0., 0., 0., 0., 0., 0., 0., 0., 0., 0., 0., 0., 0., 0., 0.,
          0., 0. ]
      - [ 0., 0., 0., 0., 0., 0., 0., 0., 0., 0., 0., 0., 0., 0., 0., 0.,
          0., 0., 0., 0., 0., 0., 0., 0., 0., 0., 0., 0., 0., 0., 0., 0.,
          0., 0., 0., 0., 0., 0., 1., 0., 0., 0., 0., 0., 0., 0., 0., 0.,
          0., 0. ]
      - [ 0., 0., 0., 0., 0., 0., 0., 0., 0., 0., 0., 0., 0., 0., 0., 0.,
          0., 0., 0., 0., 0., 0., 0., 0., 0., 0., 0., 0., 0., 0., 0., 0.,
          1., 0., 0., 0., 0., 0., 0., 0., 0., 0., 0., 0., 0., 0., 0., 0.,
          0., 0. ]
      - [ 0., 0., 0., 0., 0., 0., 0., 0., 0., 0., 0., 0., 0., 0., 0., 0.,
          0., 0., 0., 1., 0., 0., 0., 0., 0., 0., 0., 0., 0., 0., 0., 0.,
          0., 0., 0., 0., 0., 0., 0., 0., 0., 0., 0., 0., 0., 0., 0., 0.,
          0., 0. ]
      - [ 0., 0., 0., 1., 0., 0., 0., 0., 0., 0., 0., 0., 0., 0., 0., 0.,
          0., 0., 0., 0., 0., 0., 0., 0., 0., 0., 0., 0., 0., 0., 0., 0.,
          0., 0., 0., 0., 0., 0., 0., 0., 0., 0., 0., 0., 0., 0., 0., 0.,
          0., 0. ]
      - [ 0., 0., 0., 0., 0., 0., 0., 0., 0., 0., 0., 0., 0., 0., 0., 0.,
          0., 0., 0., 0., 0., 0., 0., 0., 0., 0., 0., 1., 0., 0., 0., 0.,
          0., 0., 0., 0., 0., 0., 0., 0., 0., 0., 0., 0., 0., 0., 0., 0.,
          0., 0. ]
      - [ 0., 1., 0., 0., 0., 0., 0., 0., 0., 0., 0., 0., 0., 0., 0., 0.,
          0., 0., 0., 0., 0., 0., 0., 0., 0., 0., 0., 0., 0., 0., 0., 0.,
          0., 0., 0., 0., 0., 0., 0., 0., 0., 0., 0., 0., 0., 0., 0., 0.,
          0., 0. ]
      - [ 0., 0., 0., 0., 0., 0., 0., 0., 0., 0., 0., 0., 0., 0., 0., 0.,
          0., 0., 0., 0., 0., 0., 0., 0., 0., 0., 0., 0., 0., 0., 0., 0.,
          0., 0., 0., 0., 0., 0., 0., 0., 0., 0., 0., 0., 1., 0., 0., 0.,
          0., 0. ]
      - [ 0., 0., 0., 0., 0., 0., 0., 0., 0., 0., 0., 0., 0., 0., 0., 0.,
          0., 0., 0., 0., 0., 0., 0., 0., 0., 0., 0., 0., 1., 0., 0., 0.,
          0., 0., 0., 0., 0., 0., 0., 0., 0., 0., 0., 0., 0., 0., 0., 0.,
          0., 0. ]
      - [ 0., 0., 0., 0., 1., 0., 0., 0., 0., 0., 0., 0., 0., 0., 0., 0.,
          0., 0., 0., 0., 0., 0., 0., 0., 0., 0., 0., 0., 0., 0., 0., 0.,
          0., 0., 0., 0., 0., 0., 0., 0., 0., 0., 0., 0., 0., 0., 0., 0.,
          0., 0. ]
      - [ 0., 0., 0., 0., 0., 0., 0., 0., 0., 0., 0., 0., 0., 0., 0., 0.,
          1., 0., 0., 0., 0., 0., 0., 0., 0., 0., 0., 0., 0., 0., 0., 0.,
          0., 0., 0., 0., 0., 0., 0., 0., 0., 0., 0., 0., 0., 0., 0., 0.,
          0., 0. ]
      - [ 0., 0., 0., 0., 0., 0., 0., 0., 0., 0., 0., 0., 0., 0., 0., 0.,
          1., 0., 0., 0., 0., 0., 0., 0., 0., 0., 0., 0., 0., 0., 0., 0.,
          0., 0., 0., 0., 0., 0., 0., 0., 0., 0., 0., 0., 0., 0., 0., 0.,
          0., 0. ]
      - [ 0., 0., 0., 0., 0., 0., 0., 0., 0., 0., 0., 0., 0., 0., 0., 0.,
          0., 0., 0., 0., 0., 1., 0., 0., 0., 0., 0., 0., 0., 0., 0., 0.,
          0., 0., 0., 0., 0., 0., 0., 0., 0., 0., 0., 0., 0., 0., 0., 0.,
          0., 0. ]
      - [ 0., 0., 0., 0., 0., 0., 0., 0., 0., 0., 0., 0., 0., 0., 0., 0.,
          1., 0., 0., 0., 0., 0., 0., 0., 0., 0., 0., 0., 0., 0., 0., 0.,
          0., 0., 0., 0., 0., 0., 0., 0., 0., 0., 0., 0., 0., 0., 0., 0.,
          0., 0. ]
      - [ 0., 0., 0., 0., 0., 0., 0., 0., 0., 0., 0., 0., 0., 0., 0., 0.,
          1., 0., 0., 0., 0., 0., 0., 0., 0., 0., 0., 0., 0., 0., 0., 0.,
          0., 0., 0., 0., 0., 0., 0., 0., 0., 0., 0., 0., 0., 0., 0., 0.,
          0., 0. ]
      - [ 0., 0., 0., 0., 0., 0., 0., 0., 0., 0., 0., 0., 0., 0., 0., 0.,
          0., 0., 0., 0., 0., 0., 0., 1., 0., 0., 0., 0., 0., 0., 0., 0.,
          0., 0., 0., 0., 0., 0., 0., 0., 0., 0., 0., 0., 0., 0., 0., 0.,
          0., 0. ]
      - [ 0., 0., 0., 0., 0., 0., 0., 0., 0., 0., 0., 0., 0., 0., 0., 0.,
          0., 0., 0., 0., 0., 0., 0., 0., 1., 0., 0., 0., 0., 0., 0., 0.,
          0., 0., 0., 0., 0., 0., 0., 0., 0., 0., 0., 0., 0., 0., 0., 0.,
          0., 0. ]
      - [ 0., 0., 0., 0., 0., 0., 0., 1., 0., 0., 0., 0., 0., 0., 0., 0.,
          0., 0., 0., 0., 0., 0., 0., 0., 0., 0., 0., 0., 0., 0., 0., 0.,
          0., 0., 0., 0., 0., 0., 0., 0., 0., 0., 0., 0., 0., 0., 0., 0.,
          0., 0. ]
      - [ 0., 0., 0., 0., 0., 0., 0., 0., 0., 0., 0., 0., 0., 0., 0., 0.,
          0., 0., 0., 0., 0., 0., 1., 0., 0., 0., 0., 0., 0., 0., 0., 0.,
          0., 0., 0., 0., 0., 0., 0., 0., 0., 0., 0., 0., 0., 0., 0., 0.,
          0., 0. ]
      - [ 0., 0., 0., 0., 0., 0., 0., 0., 0., 0., 0., 0., 0., 0., 0., 0.,
          0., 0., 0., 0., 0., 0., 0., 0., 0., 0., 0., 0., 0., 0., 0., 0.,
          0., 0., 0., 0., 0., 0., 0., 0., 0., 0., 0., 0., 0., 0., 0., 0.,
          0., 1. ]
      - [ 0., 0., 0., 0., 0., 0., 0., 0., 0., 0., 0., 0., 0., 0., 0., 0.,
          1., 0., 0., 0., 0., 0., 0., 0., 0., 0., 0., 0., 0., 0., 0., 0.,
          0., 0., 0., 0., 0., 0., 0., 0., 0., 0., 0., 0., 0., 0., 0., 0.,
          0., 0. ]
      - [ 0., 0., 0., 0., 0., 0., 0., 0., 0., 0., 0., 0., 0., 0., 0., 0.,
          0., 0., 0., 0., 0., 0., 0., 0., 0., 0., 0., 0., 0., 0., 0., 0.,
          0., 0., 1., 0., 0., 0., 0., 0., 0., 0., 0., 0., 0., 0., 0., 0.,
          0., 0. ]
      - [ 0., 0., 0., 0., 0., 0., 0., 0., 0., 0., 0., 0., 0., 0., 0., 0.,
          1., 0., 0., 0., 0., 0., 0., 0., 0., 0., 0., 0., 0., 0., 0., 0.,
          0., 0., 0., 0., 0., 0., 0., 0., 0., 0., 0., 0., 0., 0., 0., 0.,
          0., 0. ]
      - [ 0., 0., 1., 0., 0., 0., 0., 0., 0., 0., 0., 0., 0., 0., 0., 0.,
          0., 0., 0., 0., 0., 0., 0., 0., 0., 0., 0., 0., 0., 0., 0., 0.,
          0., 0., 0., 0., 0., 0., 0., 0., 0., 0., 0., 0., 0., 0., 0., 0.,
          0., 0. ]
      - [ 0., 0., 0., 1., 0., 0., 0., 0., 0., 0., 0., 0., 0., 0., 0., 0.,
          0., 0., 0., 0., 0., 0., 0., 0., 0., 0., 0., 0., 0., 0., 0., 0.,
          0., 0., 0., 0., 0., 0., 0., 0., 0., 0., 0., 0., 0., 0., 0., 0.,
          0., 0. ]
      - [ 0., 0., 0., 0., 0., 0., 0., 0., 0., 0., 0., 0., 0., 0., 0., 0.,
          0., 0., 0., 0., 0., 0., 0., 0., 0., 0., 0., 0., 0., 0., 1., 0.,
          0., 0., 0., 0., 0., 0., 0., 0., 0., 0., 0., 0., 0., 0., 0., 0.,
          0., 0. ]
      - [ 0., 0., 0., 0., 0., 0., 0., 0., 0., 0., 0., 0., 0., 0., 0., 0.,
          0., 0., 0., 0., 0., 0., 0., 0., 0., 0., 0., 0., 0., 0., 0., 0.,
          0., 0., 0., 0., 0., 0., 1., 0., 0., 0., 0., 0., 0., 0., 0., 0.,
          0., 0. ]
      - [ 0., 0., 0., 0., 0., 0., 0., 0., 0., 0., 0., 0., 0., 0., 0., 0.,
          0., 0., 0., 0., 0., 0., 0., 0., 0., 0., 0., 0., 0., 0., 0., 0.,
          0., 0., 0., 0., 0., 0., 0., 0., 0., 0., 0., 0., 0., 1., 0., 0.,
          0., 0. ]
      - [ 0., 0., 0., 0., 0., 0., 0., 0., 0., 0., 0., 0., 0., 0., 0., 0.,
          0., 0., 0., 0., 0., 0., 0., 0., 0., 0., 0., 0., 0., 0., 0., 1.,
          0., 0., 0., 0., 0., 0., 0., 0., 0., 0., 0., 0., 0., 0., 0., 0.,
          0., 0. ]
      - [ 0., 0., 0., 0., 0., 1., 0., 0., 0., 0., 0., 0., 0., 0., 0., 0.,
          0., 0., 0., 0., 0., 0., 0., 0., 0., 0., 0., 0., 0., 0., 0., 0.,
          0., 0., 0., 0., 0., 0., 0., 0., 0., 0., 0., 0., 0., 0., 0., 0.,
          0., 0. ]
      - [ 0., 0., 0., 0., 0., 0., 0., 0., 0., 0., 0., 0., 0., 1., 0., 0.,
          0., 0., 0., 0., 0., 0., 0., 0., 0., 0., 0., 0., 0., 0., 0., 0.,
          0., 0., 0., 0., 0., 0., 0., 0., 0., 0., 0., 0., 0., 0., 0., 0.,
          0., 0. ]
      - [ 0., 0., 0., 0., 0., 0., 0., 0., 0., 0., 0., 0., 0., 0., 0., 0.,
          0., 0., 0., 0., 0., 0., 0., 0., 0., 0., 0., 0., 0., 0., 1., 0.,
          0., 0., 0., 0., 0., 0., 0., 0., 0., 0., 0., 0., 0., 0., 0., 0.,
          0., 0. ]
      - [ 0., 1., 0., 0., 0., 0., 0., 0., 0., 0., 0., 0., 0., 0., 0., 0.,
          0., 0., 0., 0., 0., 0., 0., 0., 0., 0., 0., 0., 0., 0., 0., 0.,
          0., 0., 0., 0., 0., 0., 0., 0., 0., 0., 0., 0., 0., 0., 0., 0.,
          0., 0. ]
      - [ 0., 0., 0., 0., 0., 0., 0., 0., 0., 0., 0., 0., 0., 0., 0., 0.,
          0., 0., 0., 0., 0., 0., 0., 0., 0., 0., 0., 0., 0., 0., 0., 0.,
          0., 0., 1., 0., 0., 0., 0., 0., 0., 0., 0., 0., 0., 0., 0., 0.,
          0., 0. ]
      - [ 0., 0., 0., 0., 0., 0., 0., 0., 0., 0., 0., 0., 0., 0., 0., 0.,
          0., 0., 0., 0., 0., 0., 0., 0., 0., 0., 0., 0., 0., 0., 0., 0.,
          0., 0., 1., 0., 0., 0., 0., 0., 0., 0., 0., 0., 0., 0., 0., 0.,
          0., 0. ]
      - [ 0., 0., 0., 0., 0., 0., 0., 0., 0., 0., 0., 0., 0., 0., 0., 0.,
          0., 0., 0., 0., 0., 0., 0., 0., 0., 0., 0., 0., 0., 0., 0., 0.,
          0., 0., 1., 0., 0., 0., 0., 0., 0., 0., 0., 0., 0., 0., 0., 0.,
          0., 0. ]
      - [ 0., 0., 0., 0., 0., 0., 0., 0., 0., 1., 0., 0., 0., 0., 0., 0.,
          0., 0., 0., 0., 0., 0., 0., 0., 0., 0., 0., 0., 0., 0., 0., 0.,
          0., 0., 0., 0., 0., 0., 0., 0., 0., 0., 0., 0., 0., 0., 0., 0.,
          0., 0. ]
      - [ 0., 0., 0., 1., 0., 0., 0., 0., 0., 0., 0., 0., 0., 0., 0., 0.,
          0., 0., 0., 0., 0., 0., 0., 0., 0., 0., 0., 0., 0., 0., 0., 0.,
          0., 0., 0., 0., 0., 0., 0., 0., 0., 0., 0., 0., 0., 0., 0., 0.,
          0., 0. ]
      - [ 0., 0., 0., 0., 0., 0., 0., 0., 0., 0., 0., 0., 0., 0., 0., 0.,
          0., 0., 0., 0., 0., 0., 0., 0., 0., 0., 0., 0., 0., 0., 1., 0.,
          0., 0., 0., 0., 0., 0., 0., 0., 0., 0., 0., 0., 0., 0., 0., 0.,
          0., 0. ]
      - [ 0., 0., 0., 0., 0., 0., 0., 0., 0., 0., 0., 0., 0., 0., 0., 0.,
          0., 0., 0., 0., 0., 0., 0., 0., 0., 0., 0., 0., 0., 0., 0., 0.,
          0., 0., 0., 0., 0., 0., 0., 0., 0., 0., 0., 0., 0., 0., 0., 0.,
          1., 0. ]
      - [ 0., 0., 0., 0., 0., 0., 0., 0., 0., 0., 0., 0., 0., 0., 0., 0.,
          1., 0., 0., 0., 0., 0., 0., 0., 0., 0., 0., 0., 0., 0., 0., 0.,
          0., 0., 0., 0., 0., 0., 0., 0., 0., 0., 0., 0., 0., 0., 0., 0.,
          0., 0. ]
      - [ 0., 0., 0., 0., 0., 0., 0., 0., 0., 0., 0., 0., 0., 0., 0., 0.,
          1., 0., 0., 0., 0., 0., 0., 0., 0., 0., 0., 0., 0., 0., 0., 0.,
          0., 0., 0., 0., 0., 0., 0., 0., 0., 0., 0., 0., 0., 0., 0., 0.,
          0., 0. ]
      - [ 0., 0., 0., 0., 0., 0., 0., 0., 0., 0., 0., 0., 0., 0., 0., 0.,
          1., 0., 0., 0., 0., 0., 0., 0., 0., 0., 0., 0., 0., 0., 0., 0.,
          0., 0., 0., 0., 0., 0., 0., 0., 0., 0., 0., 0., 0., 0., 0., 0.,
          0., 0. ]
      - [ 0., 0., 0., 0., 0., 0., 0., 0., 0., 0., 0., 0., 0., 0., 0., 0.,
          1., 0., 0., 0., 0., 0., 0., 0., 0., 0., 0., 0., 0., 0., 0., 0.,
          0., 0., 0., 0., 0., 0., 0., 0., 0., 0., 0., 0., 0., 0., 0., 0.,
          0., 0. ]
      - [ 0., 0., 0., 0., 0., 0., 0., 0., 0., 0., 0., 0., 0., 0., 0., 0.,
          1., 0., 0., 0., 0., 0., 0., 0., 0., 0., 0., 0., 0., 0., 0., 0.,
          0., 0., 0., 0., 0., 0., 0., 0., 0., 0., 0., 0., 0., 0., 0., 0.,
          0., 0. ]
      - [ 0., 1., 0., 0., 0., 0., 0., 0., 0., 0., 0., 0., 0., 0., 0., 0.,
          0., 0., 0., 0., 0., 0., 0., 0., 0., 0., 0., 0., 0., 0., 0., 0.,
          0., 0., 0., 0., 0., 0., 0., 0., 0., 0., 0., 0., 0., 0., 0., 0.,
          0., 0. ]
      - [ 0., 0., 0., 0., 0., 0., 0., 0., 0., 0., 0., 0., 0., 0., 0., 0.,
          0., 0., 0., 0., 0., 0., 0., 0., 0., 0., 0., 0., 0., 0., 0., 0.,
          0., 0., 0., 0., 0., 0., 1., 0., 0., 0., 0., 0., 0., 0., 0., 0.,
          0., 0. ]
      - [ 0., 0., 0., 0., 0., 0., 0., 0., 0., 0., 0., 0., 0., 0., 0., 0.,
          1., 0., 0., 0., 0., 0., 0., 0., 0., 0., 0., 0., 0., 0., 0., 0.,
          0., 0., 0., 0., 0., 0., 0., 0., 0., 0., 0., 0., 0., 0., 0., 0.,
          0., 0. ]
      - [ 0., 0., 0., 0., 0., 0., 0., 0., 0., 0., 0., 0., 0., 0., 0., 0.,
          0., 0., 0., 0., 0., 0., 0., 0., 0., 0., 0., 0., 0., 0., 0., 0.,
          0., 0., 0., 0., 0., 0., 1., 0., 0., 0., 0., 0., 0., 0., 0., 0.,
          0., 0. ]
      - [ 0., 0., 1., 0., 0., 0., 0., 0., 0., 0., 0., 0., 0., 0., 0., 0.,
          0., 0., 0., 0., 0., 0., 0., 0., 0., 0., 0., 0., 0., 0., 0., 0.,
          0., 0., 0., 0., 0., 0., 0., 0., 0., 0., 0., 0., 0., 0., 0., 0.,
          0., 0. ]
      - [ 0., 0., 1., 0., 0., 0., 0., 0., 0., 0., 0., 0., 0., 0., 0., 0.,
          0., 0., 0., 0., 0., 0., 0., 0., 0., 0., 0., 0., 0., 0., 0., 0.,
          0., 0., 0., 0., 0., 0., 0., 0., 0., 0., 0., 0., 0., 0., 0., 0.,
          0., 0. ]
      - [ 0., 0., 0., 0., 0., 0., 0., 0., 0., 0., 0., 0., 0., 0., 0., 0.,
          0., 0., 0., 0., 0., 0., 0., 0., 0., 0., 0., 0., 0., 0., 0., 0.,
          0., 0., 1., 0., 0., 0., 0., 0., 0., 0., 0., 0., 0., 0., 0., 0.,
          0., 0. ]
      - [ 0., 0., 0., 0., 0., 0., 0., 0., 0., 0., 0., 0., 0., 0., 0., 0.,
          0., 0., 0., 0., 0., 0., 0., 0., 0., 0., 0., 0., 0., 1., 0., 0.,
          0., 0., 0., 0., 0., 0., 0., 0., 0., 0., 0., 0., 0., 0., 0., 0.,
          0., 0. ]
      - [ 0., 0., 0., 0., 0., 0., 0., 0., 0., 0., 0., 0., 0., 0., 0., 0.,
          0., 0., 0., 0., 1., 0., 0., 0., 0., 0., 0., 0., 0., 0., 0., 0.,
          0., 0., 0., 0., 0., 0., 0., 0., 0., 0., 0., 0., 0., 0., 0., 0.,
          0., 0. ]
      - [ 0., 0., 0., 0., 0., 0., 0., 0., 0., 0., 0., 0., 0., 0., 0., 0.,
          1., 0., 0., 0., 0., 0., 0., 0., 0., 0., 0., 0., 0., 0., 0., 0.,
          0., 0., 0., 0., 0., 0., 0., 0., 0., 0., 0., 0., 0., 0., 0., 0.,
          0., 0. ]
      - [ 0., 0., 0., 1., 0., 0., 0., 0., 0., 0., 0., 0., 0., 0., 0., 0.,
          0., 0., 0., 0., 0., 0., 0., 0., 0., 0., 0., 0., 0., 0., 0., 0.,
          0., 0., 0., 0., 0., 0., 0., 0., 0., 0., 0., 0., 0., 0., 0., 0.,
          0., 0. ]
      - [ 0., 0., 0., 0., 0., 0., 0., 0., 0., 0., 0., 0., 0., 0., 0., 0.,
          0., 0., 0., 0., 0., 0., 0., 0., 0., 0., 0., 0., 0., 0., 0., 0.,
          0., 0., 0., 0., 0., 0., 0., 0., 0., 0., 0., 0., 0., 0., 1., 0.,
          0., 0. ]
      - [ 0., 0., 0., 0., 0., 0., 0., 0., 0., 0., 0., 0., 0., 0., 0., 0.,
          1., 0., 0., 0., 0., 0., 0., 0., 0., 0., 0., 0., 0., 0., 0., 0.,
          0., 0., 0., 0., 0., 0., 0., 0., 0., 0., 0., 0., 0., 0., 0., 0.,
          0., 0. ]
      - [ 0., 0., 0., 0., 0., 0., 0., 0., 0., 0., 0., 0., 0., 0., 0., 0.,
          0., 0., 0., 0., 0., 0., 0., 0., 0., 0., 0., 0., 0., 0., 0., 0.,
          0., 0., 0., 0., 0., 0., 0., 0., 0., 1., 0., 0., 0., 0., 0., 0.,
          0., 0. ]
      - [ 0., 0., 0., 0., 0., 0., 0., 0., 0., 0., 0., 0., 0., 0., 0., 0.,
          0., 0., 0., 0., 0., 0., 0., 0., 0., 0., 0., 0., 0., 0., 0., 0.,
          0., 0., 0., 0., 0., 0., 1., 0., 0., 0., 0., 0., 0., 0., 0., 0.,
          0., 0. ]
      - [ 0., 0., 0., 0., 0., 0., 0., 0., 0., 0., 0., 0., 0., 0., 0., 0.,
          0., 0., 0., 0., 0., 0., 0., 0., 0., 0., 0., 0., 0., 0., 0., 0.,
          0., 0., 0., 0., 0., 0., 0., 0., 0., 1., 0., 0., 0., 0., 0., 0.,
          0., 0. ]
      - [ 0., 0., 0., 0., 0., 0., 0., 0., 0., 0., 0., 0., 0., 0., 0., 0.,
          1., 0., 0., 0., 0., 0., 0., 0., 0., 0., 0., 0., 0., 0., 0., 0.,
          0., 0., 0., 0., 0., 0., 0., 0., 0., 0., 0., 0., 0., 0., 0., 0.,
          0., 0. ]
      - [ 0., 0., 0., 0., 0., 0., 0., 0., 0., 0., 0., 0., 0., 0., 0., 0.,
          0., 0., 0., 0., 0., 0., 0., 0., 0., 0., 0., 0., 0., 0., 0., 1.,
          0., 0., 0., 0., 0., 0., 0., 0., 0., 0., 0., 0., 0., 0., 0., 0.,
          0., 0. ]
      - [ 0., 0., 0., 0., 0., 0., 0., 0., 0., 0., 0., 0., 0., 0., 0., 0.,
          0., 1., 0., 0., 0., 0., 0., 0., 0., 0., 0., 0., 0., 0., 0., 0.,
          0., 0., 0., 0., 0., 0., 0., 0., 0., 0., 0., 0., 0., 0., 0., 0.,
          0., 0. ]
      - [ 0., 0., 0., 0., 0., 0., 1., 0., 0., 0., 0., 0., 0., 0., 0., 0.,
          0., 0., 0., 0., 0., 0., 0., 0., 0., 0., 0., 0., 0., 0., 0., 0.,
          0., 0., 0., 0., 0., 0., 0., 0., 0., 0., 0., 0., 0., 0., 0., 0.,
          0., 0. ]
      - [ 0., 0., 0., 0., 0., 0., 0., 0., 0., 0., 0., 0., 0., 0., 0., 0.,
          0., 0., 0., 0., 0., 0., 0., 0., 0., 0., 0., 0., 0., 0., 0., 1.,
          0., 0., 0., 0., 0., 0., 0., 0., 0., 0., 0., 0., 0., 0., 0., 0.,
          0., 0. ]
      - [ 0., 0., 0., 0., 0., 0., 0., 0., 0., 0., 0., 0., 0., 0., 0., 0.,
          0., 0., 0., 0., 0., 0., 0., 0., 0., 0., 0., 0., 0., 0., 0., 0.,
          0., 0., 1., 0., 0., 0., 0., 0., 0., 0., 0., 0., 0., 0., 0., 0.,
          0., 0. ]
      - [ 0., 0., 0., 0., 0., 0., 0., 0., 0., 0., 0., 0., 0., 0., 0., 0.,
          0., 0., 0., 0., 0., 0., 0., 0., 0., 0., 0., 0., 0., 0., 0., 0.,
          0., 1., 0., 0., 0., 0., 0., 0., 0., 0., 0., 0., 0., 0., 0., 0.,
          0., 0. ]
      - [ 0., 0., 0., 0., 0., 0., 0., 0., 0., 0., 0., 0., 0., 0., 0., 0.,
          1., 0., 0., 0., 0., 0., 0., 0., 0., 0., 0., 0., 0., 0., 0., 0.,
          0., 0., 0., 0., 0., 0., 0., 0., 0., 0., 0., 0., 0., 0., 0., 0.,
          0., 0. ]
      - [ 0., 0., 0., 0., 0., 0., 0., 0., 0., 0., 0., 0., 0., 0., 0., 0.,
          0., 0., 0., 0., 0., 0., 0., 0., 0., 0., 0., 0., 0., 0., 0., 0.,
          0., 0., 0., 0., 0., 0., 1., 0., 0., 0., 0., 0., 0., 0., 0., 0.,
          0., 0. ]
      - [ 0., 0., 0., 0., 0., 0., 0., 0., 0., 0., 0., 0., 0., 0., 0., 0.,
          0., 0., 0., 0., 0., 0., 0., 0., 0., 0., 0., 0., 0., 0., 0., 0.,
          0., 0., 1., 0., 0., 0., 0., 0., 0., 0., 0., 0., 0., 0., 0., 0.,
          0., 0. ]
      - [ 0., 0., 0., 0., 0., 0., 0., 0., 0., 0., 0., 0., 0., 0., 0., 0.,
          0., 0., 0., 0., 0., 0., 0., 0., 0., 0., 1., 0., 0., 0., 0., 0.,
          0., 0., 0., 0., 0., 0., 0., 0., 0., 0., 0., 0., 0., 0., 0., 0.,
          0., 0. ]
      - [ 0., 0., 0., 0., 0., 0., 0., 0., 0., 0., 0., 0., 0., 0., 0., 0.,
          0., 0., 0., 0., 0., 0., 0., 0., 0., 0., 0., 0., 0., 0., 0., 0.,
          0., 0., 0., 0., 0., 1., 0., 0., 0., 0., 0., 0., 0., 0., 0., 0.,
          0., 0. ]
      - [ 0., 0., 0., 0., 0., 0., 0., 0., 0., 0., 0., 0., 0., 0., 0., 0.,
          0., 0., 0., 0., 0., 0., 0., 0., 0., 0., 0., 0., 0., 0., 0., 0.,
          0., 0., 0., 0., 0., 0., 1., 0., 0., 0., 0., 0., 0., 0., 0., 0.,
          0., 0. ]
      - [ 0., 0., 0., 0., 0., 0., 0., 0., 0., 0., 0., 0., 0., 0., 0., 0.,
          0., 0., 0., 0., 0., 0., 0., 0., 0., 0., 0., 0., 0., 0., 0., 0.,
          0., 0., 0., 0., 0., 0., 1., 0., 0., 0., 0., 0., 0., 0., 0., 0.,
          0., 0. ]
      - [ 0., 0., 0., 0., 0., 0., 0., 0., 0., 0., 0., 0., 0., 0., 0., 0.,
          1., 0., 0., 0., 0., 0., 0., 0., 0., 0., 0., 0., 0., 0., 0., 0.,
          0., 0., 0., 0., 0., 0., 0., 0., 0., 0., 0., 0., 0., 0., 0., 0.,
          0., 0. ]
      - [ 0., 0., 0., 0., 0., 0., 0., 0., 0., 0., 0., 0., 0., 0., 0., 0.,
          0., 0., 1., 0., 0., 0., 0., 0., 0., 0., 0., 0., 0., 0., 0., 0.,
          0., 0., 0., 0., 0., 0., 0., 0., 0., 0., 0., 0., 0., 0., 0., 0.,
          0., 0. ]
      - [ 0., 0., 0., 0., 0., 0., 0., 0., 0., 0., 0., 0., 0., 0., 0., 0.,
          1., 0., 0., 0., 0., 0., 0., 0., 0., 0., 0., 0., 0., 0., 0., 0.,
          0., 0., 0., 0., 0., 0., 0., 0., 0., 0., 0., 0., 0., 0., 0., 0.,
          0., 0. ]
      - [ 0., 0., 0., 0., 0., 0., 0., 0., 0., 0., 0., 0., 0., 0., 0., 0.,
          0., 0., 0., 0., 0., 0., 0., 0., 0., 0., 0., 0., 0., 0., 0., 0.,
          0., 1., 0., 0., 0., 0., 0., 0., 0., 0., 0., 0., 0., 0., 0., 0.,
          0., 0. ]
      - [ 0., 0., 0., 1., 0., 0., 0., 0., 0., 0., 0., 0., 0., 0., 0., 0.,
          0., 0., 0., 0., 0., 0., 0., 0., 0., 0., 0., 0., 0., 0., 0., 0.,
          0., 0., 0., 0., 0., 0., 0., 0., 0., 0., 0., 0., 0., 0., 0., 0.,
          0., 0. ]
      - [ 0., 0., 0., 0., 0., 0., 0., 0., 0., 0., 0., 0., 0., 0., 0., 0.,
          0., 0., 0., 0., 0., 0., 0., 0., 0., 0., 0., 0., 0., 0., 0., 0.,
          0., 0., 0., 1., 0., 0., 0., 0., 0., 0., 0., 0., 0., 0., 0., 0.,
          0., 0. ]
      - [ 0., 0., 0., 0., 0., 0., 0., 0., 0., 0., 0., 0., 0., 0., 0., 0.,
          1., 0., 0., 0., 0., 0., 0., 0., 0., 0., 0., 0., 0., 0., 0., 0.,
          0., 0., 0., 0., 0., 0., 0., 0., 0., 0., 0., 0., 0., 0., 0., 0.,
          0., 0. ]
      - [ 0., 0., 0., 0., 0., 0., 0., 0., 0., 0., 0., 0., 0., 0., 0., 0.,
          0., 0., 0., 0., 0., 0., 0., 0., 0., 0., 0., 0., 0., 0., 0., 0.,
          0., 0., 1., 0., 0., 0., 0., 0., 0., 0., 0., 0., 0., 0., 0., 0.,
          0., 0. ]
      - [ 0., 0., 0., 0., 0., 0., 0., 0., 0., 0., 0., 0., 0., 0., 0., 0.,
          0., 0., 0., 0., 0., 0., 0., 0., 0., 0., 0., 0., 0., 0., 0., 0.,
          0., 1., 0., 0., 0., 0., 0., 0., 0., 0., 0., 0., 0., 0., 0., 0.,
          0., 0. ]
      - [ 0., 0., 0., 0., 0., 0., 0., 0., 0., 0., 0., 0., 0., 0., 0., 0.,
          1., 0., 0., 0., 0., 0., 0., 0., 0., 0., 0., 0., 0., 0., 0., 0.,
          0., 0., 0., 0., 0., 0., 0., 0., 0., 0., 0., 0., 0., 0., 0., 0.,
          0., 0. ]
      - [ 0., 0., 0., 0., 0., 0., 0., 0., 0., 0., 0., 0., 0., 0., 0., 0.,
          0., 0., 0., 0., 0., 0., 0., 0., 0., 0., 0., 0., 0., 0., 0., 0.,
          0., 1., 0., 0., 0., 0., 0., 0., 0., 0., 0., 0., 0., 0., 0., 0.,
          0., 0. ]
      - [ 0., 0., 0., 0., 0., 0., 0., 0., 0., 0., 0., 0., 0., 0., 0., 0.,
          0., 0., 0., 0., 0., 0., 0., 0., 0., 0., 0., 0., 0., 0., 0., 0.,
          0., 0., 0., 0., 0., 0., 0., 0., 0., 1., 0., 0., 0., 0., 0., 0.,
          0., 0. ]
      - [ 0., 0., 0., 0., 0., 0., 0., 0., 0., 0., 0., 0., 0., 0., 0., 0.,
          1., 0., 0., 0., 0., 0., 0., 0., 0., 0., 0., 0., 0., 0., 0., 0.,
          0., 0., 0., 0., 0., 0., 0., 0., 0., 0., 0., 0., 0., 0., 0., 0.,
          0., 0. ]
      - [ 0., 0., 0., 0., 0., 0., 0., 0., 0., 0., 0., 0., 0., 0., 0., 0.,
          0., 0., 0., 0., 0., 0., 0., 0., 0., 0., 0., 0., 0., 0., 0., 0.,
          0., 0., 0., 0., 0., 0., 1., 0., 0., 0., 0., 0., 0., 0., 0., 0.,
          0., 0. ]
      - [ 0., 0., 0., 0., 0., 0., 0., 0., 0., 0., 0., 0., 0., 0., 0., 0.,
          0., 0., 0., 0., 0., 0., 0., 0., 0., 0., 0., 0., 0., 0., 0., 0.,
          0., 0., 0., 0., 0., 0., 1., 0., 0., 0., 0., 0., 0., 0., 0., 0.,
          0., 0. ]
      - [ 0., 0., 0., 0., 0., 0., 0., 0., 0., 0., 0., 0., 0., 0., 0., 0.,
          0., 0., 0., 0., 0., 0., 0., 0., 0., 0., 0., 0., 0., 0., 0., 0.,
          0., 0., 0., 0., 0., 0., 0., 0., 0., 0., 0., 0., 0., 0., 0., 1.,
          0., 0. ]
      - [ 0., 0., 0., 0., 0., 0., 0., 0., 0., 0., 0., 0., 0., 0., 0., 0.,
          1., 0., 0., 0., 0., 0., 0., 0., 0., 0., 0., 0., 0., 0., 0., 0.,
          0., 0., 0., 0., 0., 0., 0., 0., 0., 0., 0., 0., 0., 0., 0., 0.,
          0., 0. ]
      - [ 0., 0., 0., 0., 0., 0., 0., 0., 0., 0., 0., 0., 0., 0., 0., 0.,
          1., 0., 0., 0., 0., 0., 0., 0., 0., 0., 0., 0., 0., 0., 0., 0.,
          0., 0., 0., 0., 0., 0., 0., 0., 0., 0., 0., 0., 0., 0., 0., 0.,
          0., 0. ]
      - [ 0., 0., 0., 0., 0., 0., 0., 0., 0., 0., 0., 0., 0., 0., 0., 0.,
          1., 0., 0., 0., 0., 0., 0., 0., 0., 0., 0., 0., 0., 0., 0., 0.,
          0., 0., 0., 0., 0., 0., 0., 0., 0., 0., 0., 0., 0., 0., 0., 0.,
          0., 0. ]
      - [ 0., 0., 0., 0., 0., 0., 0., 0., 0., 0., 0., 0., 0., 0., 0., 0.,
          0., 0., 0., 0., 0., 0., 0., 0., 0., 0., 0., 0., 0., 0., 0., 0.,
          0., 0., 0., 0., 0., 0., 1., 0., 0., 0., 0., 0., 0., 0., 0., 0.,
          0., 0. ]
      - [ 0., 0., 0., 0., 0., 0., 0., 0., 0., 0., 0., 0., 0., 0., 1., 0.,
          0., 0., 0., 0., 0., 0., 0., 0., 0., 0., 0., 0., 0., 0., 0., 0.,
          0., 0., 0., 0., 0., 0., 0., 0., 0., 0., 0., 0., 0., 0., 0., 0.,
          0., 0. ]
      - [ 0., 0., 0., 0., 0., 0., 0., 0., 0., 0., 1., 0., 0., 0., 0., 0.,
          0., 0., 0., 0., 0., 0., 0., 0., 0., 0., 0., 0., 0., 0., 0., 0.,
          0., 0., 0., 0., 0., 0., 0., 0., 0., 0., 0., 0., 0., 0., 0., 0.,
          0., 0. ]
      - [ 0., 0., 0., 0., 0., 0., 0., 0., 0., 0., 0., 0., 0., 0., 0., 0.,
          0., 0., 0., 0., 0., 0., 0., 0., 0., 0., 0., 0., 0., 0., 0., 0.,
          0., 0., 0., 0., 0., 0., 1., 0., 0., 0., 0., 0., 0., 0., 0., 0.,
          0., 0. ]
      - [ 0., 0., 0., 0., 0., 0., 0., 0., 0., 0., 0., 0., 0., 0., 0., 0.,
          0., 0., 0., 0., 0., 0., 0., 0., 0., 0., 0., 0., 0., 0., 0., 0.,
          0., 0., 0., 0., 1., 0., 0., 0., 0., 0., 0., 0., 0., 0., 0., 0.,
          0., 0. ]
      - [ 0., 0., 0., 0., 0., 0., 0., 0., 0., 0., 0., 0., 0., 0., 0., 0.,
          0., 0., 0., 0., 0., 0., 0., 0., 0., 0., 0., 0., 0., 0., 0., 0.,
          0., 0., 0., 0., 0., 0., 0., 0., 0., 0., 1., 0., 0., 0., 0., 0.,
          0., 0. ]
      - [ 0., 0., 0., 0., 0., 0., 0., 0., 1., 0., 0., 0., 0., 0., 0., 0.,
          0., 0., 0., 0., 0., 0., 0., 0., 0., 0., 0., 0., 0., 0., 0., 0.,
          0., 0., 0., 0., 0., 0., 0., 0., 0., 0., 0., 0., 0., 0., 0., 0.,
          0., 0. ]
      - [ 0., 0., 0., 0., 0., 0., 0., 0., 0., 0., 0., 0., 0., 0., 0., 0.,
          1., 0., 0., 0., 0., 0., 0., 0., 0., 0., 0., 0., 0., 0., 0., 0.,
          0., 0., 0., 0., 0., 0., 0., 0., 0., 0., 0., 0., 0., 0., 0., 0.,
          0., 0. ]
      - [ 0., 0., 0., 0., 0., 0., 0., 0., 0., 0., 0., 0., 0., 0., 0., 0.,
          0., 0., 0., 0., 0., 0., 0., 0., 0., 1., 0., 0., 0., 0., 0., 0.,
          0., 0., 0., 0., 0., 0., 0., 0., 0., 0., 0., 0., 0., 0., 0., 0.,
          0., 0. ]
      - [ 0., 0., 0., 0., 0., 0., 0., 0., 0., 0., 0., 0., 0., 0., 0., 0.,
          0., 0., 0., 0., 0., 0., 0., 0., 0., 0., 0., 0., 0., 0., 0., 0.,
          0., 1., 0., 0., 0., 0., 0., 0., 0., 0., 0., 0., 0., 0., 0., 0.,
          0., 0. ]
      - [ 0., 0., 0., 0., 0., 0., 0., 0., 0., 0., 0., 0., 0., 0., 0., 0.,
          0., 0., 0., 0., 0., 0., 0., 0., 0., 0., 0., 0., 0., 0., 0., 0.,
          0., 0., 1., 0., 0., 0., 0., 0., 0., 0., 0., 0., 0., 0., 0., 0.,
          0., 0. ]
      - [ 0., 0., 0., 0., 0., 0., 0., 0., 0., 0., 0., 0., 0., 0., 0., 0.,
          1., 0., 0., 0., 0., 0., 0., 0., 0., 0., 0., 0., 0., 0., 0., 0.,
          0., 0., 0., 0., 0., 0., 0., 0., 0., 0., 0., 0., 0., 0., 0., 0.,
          0., 0. ]
      - [ 0., 0., 0., 0., 0., 0., 0., 0., 0., 0., 0., 0., 0., 0., 0., 0.,
          0., 0., 0., 0., 0., 0., 0., 0., 0., 0., 0., 0., 0., 0., 0., 1.,
          0., 0., 0., 0., 0., 0., 0., 0., 0., 0., 0., 0., 0., 0., 0., 0.,
          0., 0. ]
      - [ 0., 0., 0., 0., 0., 0., 0., 0., 0., 0., 0., 0., 0., 0., 0., 0.,
          0., 0., 0., 0., 0., 0., 0., 0., 0., 0., 0., 0., 0., 0., 0., 0.,
          0., 0., 0., 0., 0., 0., 0., 0., 1., 0., 0., 0., 0., 0., 0., 0.,
          0., 0. ]
      - [ 0., 0., 0., 0., 0., 0., 0., 0., 0., 0., 0., 0., 0., 0., 0., 0.,
          1., 0., 0., 0., 0., 0., 0., 0., 0., 0., 0., 0., 0., 0., 0., 0.,
          0., 0., 0., 0., 0., 0., 0., 0., 0., 0., 0., 0., 0., 0., 0., 0.,
          0., 0. ]
      - [ 0., 0., 0., 0., 0., 0., 0., 0., 0., 0., 0., 0., 0., 0., 0., 0.,
          0., 0., 0., 0., 0., 0., 0., 0., 0., 0., 0., 0., 0., 0., 0., 1.,
          0., 0., 0., 0., 0., 0., 0., 0., 0., 0., 0., 0., 0., 0., 0., 0.,
          0., 0. ]
      - [ 0., 0., 0., 0., 0., 0., 0., 0., 0., 0., 0., 0., 0., 0., 0., 1.,
          0., 0., 0., 0., 0., 0., 0., 0., 0., 0., 0., 0., 0., 0., 0., 0.,
          0., 0., 0., 0., 0., 0., 0., 0., 0., 0., 0., 0., 0., 0., 0., 0.,
          0., 0. ]
      - [ 0., 0., 0., 0., 0., 0., 0., 0., 0., 0., 0., 0., 0., 0., 0., 0.,
          0., 0., 0., 0., 0., 0., 0., 0., 0., 0., 0., 0., 0., 0., 0., 0.,
          0., 0., 0., 0., 0., 0., 0., 0., 0., 1., 0., 0., 0., 0., 0., 0.,
          0., 0. ]
      - [ 0., 1., 0., 0., 0., 0., 0., 0., 0., 0., 0., 0., 0., 0., 0., 0.,
          0., 0., 0., 0., 0., 0., 0., 0., 0., 0., 0., 0., 0., 0., 0., 0.,
          0., 0., 0., 0., 0., 0., 0., 0., 0., 0., 0., 0., 0., 0., 0., 0.,
          0., 0. ]
      - [ 0., 0., 0., 0., 0., 0., 0., 0., 0., 0., 0., 0., 0., 0., 0., 0.,
          0., 0., 0., 0., 0., 0., 0., 0., 0., 0., 0., 0., 0., 0., 0., 0.,
          0., 0., 1., 0., 0., 0., 0., 0., 0., 0., 0., 0., 0., 0., 0., 0.,
          0., 0. ]
      - [ 0., 0., 0., 0., 0., 0., 0., 0., 0., 0., 0., 0., 0., 0., 0., 0.,
          1., 0., 0., 0., 0., 0., 0., 0., 0., 0., 0., 0., 0., 0., 0., 0.,
          0., 0., 0., 0., 0., 0., 0., 0., 0., 0., 0., 0., 0., 0., 0., 0.,
          0., 0. ]
      - [ 0., 0., 0., 0., 0., 0., 0., 0., 0., 0., 0., 0., 0., 0., 0., 0.,
          1., 0., 0., 0., 0., 0., 0., 0., 0., 0., 0., 0., 0., 0., 0., 0.,
          0., 0., 0., 0., 0., 0., 0., 0., 0., 0., 0., 0., 0., 0., 0., 0.,
          0., 0. ]
      - [ 0., 0., 0., 0., 0., 0., 0., 0., 0., 0., 0., 0., 0., 0., 0., 0.,
          0., 0., 0., 0., 0., 0., 0., 0., 0., 0., 0., 0., 0., 0., 0., 0.,
          0., 0., 0., 0., 0., 0., 1., 0., 0., 0., 0., 0., 0., 0., 0., 0.,
          0., 0. ]
      - [ 0., 0., 0., 0., 0., 0., 0., 0., 0., 0., 0., 0., 0., 0., 0., 0.,
          0., 0., 0., 0., 0., 0., 0., 0., 0., 0., 0., 0., 0., 0., 0., 1.,
          0., 0., 0., 0., 0., 0., 0., 0., 0., 0., 0., 0., 0., 0., 0., 0.,
          0., 0. ]
      - [ 0., 0., 0., 0., 0., 0., 0., 0., 0., 0., 0., 0., 0., 0., 0., 0.,
          0., 0., 0., 0., 0., 0., 0., 0., 0., 0., 0., 0., 0., 0., 0., 0.,
          0., 0., 1., 0., 0., 0., 0., 0., 0., 0., 0., 0., 0., 0., 0., 0.,
          0., 0. ]
      - [ 0., 0., 0., 0., 0., 0., 0., 0., 0., 0., 0., 0., 0., 0., 0., 0.,
          1., 0., 0., 0., 0., 0., 0., 0., 0., 0., 0., 0., 0., 0., 0., 0.,
          0., 0., 0., 0., 0., 0., 0., 0., 0., 0., 0., 0., 0., 0., 0., 0.,
          0., 0. ]
      - [ 0., 0., 0., 0., 0., 0., 0., 0., 0., 0., 0., 0., 0., 0., 0., 0.,
          1., 0., 0., 0., 0., 0., 0., 0., 0., 0., 0., 0., 0., 0., 0., 0.,
          0., 0., 0., 0., 0., 0., 0., 0., 0., 0., 0., 0., 0., 0., 0., 0.,
          0., 0. ]
      - [ 0., 0., 0., 0., 0., 0., 0., 0., 0., 0., 0., 0., 0., 0., 0., 0.,
          1., 0., 0., 0., 0., 0., 0., 0., 0., 0., 0., 0., 0., 0., 0., 0.,
          0., 0., 0., 0., 0., 0., 0., 0., 0., 0., 0., 0., 0., 0., 0., 0.,
          0., 0. ]
      - [ 0., 0., 0., 0., 0., 0., 0., 0., 0., 0., 0., 0., 0., 0., 0., 0.,
          0., 0., 0., 0., 0., 0., 0., 0., 0., 0., 0., 0., 0., 0., 0., 0.,
          0., 0., 0., 0., 0., 0., 1., 0., 0., 0., 0., 0., 0., 0., 0., 0.,
          0., 0. ]
      - [ 0., 0., 0., 0., 0., 0., 0., 0., 0., 0., 0., 0., 0., 0., 0., 0.,
          0., 0., 0., 0., 0., 0., 0., 0., 0., 0., 0., 0., 0., 0., 0., 0.,
          0., 0., 0., 0., 0., 0., 0., 1., 0., 0., 0., 0., 0., 0., 0., 0.,
          0., 0. ]
      - [ 0., 0., 0., 0., 0., 0., 0., 0., 0., 0., 0., 0., 0., 0., 0., 0.,
          1., 0., 0., 0., 0., 0., 0., 0., 0., 0., 0., 0., 0., 0., 0., 0.,
          0., 0., 0., 0., 0., 0., 0., 0., 0., 0., 0., 0., 0., 0., 0., 0.,
          0., 0. ]
      - [ 0., 0., 0., 0., 0., 0., 0., 0., 0., 0., 0., 1., 0., 0., 0., 0.,
          0., 0., 0., 0., 0., 0., 0., 0., 0., 0., 0., 0., 0., 0., 0., 0.,
          0., 0., 0., 0., 0., 0., 0., 0., 0., 0., 0., 0., 0., 0., 0., 0.,
          0., 0. ]
      - [ 0., 0., 0., 0., 0., 0., 0., 0., 0., 0., 0., 0., 0., 0., 0., 0.,
          0., 0., 0., 0., 0., 0., 0., 0., 0., 0., 0., 0., 0., 0., 0., 0.,
          0., 0., 1., 0., 0., 0., 0., 0., 0., 0., 0., 0., 0., 0., 0., 0.,
          0., 0. ]
      - [ 0., 0., 0., 0., 0., 0., 0., 0., 0., 0., 0., 0., 0., 0., 0., 0.,
          0., 0., 0., 0., 0., 0., 0., 0., 0., 0., 0., 0., 0., 0., 0., 0.,
          0., 0., 1., 0., 0., 0., 0., 0., 0., 0., 0., 0., 0., 0., 0., 0.,
          0., 0. ]
      - [ 0., 0., 0., 0., 0., 0., 0., 0., 0., 0., 0., 0., 0., 0., 0., 0.,
          0., 0., 0., 0., 0., 0., 0., 0., 0., 0., 0., 0., 0., 0., 0., 0.,
          0., 0., 0., 0., 0., 0., 1., 0., 0., 0., 0., 0., 0., 0., 0., 0.,
          0., 0. ]
   decision_functions:
      -
         sv_count: 15
         rho: -5.9999999999999998e-01
         alpha: [ 6.2824878643948734e-01, 6.2824878643948734e-01,
             6.2824878643948723e-01, 6.2824878643946946e-01,
             6.2824878643948701e-01, 6.2824878643946969e-01,
             6.2824878643946958e-01, 6.2824878643948701e-01,
             6.2824878643948767e-01, 6.2824878643950488e-01,
             6.2824878643950466e-01, 6.2824878643950466e-01,
             -2.5129951457579480e+00, -2.5129951457579494e+00,
             -2.5129951457579489e+00 ]
         index: [ 102, 88, 114, 39, 5, 9, 83, 109, 130, 77, 19, 52, 0,
             33, 7 ]
      -
         sv_count: 15
         rho: -5.9999999999999998e-01
         alpha: [ 6.2824878643948734e-01, 6.2824878643948734e-01,
             6.2824878643948723e-01, 6.2824878643946946e-01,
             6.2824878643948701e-01, 6.2824878643946969e-01,
             6.2824878643946958e-01, 6.2824878643948701e-01,
             6.2824878643948767e-01, 6.2824878643950488e-01,
             6.2824878643950466e-01, 6.2824878643950466e-01,
             -2.5129951457579480e+00, -2.5129951457579494e+00,
             -2.5129951457579489e+00 ]
         index: [ 102, 88, 114, 39, 5, 9, 83, 109, 130, 77, 19, 52, 113,
             42, 34 ]
      -
         sv_count: 15
         rho: -5.9999999999999998e-01
         alpha: [ 6.2824878643948734e-01, 6.2824878643948734e-01,
             6.2824878643948723e-01, 6.2824878643946946e-01,
             6.2824878643948701e-01, 6.2824878643946969e-01,
             6.2824878643946958e-01, 6.2824878643948701e-01,
             6.2824878643948767e-01, 6.2824878643950488e-01,
             6.2824878643950466e-01, 6.2824878643950466e-01,
             -2.5129951457579480e+00, -2.5129951457579494e+00,
             -2.5129951457579489e+00 ]
         index: [ 102, 88, 114, 39, 5, 9, 83, 109, 130, 77, 19, 52, 55,
             2, 32 ]
      -
         sv_count: 27
         rho: -5.2631580348049892e-02
         alpha: [ 1.4879577549479361e+00, 1.4879577810088467e+00,
             1.1892005332945880e+01, 1.4879576983830127e+00,
             2.0959523226589059e+00, 1.4879576396213026e+00,
             1.1893347460021676e+01, 1.4879577810084144e+00,
             1.2500000000000000e+01, 2.0946102383614149e+00,
             1.4879577549479051e+00, 1.2500000000000000e+01,
             1.4879576556048266e+00, 1.4879578035829122e+00,
             -1.2500000000000000e+01, -1.6532863644695355e+00,
             -1.2116385762459201e+01, -1.6532863719965749e+00,
             -1.6532863787366323e+00, -1.6532863787366214e+00,
             -1.6532863384207692e+00, -1.6532863719965851e+00,
             -2.0369006020103666e+00, -1.6532863384203944e+00,
             -1.2395584191878097e+01, -1.7577021239682569e+00,
             -1.2500000000000000e+01 ]
         index: [ 102, 88, 114, 39, 63, 5, 9, 83, 109, 35, 130, 77, 19,
             52, 1, 75, 4, 103, 66, 8, 101, 67, 49, 126, 68, 120, 61 ]
      -
         sv_count: 26
         rho: -6.6666666503178140e-01
         alpha: [ 5.2354064291916935e-01, 1.2418313010642844e+01,
             1.2238229670500965e+01, 5.2354064291915681e-01,
             7.8531110337527632e-01, 5.2354077387624232e-01,
             1.2500000000000000e+01, 1.1272835112105680e+01,
             5.2354064291917746e-01, 5.2354064291920233e-01,
             1.7507055308135353e+00, 6.0522763227634235e-01,
             1.2500000000000000e+01, 1.2500000000000000e+01,
             5.2354077387623665e-01, 5.2354064291918334e-01,
             1.2500000000000000e+01, -1.2493516246179400e+01,
             -1.2442585309514834e+01, -2.6241872303306168e+00,
             -1.2500000000000000e+01, -1.2500000000000000e+01,
             -1.2500000000000000e+01, -2.6751180360381621e+00,
             -1.2500000000000000e+01, -1.2500000000000000e+01 ]
         index: [ 102, 88, 114, 39, 63, 5, 86, 9, 83, 109, 35, 106, 130,
             77, 19, 52, 24, 91, 85, 100, 70, 115, 54, 37, 89, 81 ]
      -
         sv_count: 16
         rho: -4.9999999999999989e-01
         alpha: [ 7.8531102985730128e-01, 7.8531102985730128e-01,
             7.8531102985730128e-01, 7.8531102985730128e-01,
             7.8531110337527588e-01, 7.8531110337527588e-01,
             7.8531110337527588e-01, 7.8531110337527588e-01,
             7.8531102985730128e-01, 7.8531102985730128e-01,
             7.8531102985730128e-01, 7.8531102985730139e-01,
             -2.3559331630898783e+00, -2.3559331630898783e+00,
             -2.3559331630898783e+00, -2.3559331630898788e+00 ]
         index: [ 102, 88, 114, 39, 5, 9, 83, 109, 130, 77, 19, 52, 3,
             110, 12, 79 ]
      -
         sv_count: 26
         rho: -1.1111111313211040e-01
         alpha: [ 1.3961085419635171e+00, 1.3961084468013671e+00,
             1.3961084468168867e+00, 1.3961084468013678e+00,
             1.3961085419635713e+00, 1.1932830771070890e+01,
             1.3961084468168776e+00, 1.3961085419635526e+00,
             1.9632776757304691e+00, 1.2500000000000000e+01,
             1.3961085322956088e+00, 1.3961085419636419e+00,
             1.2500000000000000e+01, 1.2500000000000000e+01,
             -1.7451355774655875e+00, -1.7451355774656763e+00,
             -1.7451356726123428e+00, -1.7451356726278531e+00,
             -1.7451355871348557e+00, -1.7451355871351772e+00,
             -1.2490456263699082e+01, -1.7546793234348415e+00,
             -1.2205446215728159e+01, -1.2500000000000000e+01,
             -2.0396894568841741e+00, -1.2500000000000000e+01 ]
         index: [ 102, 88, 114, 39, 5, 9, 83, 109, 35, 130, 77, 19, 52,
             24, 6, 10, 11, 74, 56, 99, 53, 26, 116, 36, 38, 48 ]
      -
         sv_count: 18
         rho: -4.2857143282879079e-01
         alpha: [ 8.9749845357169711e-01, 8.9749845357169722e-01,
             8.9749826634246288e-01, 8.9749826634246299e-01,
             8.9749826634302332e-01, 8.9749826634302332e-01,
             8.9749845357167946e-01, 1.2500000000000000e+01,
             8.9749845357167934e-01, 1.2500000000000000e+01,
             8.9749826634305840e-01, 8.9749826634305874e-01,
             -2.2437458530859424e+00, -1.2498247131682627e+01,
             -1.2387812689996064e+01, -2.3559331630898783e+00,
             -2.2454987214033517e+00, -2.2437458530859775e+00 ]
         index: [ 102, 88, 114, 39, 5, 9, 83, 109, 130, 77, 19, 52, 57,
             76, 112, 65, 92, 30 ]
      -
         sv_count: 19
         rho: -2.6315789473684215e-01
         alpha: [ 1.1573005438280397e+00, 1.1573005438263573e+00,
             1.1573005438271986e+00, 1.1573003567554541e+00,
             1.1573005438207484e+00, 1.1573005438242536e+00,
             1.1573005438243940e+00, 1.1573005438262167e+00,
             1.1573003566971551e+00, 1.1573003567554185e+00,
             1.1573003566971727e+00, 1.1573005438260766e+00,
             -1.9839435756083232e+00, -1.9839437626737053e+00,
             -1.9839435756029946e+00, -1.9839437626737755e+00,
             -1.9839437626738106e+00, -1.9839435756021533e+00,
             -1.9839437626737229e+00 ]
         index: [ 102, 88, 114, 39, 5, 9, 83, 109, 130, 77, 19, 52, 105,
             93, 18, 20, 21, 22, 98 ]
      -
         sv_count: 14
         rho: -7.1428571428571408e-01
         alpha: [ 4.4874932039684606e-01, 4.4874932039684612e-01,
             4.4874913317155529e-01, 4.4874913317155546e-01,
             4.4874913317209875e-01, 4.4874913317209913e-01,
             4.4874913317250220e-01, 4.4874913317250220e-01,
             4.4874913317157283e-01, 4.4874913317211629e-01,
             4.4874913317252002e-01, 4.4874913317251991e-01,
             -2.6924949862576386e+00, -2.6924949862570950e+00 ]
         index: [ 102, 88, 114, 39, 5, 9, 83, 109, 130, 77, 19, 52, 59,
             128 ]
      -
         sv_count: 15
         rho: -6.9230769230769207e-01
         alpha: [ 4.8326831383100133e-01, 4.8326834705752497e-01,
             4.8326834704890426e-01, 4.8326831383102159e-01,
             4.8326834718503403e-01, 4.8326834695414761e-01,
             4.8326834705749844e-01, 4.8326831383101154e-01,
             4.8326834718506123e-01, 1.2500000000000000e+01,
             4.8326831383101154e-01, 4.8326834695412030e-01,
             -2.6579759123860014e+00, -2.6579757723803348e+00,
             -1.2500000000000000e+01 ]
         index: [ 102, 88, 114, 39, 5, 9, 83, 109, 130, 77, 19, 52, 14,
             40, 97 ]
      -
         sv_count: 14
         rho: -7.1428571428571408e-01
         alpha: [ 4.4874932039684606e-01, 4.4874932039684612e-01,
             4.4874913317155529e-01, 4.4874913317155546e-01,
             4.4874913317209875e-01, 4.4874913317209913e-01,
             4.4874913317250220e-01, 4.4874913317250220e-01,
             4.4874913317157283e-01, 4.4874913317211629e-01,
             4.4874913317252002e-01, 4.4874913317251991e-01,
             -2.6924949862576386e+00, -2.6924949862570950e+00 ]
         index: [ 102, 88, 114, 39, 5, 9, 83, 109, 130, 77, 19, 52, 15,
             28 ]
      -
         sv_count: 6
         rho: 0.
         alpha: [ 1.5706221332325772e+00, 1.5706221332325772e+00,
             1.5706221332325772e+00, -1.5706221332325772e+00,
             -1.5706221332325772e+00, -1.5706221332325772e+00 ]
         index: [ 0, 33, 7, 113, 42, 34 ]
      -
         sv_count: 6
         rho: 0.
         alpha: [ 1.5706221332325772e+00, 1.5706221332325772e+00,
             1.5706221332325772e+00, -1.5706221332325772e+00,
             -1.5706221332325772e+00, -1.5706221332325772e+00 ]
         index: [ 0, 33, 7, 55, 2, 32 ]
      -
         sv_count: 14
         rho: 5.7142857142857151e-01
         alpha: [ 2.4681203260565776e+00, 2.4681205132785551e+00,
             2.4681205132785204e+00, -6.7312360615067390e-01,
             -6.7312379336797168e-01, -6.7312379336702544e-01,
             -6.7312360615067390e-01, -6.7312379336706007e-01,
             -6.7312379336790129e-01, -6.7312379337259864e-01,
             -6.7312379336786610e-01, -6.7312379336691996e-01,
             -6.7312379336695527e-01, -6.7312379336800710e-01 ]
         index: [ 0, 33, 7, 1, 75, 4, 103, 66, 8, 101, 67, 126, 68, 61 ]
      -
         sv_count: 8
         rho: 2.5000000000000011e-01
         alpha: [ 1.9632776297817349e+00, 1.9632775930227460e+00,
             1.9632775930227460e+00, -1.1779665999244338e+00,
             -1.1779665264064592e+00, -1.1779665631654446e+00,
             -1.1779665631654446e+00, -1.1779665631654446e+00 ]
         index: [ 0, 33, 7, 91, 85, 70, 115, 89 ]
      -
         sv_count: 7
         rho: 1.4285714285714285e-01
         alpha: [ 1.7949967199140366e+00, 1.7949967199130199e+00,
             1.7949965326876947e+00, -1.3462473995162092e+00,
             -1.3462475867414472e+00, -1.3462473995151574e+00,
             -1.3462475867419375e+00 ]
         index: [ 0, 33, 7, 3, 110, 12, 79 ]
      -
         sv_count: 12
         rho: 4.9999999999999983e-01
         alpha: [ 2.3559331630898783e+00, 2.3559331630898783e+00,
             2.3559331630898783e+00, -7.8531102985730128e-01,
             -7.8531102985730128e-01, -7.8531102985730128e-01,
             -7.8531110337527588e-01, -7.8531110337527588e-01,
             -7.8531110337527588e-01, -7.8531102985730128e-01,
             -7.8531102985730128e-01, -7.8531102985730128e-01 ]
         index: [ 0, 33, 7, 6, 10, 11, 74, 56, 99, 53, 116, 48 ]
      -
         sv_count: 7
         rho: 1.4285714285714285e-01
         alpha: [ 1.7949967199140366e+00, 1.7949967199130199e+00,
             1.7949965326876947e+00, -1.3462473995162092e+00,
             -1.3462475867414472e+00, -1.3462473995151574e+00,
             -1.3462475867419375e+00 ]
         index: [ 0, 33, 7, 57, 76, 112, 30 ]
      -
         sv_count: 10
         rho: 4.0000000000000002e-01
         alpha: [ 2.1988708461541107e+00, 2.1988708461540929e+00,
             2.1988708461541107e+00, -9.4237327327511888e-01,
             -9.4237327327513654e-01, -9.4237327327513654e-01,
             -9.4237327327511844e-01, -9.4237308604334280e-01,
             -9.4237308604334269e-01, -9.4237327327511844e-01 ]
         index: [ 0, 33, 7, 105, 93, 18, 20, 21, 22, 98 ]
      -
         sv_count: 5
         rho: -2.0000000000000009e-01
         alpha: [ 1.2564975728789920e+00, 1.2564975728789569e+00,
             1.2564977601107676e+00, -1.8847465465502551e+00,
             -1.8847463593184617e+00 ]
         index: [ 0, 33, 7, 59, 128 ]
      -
         sv_count: 9
         rho: -2.0000000794724762e-01
         alpha: [ 1.2564975728789916e+00, 1.2564975728789562e+00,
             1.2480367163145461e+01, 1.2500000000000000e+01,
             1.2761304097334956e+00, -1.8847463593184444e+00,
             -1.2500000000000000e+01, -1.8847463593184615e+00,
             -1.2500000000000000e+01 ]
         index: [ 0, 33, 7, 58, 27, 14, 40, 97, 82 ]
      -
         sv_count: 5
         rho: -2.0000000000000009e-01
         alpha: [ 1.2564975728789920e+00, 1.2564975728789569e+00,
             1.2564977601107676e+00, -1.8847465465502551e+00,
             -1.8847463593184617e+00 ]
         index: [ 0, 33, 7, 15, 28 ]
      -
         sv_count: 6
         rho: 0.
         alpha: [ 1.5706221332325772e+00, 1.5706221332325772e+00,
             1.5706221332325772e+00, -1.5706221332325772e+00,
             -1.5706221332325772e+00, -1.5706221332325772e+00 ]
         index: [ 113, 42, 34, 55, 2, 32 ]
      -
         sv_count: 14
         rho: 5.7142857142857151e-01
         alpha: [ 2.4681203260565776e+00, 2.4681205132785551e+00,
             2.4681205132785204e+00, -6.7312360615067390e-01,
             -6.7312379336797168e-01, -6.7312379336702544e-01,
             -6.7312360615067390e-01, -6.7312379336706007e-01,
             -6.7312379336790129e-01, -6.7312379337259864e-01,
             -6.7312379336786610e-01, -6.7312379336691996e-01,
             -6.7312379336695527e-01, -6.7312379336800710e-01 ]
         index: [ 113, 42, 34, 1, 75, 4, 103, 66, 8, 101, 67, 126, 68,
             61 ]
      -
         sv_count: 8
         rho: 2.5000000000000011e-01
         alpha: [ 1.9632776297817349e+00, 1.9632775930227460e+00,
             1.9632775930227460e+00, -1.1779665999244338e+00,
             -1.1779665264064592e+00, -1.1779665631654446e+00,
             -1.1779665631654446e+00, -1.1779665631654446e+00 ]
         index: [ 113, 42, 34, 91, 85, 70, 115, 89 ]
      -
         sv_count: 7
         rho: 1.4285714285714285e-01
         alpha: [ 1.7949967199140366e+00, 1.7949967199130199e+00,
             1.7949965326876947e+00, -1.3462473995162092e+00,
             -1.3462475867414472e+00, -1.3462473995151574e+00,
             -1.3462475867419375e+00 ]
         index: [ 113, 42, 34, 3, 110, 12, 79 ]
      -
         sv_count: 12
         rho: 4.9999999999999983e-01
         alpha: [ 2.3559331630898783e+00, 2.3559331630898783e+00,
             2.3559331630898783e+00, -7.8531102985730128e-01,
             -7.8531102985730128e-01, -7.8531102985730128e-01,
             -7.8531110337527588e-01, -7.8531110337527588e-01,
             -7.8531110337527588e-01, -7.8531102985730128e-01,
             -7.8531102985730128e-01, -7.8531102985730128e-01 ]
         index: [ 113, 42, 34, 6, 10, 11, 74, 56, 99, 53, 116, 48 ]
      -
         sv_count: 7
         rho: 1.4285714285714285e-01
         alpha: [ 1.7949967199140366e+00, 1.7949967199130199e+00,
             1.7949965326876947e+00, -1.3462473995162092e+00,
             -1.3462475867414472e+00, -1.3462473995151574e+00,
             -1.3462475867419375e+00 ]
         index: [ 113, 42, 34, 57, 76, 112, 30 ]
      -
         sv_count: 10
         rho: 4.0000000000000002e-01
         alpha: [ 2.1988708461541107e+00, 2.1988708461540929e+00,
             2.1988708461541107e+00, -9.4237327327511888e-01,
             -9.4237327327513654e-01, -9.4237327327513654e-01,
             -9.4237327327511844e-01, -9.4237308604334280e-01,
             -9.4237308604334269e-01, -9.4237327327511844e-01 ]
         index: [ 113, 42, 34, 105, 93, 18, 20, 21, 22, 98 ]
      -
         sv_count: 5
         rho: -2.0000000000000009e-01
         alpha: [ 1.2564975728789920e+00, 1.2564975728789569e+00,
             1.2564977601107676e+00, -1.8847465465502551e+00,
             -1.8847463593184617e+00 ]
         index: [ 113, 42, 34, 59, 128 ]
      -
         sv_count: 6
         rho: 0.
         alpha: [ 1.5706221332325772e+00, 1.5706221332325772e+00,
             1.5706221332325772e+00, -1.5706221332325772e+00,
             -1.5706221332325772e+00, -1.5706221332325772e+00 ]
         index: [ 113, 42, 34, 14, 40, 97 ]
      -
         sv_count: 6
         rho: 0.
         alpha: [ 1.5706220627560610e+00, 1.5706221332325772e+00,
             1.2500000000000000e+01, -1.5706221332325772e+00,
             -1.2500000000000000e+01, -1.5706220627560610e+00 ]
         index: [ 113, 42, 34, 15, 28, 41 ]
      -
         sv_count: 14
         rho: 5.7142857142857151e-01
         alpha: [ 2.4681203260565776e+00, 2.4681205132785551e+00,
             2.4681205132785204e+00, -6.7312360615067390e-01,
             -6.7312379336797168e-01, -6.7312379336702544e-01,
             -6.7312360615067390e-01, -6.7312379336706007e-01,
             -6.7312379336790129e-01, -6.7312379337259864e-01,
             -6.7312379336786610e-01, -6.7312379336691996e-01,
             -6.7312379336695527e-01, -6.7312379336800710e-01 ]
         index: [ 55, 2, 32, 1, 75, 4, 103, 66, 8, 101, 67, 126, 68, 61 ]
      -
         sv_count: 8
         rho: 2.5000000000000011e-01
         alpha: [ 1.9632776297817349e+00, 1.9632775930227460e+00,
             1.9632775930227460e+00, -1.1779665999244338e+00,
             -1.1779665264064592e+00, -1.1779665631654446e+00,
             -1.1779665631654446e+00, -1.1779665631654446e+00 ]
         index: [ 55, 2, 32, 91, 85, 70, 115, 89 ]
      -
         sv_count: 7
         rho: 1.4285714285714285e-01
         alpha: [ 1.7949967199140366e+00, 1.7949967199130199e+00,
             1.7949965326876947e+00, -1.3462473995162092e+00,
             -1.3462475867414472e+00, -1.3462473995151574e+00,
             -1.3462475867419375e+00 ]
         index: [ 55, 2, 32, 3, 110, 12, 79 ]
      -
         sv_count: 12
         rho: 4.9999999999999983e-01
         alpha: [ 2.3559331630898783e+00, 2.3559331630898783e+00,
             2.3559331630898783e+00, -7.8531102985730128e-01,
             -7.8531102985730128e-01, -7.8531102985730128e-01,
             -7.8531110337527588e-01, -7.8531110337527588e-01,
             -7.8531110337527588e-01, -7.8531102985730128e-01,
             -7.8531102985730128e-01, -7.8531102985730128e-01 ]
         index: [ 55, 2, 32, 6, 10, 11, 74, 56, 99, 53, 116, 48 ]
      -
         sv_count: 7
         rho: 1.4285714285714285e-01
         alpha: [ 1.7949967199140366e+00, 1.7949967199130199e+00,
             1.7949965326876947e+00, -1.3462473995162092e+00,
             -1.3462475867414472e+00, -1.3462473995151574e+00,
             -1.3462475867419375e+00 ]
         index: [ 55, 2, 32, 57, 76, 112, 30 ]
      -
         sv_count: 10
         rho: 4.0000000000000002e-01
         alpha: [ 2.1988708461541107e+00, 2.1988708461540929e+00,
             2.1988708461541107e+00, -9.4237327327511888e-01,
             -9.4237327327513654e-01, -9.4237327327513654e-01,
             -9.4237327327511844e-01, -9.4237308604334280e-01,
             -9.4237308604334269e-01, -9.4237327327511844e-01 ]
         index: [ 55, 2, 32, 105, 93, 18, 20, 21, 22, 98 ]
      -
         sv_count: 5
         rho: -2.0000000000000009e-01
         alpha: [ 1.2564975728789920e+00, 1.2564975728789569e+00,
             1.2564977601107676e+00, -1.8847465465502551e+00,
             -1.8847463593184617e+00 ]
         index: [ 55, 2, 32, 59, 128 ]
      -
         sv_count: 6
         rho: 0.
         alpha: [ 1.5706221332325772e+00, 1.5706221332325772e+00,
             1.5706221332325772e+00, -1.5706221332325772e+00,
             -1.5706221332325772e+00, -1.5706221332325772e+00 ]
         index: [ 55, 2, 32, 14, 40, 97 ]
      -
         sv_count: 5
         rho: -2.0000000000000009e-01
         alpha: [ 1.2564975728789920e+00, 1.2564975728789569e+00,
             1.2564977601107676e+00, -1.8847465465502551e+00,
             -1.8847463593184617e+00 ]
         index: [ 55, 2, 32, 15, 28 ]
      -
         sv_count: 23
         rho: -6.3636364144076019e-01
         alpha: [ 1.2500000000000000e+01, 5.7113519875072716e-01,
             1.2285824095375467e+01, 5.7113525957812505e-01,
             5.7113526886719990e-01, 5.7113535655398628e-01,
             5.7113535619308720e-01, 5.7113535897209522e-01,
             1.2500000000000000e+01, 5.7113525957813405e-01,
             1.2500000000000000e+01, 5.7113526886718935e-01,
             1.2500000000000000e+01, 7.8531110337527554e-01,
             1.2500000000000000e+01, -1.2500000000000000e+01,
             -2.5701087628751935e+00, -1.2500000000000000e+01,
             -2.5701087632360919e+00, -1.2500000000000000e+01,
             -1.2500000000000000e+01, -1.2500000000000000e+01,
             -1.2500000000000000e+01 ]
         index: [ 1, 75, 4, 103, 66, 8, 101, 67, 49, 126, 125, 68, 51,
             119, 61, 91, 85, 100, 70, 29, 115, 89, 62 ]
      -
         sv_count: 15
         rho: -4.6666666666666645e-01
         alpha: [ 8.3766504860073032e-01, 8.3766504860136126e-01,
             8.3766504861678637e-01, 8.3766523578549523e-01,
             8.3766523578530205e-01, 8.3766504861811786e-01,
             8.3766504856721602e-01, 8.3766504861804802e-01,
             8.3766504856714563e-01, 8.3766523578551255e-01,
             8.3766504856700563e-01, -2.3035788836438917e+00,
             -2.3035790708284116e+00, -2.3035790708124959e+00,
             -2.3035790708279209e+00 ]
         index: [ 1, 75, 4, 103, 66, 8, 101, 67, 126, 68, 61, 3, 110, 12,
             79 ]
      -
         sv_count: 20
         rho: -1.1111111111111051e-01
         alpha: [ 1.2500000000000000e+01, 1.3961085444842716e+00,
             1.3961084681928619e+00, 1.3961085444843508e+00,
             1.3961084442820741e+00, 1.3961085086406808e+00,
             1.3961085465167355e+00, 1.3961084442820839e+00,
             1.3961084681928884e+00, 1.3961084442820932e+00,
             1.3961085444843702e+00, -1.7451356512362777e+00,
             -1.7451356107885010e+00, -1.7451355729124114e+00,
             -1.7451356107884248e+00, -1.7451355749449591e+00,
             -1.7451356107884552e+00, -1.7451356512362517e+00,
             -1.7451356751471281e+00, -1.2500000000000000e+01 ]
         index: [ 1, 75, 4, 103, 66, 8, 101, 67, 126, 68, 61, 6, 10, 11,
             74, 56, 99, 53, 116, 48 ]
      -
         sv_count: 25
         rho: -6.9230769426821404e-01
         alpha: [ 4.8326831590754488e-01, 4.8326831588850311e-01,
             1.2492448900970018e+01, 4.8326829003593375e-01,
             4.8326842080151439e-01, 4.8326842080152643e-01,
             4.8326831588987684e-01, 4.8326829003382687e-01,
             1.2500000000000000e+01, 4.8326831588985475e-01,
             1.2500000000000000e+01, 1.2492448936031373e+01,
             1.2500000000000000e+01, 1.2500000000000000e+01,
             4.9081938906593880e-01, 4.9081937987619351e-01,
             4.8326831588888441e-01, -2.6579758035406869e+00,
             -1.2500000000000000e+01, -1.2500000000000000e+01,
             -1.2500000000000000e+01, -1.2500000000000000e+01,
             -2.6579758035403049e+00, -1.2500000000000000e+01,
             -1.2500000000000000e+01 ]
         index: [ 1, 75, 4, 103, 66, 8, 101, 67, 49, 126, 125, 68, 51,
             120, 119, 31, 61, 57, 76, 112, 65, 92, 30, 72, 131 ]
      -
         sv_count: 18
         rho: -2.2222222222222232e-01
         alpha: [ 1.2215949561368695e+00, 1.2215949561368520e+00,
             1.2215949561368344e+00, 1.2215947689077755e+00,
             1.2215949561367820e+00, 1.2215949561368347e+00,
             1.2215949561368347e+00, 1.2215949561368868e+00,
             1.2215949561367818e+00, 1.2215949561368167e+00,
             1.2215949561368169e+00, -1.9196491632924122e+00,
             -1.9196493505215766e+00, -1.9196491632924297e+00,
             -1.9196491632923949e+00, -1.9196491632924473e+00,
             -1.9196491632924473e+00, -1.9196491632923773e+00 ]
         index: [ 1, 75, 4, 103, 66, 8, 101, 67, 126, 68, 61, 105, 93,
             18, 20, 21, 22, 98 ]
      -
         sv_count: 13
         rho: -6.9230769230769229e-01
         alpha: [ 4.8326829726192461e-01, 4.8326848449017740e-01,
             4.8326829726164389e-01, 4.8326829726195980e-01,
             4.8326829726167897e-01, 4.8326848449015986e-01,
             4.8326829726160919e-01, 4.8326829726160953e-01,
             4.8326829726164422e-01, 4.8326829726157405e-01,
             4.8326829726125869e-01, -2.6579758221675678e+00,
             -2.6579758221676726e+00 ]
         index: [ 1, 75, 4, 103, 66, 8, 101, 67, 126, 68, 61, 59, 128 ]
      -
         sv_count: 15
         rho: -6.9230769361765609e-01
         alpha: [ 4.8326829726192461e-01, 4.8326848449017740e-01,
             1.2499998127701261e+01, 4.8326829726164428e-01,
             4.8326829726195980e-01, 4.8326829726167908e-01,
             4.8326848449015986e-01, 4.8326829726160919e-01,
             4.8327016956034985e-01, 4.8326829726164411e-01,
             4.8326829726157405e-01, 4.8326829726125869e-01,
             -2.6579758221675678e+00, -2.6579758221676726e+00,
             -1.2500000000000000e+01 ]
         index: [ 1, 75, 4, 103, 66, 8, 101, 67, 49, 126, 68, 61, 14, 40,
             97 ]
      -
         sv_count: 13
         rho: -6.9230769230769229e-01
         alpha: [ 4.8326829726192461e-01, 4.8326848449017740e-01,
             4.8326829726164389e-01, 4.8326829726195980e-01,
             4.8326829726167897e-01, 4.8326848449015986e-01,
             4.8326829726160919e-01, 4.8326829726160953e-01,
             4.8326829726164422e-01, 4.8326829726157405e-01,
             4.8326829726125869e-01, -2.6579758221675678e+00,
             -2.6579758221676726e+00 ]
         index: [ 1, 75, 4, 103, 66, 8, 101, 67, 126, 68, 61, 15, 28 ]
      -
         sv_count: 9
         rho: -1.1111111111111113e-01
         alpha: [ 1.3961084143260196e+00, 1.3961086015138524e+00,
             1.3961084143263001e+00, 1.3961086015138697e+00,
             1.3961086015291717e+00, -1.7451357051028416e+00,
             -1.7451357051031924e+00, -1.7451355179000574e+00,
             -1.7451357051031222e+00 ]
         index: [ 91, 85, 70, 115, 89, 3, 110, 12, 79 ]
      -
         sv_count: 23
         rho: 4.5454545291760567e-01
         alpha: [ 2.2845411943616276e+00, 1.2500000000000000e+01,
             2.2845411943617400e+00, 1.2500000000000000e+01,
             1.2500000000000000e+01, 1.2500000000000000e+01,
             1.2500000000000000e+01, 2.2845411651329357e+00,
             1.2500000000000000e+01, -8.5670289870983407e-01,
             -8.5670292506759693e-01, -8.5670295429625787e-01,
             -8.5670289870982386e-01, -8.5670300731855042e-01,
             -8.5670297234338433e-01, -8.5670292506748424e-01,
             -1.2462769953320741e+01, -1.2500000000000000e+01,
             -1.2500000000000000e+01, -1.2500000000000000e+01,
             -1.2500000000000000e+01, -8.9393301902262667e-01,
             -1.2500000000000000e+01 ]
         index: [ 91, 85, 70, 115, 54, 37, 107, 89, 129, 6, 10, 11, 74,
             56, 99, 53, 116, 36, 38, 121, 73, 69, 48 ]
      -
         sv_count: 15
         rho: -1.4285714285714254e-01
         alpha: [ 1.2500000000000000e+01, 1.3462474816844519e+00,
             1.2500000000000000e+01, 1.3462474816844288e+00,
             1.2500000000000000e+01, 1.3462474179840880e+00,
             1.3462474818471191e+00, 1.2500000000000000e+01,
             -1.7949967014451071e+00, -1.2500000000000000e+01,
             -1.7949966375820701e+00, -1.2500000000000000e+01,
             -1.7949965241729104e+00, -1.2500000000000000e+01,
             -1.2500000000000000e+01 ]
         index: [ 91, 85, 100, 70, 29, 115, 89, 62, 57, 76, 112, 92, 30,
             72, 131 ]
      -
         sv_count: 12
         rho: 1.6666666666666674e-01
         alpha: [ 1.8323923405896707e+00, 1.8323923405896880e+00,
             1.8323923405896705e+00, 1.8323925278217970e+00,
             1.8323925278217970e+00, -1.3088517788395413e+00,
             -1.3088515916074150e+00, -1.3088517788395588e+00,
             -1.3088517788395586e+00, -1.3088517788395411e+00,
             -1.3088515916074497e+00, -1.3088517788395584e+00 ]
         index: [ 91, 85, 70, 115, 89, 105, 93, 18, 20, 21, 22, 98 ]
      -
         sv_count: 7
         rho: -4.2857142857142877e-01
         alpha: [ 8.9749845357169689e-01, 8.9749826634246288e-01,
             8.9749826634302321e-01, 8.9749845357167934e-01,
             8.9749826634305829e-01, -2.2437458530859429e+00,
             -2.2437458530859780e+00 ]
         index: [ 91, 85, 70, 115, 89, 59, 128 ]
      -
         sv_count: 9
         rho: -4.2857142014145627e-01
         alpha: [ 1.2499905464494553e+01, 8.9749830948937526e-01,
             8.9759296126475219e-01, 8.9749830948941223e-01,
             8.9749829120826241e-01, 8.9749830585187973e-01,
             -2.2437458135772959e+00, -2.2437458282209364e+00,
             -1.2500000000000000e+01 ]
         index: [ 91, 85, 100, 70, 115, 89, 14, 40, 97 ]
      -
         sv_count: 7
         rho: -4.2857142857142877e-01
         alpha: [ 8.9749845357169689e-01, 8.9749826634246288e-01,
             8.9749826634302321e-01, 8.9749845357167934e-01,
             8.9749826634305829e-01, -2.2437458530859429e+00,
             -2.2437458530859780e+00 ]
         index: [ 91, 85, 70, 115, 89, 15, 28 ]
      -
         sv_count: 13
         rho: 3.8461538461538441e-01
         alpha: [ 2.1747073376768116e+00, 2.1747073376768293e+00,
             2.1747075249063093e+00, 2.1747075249062386e+00,
             -9.6653678175241775e-01, -9.6653659452304330e-01,
             -9.6653659452311358e-01, -9.6653678175240021e-01,
             -9.6653659452304297e-01, -9.6653659452304286e-01,
             -9.6653659452304297e-01, -9.6653659452311291e-01,
             -9.6653659452297280e-01 ]
         index: [ 3, 110, 12, 79, 6, 10, 11, 74, 56, 99, 53, 116, 48 ]
      -
         sv_count: 8
         rho: 0.
         alpha: [ 1.5706221332325772e+00, 1.5706221332325772e+00,
             1.5706221332325772e+00, 1.5706221332325772e+00,
             -1.5706221332325772e+00, -1.5706221332325772e+00,
             -1.5706221332325772e+00, -1.5706221332325772e+00 ]
         index: [ 3, 110, 12, 79, 57, 76, 112, 30 ]
      -
         sv_count: 11
         rho: 2.7272727272727282e-01
         alpha: [ 1.9989736837316403e+00, 1.9989734965041241e+00,
             1.9989734965052111e+00, 1.9989736837316581e+00,
             -1.1422706229250528e+00, -1.1422706229240709e+00,
             -1.1422706229251227e+00, -1.1422706229251578e+00,
             -1.1422706229240358e+00, -1.1422706229251576e+00,
             -1.1422706229240356e+00 ]
         index: [ 3, 110, 12, 79, 105, 93, 18, 20, 21, 22, 98 ]
      -
         sv_count: 6
         rho: -3.3333333333333315e-01
         alpha: [ 1.0470813107323500e+00, 1.0470813107323502e+00,
             1.0470813107323680e+00, 1.0470813107323675e+00,
             -2.0941626214647178e+00, -2.0941626214647178e+00 ]
         index: [ 3, 110, 12, 79, 59, 128 ]
      -
         sv_count: 7
         rho: -1.4285714285714285e-01
         alpha: [ 1.3462473995162092e+00, 1.3462475867414472e+00,
             1.3462473995151574e+00, 1.3462475867419375e+00,
             -1.7949967199140366e+00, -1.7949967199130199e+00,
             -1.7949965326876947e+00 ]
         index: [ 3, 110, 12, 79, 14, 40, 97 ]
      -
         sv_count: 6
         rho: -3.3333333333333315e-01
         alpha: [ 1.0470813107323500e+00, 1.0470813107323502e+00,
             1.0470813107323680e+00, 1.0470813107323675e+00,
             -2.0941626214647178e+00, -2.0941626214647178e+00 ]
         index: [ 3, 110, 12, 79, 15, 28 ]
      -
         sv_count: 13
         rho: -3.8461538461538441e-01
         alpha: [ 9.6653678175240010e-01, 9.6653659452304330e-01,
             9.6653659452311358e-01, 9.6653678175241775e-01,
             9.6653659452304297e-01, 9.6653659452304286e-01,
             9.6653659452304297e-01, 9.6653659452311291e-01,
             9.6653659452297280e-01, -2.1747073376768116e+00,
             -2.1747073376768293e+00, -2.1747075249063093e+00,
             -2.1747075249062386e+00 ]
         index: [ 6, 10, 11, 74, 56, 99, 53, 116, 48, 57, 76, 112, 30 ]
      -
         sv_count: 16
         rho: -1.2500000000000014e-01
         alpha: [ 1.3742943022502776e+00, 1.3742943022502776e+00,
             1.3742943573887585e+00, 1.3742942838707839e+00,
             1.3742943022502776e+00, 1.3742943022502776e+00,
             1.3742943390092632e+00, 1.3742943206297693e+00,
             1.3742943206297693e+00, -1.7669498539379165e+00,
             -1.7669498355584210e+00, -1.7669498355584210e+00,
             -1.7669498355584210e+00, -1.7669498355584210e+00,
             -1.7669498171789273e+00, -1.7669498171789273e+00 ]
         index: [ 6, 10, 11, 74, 56, 99, 53, 116, 48, 105, 93, 18, 20,
             21, 22, 98 ]
      -
         sv_count: 11
         rho: -6.3636363636363624e-01
         alpha: [ 5.7113531146253560e-01, 5.7113531146271035e-01,
             5.7113531146264029e-01, 5.7113531146257002e-01,
             5.7113531146269270e-01, 5.7113531146255248e-01,
             5.7113531146255281e-01, 5.7113531146265795e-01,
             5.7113531146262242e-01, -2.5701088079665717e+00,
             -2.5701089951969625e+00 ]
         index: [ 6, 10, 11, 74, 56, 99, 53, 116, 48, 59, 128 ]
      -
         sv_count: 12
         rho: -4.9999999999999983e-01
         alpha: [ 7.8531102985730128e-01, 7.8531102985730128e-01,
             7.8531102985730128e-01, 7.8531110337527588e-01,
             7.8531110337527588e-01, 7.8531110337527588e-01,
             7.8531102985730128e-01, 7.8531102985730128e-01,
             7.8531102985730128e-01, -2.3559331630898783e+00,
             -2.3559331630898783e+00, -2.3559331630898783e+00 ]
         index: [ 6, 10, 11, 74, 56, 99, 53, 116, 48, 14, 40, 97 ]
      -
         sv_count: 11
         rho: -6.3636363636363624e-01
         alpha: [ 5.7113531146253560e-01, 5.7113531146271035e-01,
             5.7113531146264029e-01, 5.7113531146257002e-01,
             5.7113531146269270e-01, 5.7113531146255248e-01,
             5.7113531146255281e-01, 5.7113531146265795e-01,
             5.7113531146262242e-01, -2.5701088079665717e+00,
             -2.5701089951969625e+00 ]
         index: [ 6, 10, 11, 74, 56, 99, 53, 116, 48, 15, 28 ]
      -
         sv_count: 11
         rho: 2.7272727272727282e-01
         alpha: [ 1.9989736837316403e+00, 1.9989734965041241e+00,
             1.9989734965052111e+00, 1.9989736837316581e+00,
             -1.1422706229250528e+00, -1.1422706229240709e+00,
             -1.1422706229251227e+00, -1.1422706229251578e+00,
             -1.1422706229240358e+00, -1.1422706229251576e+00,
             -1.1422706229240356e+00 ]
         index: [ 57, 76, 112, 30, 105, 93, 18, 20, 21, 22, 98 ]
      -
         sv_count: 6
         rho: -3.3333333333333315e-01
         alpha: [ 1.0470813107323500e+00, 1.0470813107323502e+00,
             1.0470813107323680e+00, 1.0470813107323675e+00,
             -2.0941626214647178e+00, -2.0941626214647178e+00 ]
         index: [ 57, 76, 112, 30, 59, 128 ]
      -
         sv_count: 39
         rho: -5.9999999261401604e-01
         alpha: [ 1.2499998188705746e+01, 1.2500000000000000e+01,
             1.2500000000000000e+01, 1.1164971161188186e+01,
             1.2500000000000000e+01, 1.2500000000000000e+01,
             1.2500000000000000e+01, 1.2500000000000000e+01,
             6.2824883364126405e-01, 1.2500000000000000e+01,
             1.2500000000000000e+01, 1.2500000000000000e+01,
             1.2500000000000000e+01, 1.2500000000000000e+01,
             1.2500000000000000e+01, 1.2500000000000000e+01,
             1.2500000000000000e+01, 1.9632777032997097e+00,
             1.2500000000000000e+01, 6.2824872317084324e-01,
             6.2825067578218463e-01, -1.2500000000000000e+01,
             -1.2500000000000000e+01, -1.2500000000000000e+01,
             -1.2500000000000000e+01, -1.2500000000000000e+01,
             -1.2500000000000000e+01, -2.5129952857879365e+00,
             -1.2500000000000000e+01, -1.2500000000000000e+01,
             -1.2500000000000000e+01, -1.2500000000000000e+01,
             -1.2500000000000000e+01, -1.2500000000000000e+01,
             -1.2500000000000000e+01, -1.2500000000000000e+01,
             -1.2500000000000000e+01, -1.2500000000000000e+01,
             -1.2500000000000000e+01 ]
         index: [ 57, 13, 111, 76, 16, 17, 78, 118, 112, 46, 96, 50, 71,
             47, 95, 104, 80, 92, 108, 30, 64, 14, 90, 23, 25, 45, 44,
             40, 124, 43, 94, 122, 84, 123, 97, 127, 117, 87, 60 ]
      -
         sv_count: 6
         rho: -3.3333333333333315e-01
         alpha: [ 1.0470813107323500e+00, 1.0470813107323502e+00,
             1.0470813107323680e+00, 1.0470813107323675e+00,
             -2.0941626214647178e+00, -2.0941626214647178e+00 ]
         index: [ 57, 76, 112, 30, 15, 28 ]
      -
         sv_count: 9
         rho: -5.5555555555555536e-01
         alpha: [ 6.9805420715510436e-01, 6.9805420715513988e-01,
             6.9805439438623162e-01, 6.9805420715517452e-01,
             6.9805420715513977e-01, 6.9805420715513955e-01,
             6.9805439438624961e-01, -2.4431899122740370e+00,
             -2.4431899122741423e+00 ]
         index: [ 105, 93, 18, 20, 21, 22, 98, 59, 128 ]
      -
         sv_count: 10
         rho: -4.0000000000000008e-01
         alpha: [ 9.4237327327513642e-01, 9.4237327327511911e-01,
             9.4237327327511899e-01, 9.4237327327513587e-01,
             9.4237308604334269e-01, 9.4237308604334258e-01,
             9.4237327327511844e-01, -2.1988708461541107e+00,
             -2.1988708461540929e+00, -2.1988708461541107e+00 ]
         index: [ 105, 93, 18, 20, 21, 22, 98, 14, 40, 97 ]
      -
         sv_count: 9
         rho: -5.5555555555555536e-01
         alpha: [ 6.9805420715510436e-01, 6.9805420715513988e-01,
             6.9805439438623162e-01, 6.9805420715517452e-01,
             6.9805420715513977e-01, 6.9805420715513955e-01,
             6.9805439438624961e-01, -2.4431899122740370e+00,
             -2.4431899122741423e+00 ]
         index: [ 105, 93, 18, 20, 21, 22, 98, 15, 28 ]
      -
         sv_count: 5
         rho: 2.0000000000000012e-01
         alpha: [ 1.8847465465502551e+00, 1.8847463593184617e+00,
             -1.2564975728789920e+00, -1.2564975728789569e+00,
             -1.2564977601107676e+00 ]
         index: [ 59, 128, 14, 40, 97 ]
      -
         sv_count: 4
         rho: 0.
         alpha: [ 1.5706221332325772e+00, 1.5706221332325772e+00,
             -1.5706221332325772e+00, -1.5706221332325772e+00 ]
         index: [ 59, 128, 15, 28 ]
      -
         sv_count: 5
         rho: -2.0000000000000009e-01
         alpha: [ 1.2564975728789920e+00, 1.2564975728789569e+00,
             1.2564977601107676e+00, -1.8847465465502551e+00,
             -1.8847463593184617e+00 ]
         index: [ 14, 40, 97, 15, 28 ]
