%YAML:1.0
---
opencv_ml_svm:
   format: 3
   svmType: C_SVC
   kernel:
      type: RBF
      gamma: 5.0624999999999998e-01
   C: 1.2500000000000000e+01
   term_criteria: { epsilon:1.1920928955078125e-07, iterations:1000 }
   var_count: 55
   class_count: 3
   class_labels: !!opencv-matrix
      rows: 3
      cols: 1
      dt: i
      data: [ 0, 1, 2 ]
   sv_total: 90
   support_vectors:
      - [ 7.36954784e+00, 5.08827591e+00, 6.92843866e+00, 7.07215834e+00,
          5.38931227e+00, 7.19068193e+00, 5.55569315e+00, 6.13119221e+00,
          6.61128902e+00, 6.39479494e+00, 6.76656103e+00, 6.47277212e+00,
          6.10885143e+00, 7.08601665e+00, 7.15868521e+00, 6.09433222e+00,
          5.68981266e+00, 6.92705965e+00, 6.16955853e+00, 6.59203196e+00,
          6.02149868e+00, 6.67642689e+00, 4.68176556e+00, 7.74417114e+00,
          5.91904783e+00, 0., 7.12263060e+00, 5.93541813e+00,
          6.11316109e+00, 7.26703358e+00, 6.45778894e+00, 5.72176504e+00,
          5.85038042e+00, 5.89989948e+00, 6.90477657e+00, 7.17280245e+00,
          5.79730558e+00, 4.98001289e+00, 5.21135426e+00, 5.76697111e+00,
          6.25461340e+00, 5.89226770e+00, 5.79041100e+00, 5.81692314e+00,
          6.46632862e+00, 4.69452286e+00, 6.17669439e+00, 4.88037157e+00,
          4.77307320e+00, 5.48958349e+00, 6.98186302e+00, 6.01330662e+00,
          5.74372244e+00, 4.54137564e+00, 8.29395199e+00 ]
      - [ 8.23004055e+00, 6.00478125e+00, 7.07344103e+00, 7.60403252e+00,
          5.95731354e+00, 7.50190639e+00, 6.43950033e+00, 6.95439053e+00,
          6.98848772e+00, 7.21932602e+00, 7.41254473e+00, 7.09328032e+00,
          7.00925255e+00, 8.18922710e+00, 7.36916924e+00, 6.60700178e+00,
          6.53775930e+00, 0., 6.77933502e+00, 6.21301842e+00,
          6.49204350e+00, 7.09509468e+00, 5.46318960e+00, 8.10927010e+00,
          6.69560528e+00, 6.92705965e+00, 7.57830286e+00, 6.88177204e+00,
          6.97385025e+00, 7.12050247e+00, 7.46464205e+00, 6.21180582e+00,
          6.51498556e+00, 6.55247116e+00, 6.82485056e+00, 7.66233063e+00,
          6.50106430e+00, 5.63374567e+00, 5.54296923e+00, 6.87149858e+00,
          7.09595585e+00, 6.76751089e+00, 6.45037746e+00, 6.34552860e+00,
          7.01352167e+00, 5.42497873e+00, 7.05239344e+00, 5.54366255e+00,
          5.47279358e+00, 6.11002922e+00, 7.20815897e+00, 6.34110546e+00,
          6.71032190e+00, 5.41703033e+00, 9.06352615e+00 ]
      - [ 7.58751535e+00, 5.19641209e+00, 6.63861513e+00, 7.01384163e+00,
          4.96098328e+00, 6.34988928e+00, 5.64369202e+00, 0.,
          6.21213150e+00, 6.61951971e+00, 6.61799812e+00, 6.45690966e+00,
          5.68057108e+00, 7.36524057e+00, 6.78759909e+00, 5.97176647e+00,
          5.55568743e+00, 6.95439053e+00, 6.09430504e+00, 6.63071775e+00,
          6.04935980e+00, 6.45126581e+00, 4.65705538e+00, 8.10119915e+00,
          5.53856182e+00, 6.13119221e+00, 7.26197910e+00, 5.63484049e+00,
          6.14954329e+00, 7.00375223e+00, 6.28269148e+00, 5.50934172e+00,
          5.52914524e+00, 5.85307741e+00, 6.74228239e+00, 6.97751999e+00,
          5.68144369e+00, 4.82584095e+00, 4.99695730e+00, 5.59965420e+00,
          6.16218233e+00, 6.29779434e+00, 5.68007278e+00, 5.62474871e+00,
          6.23383665e+00, 4.64675999e+00, 5.88473654e+00, 4.59957600e+00,
          4.52399731e+00, 5.69415045e+00, 6.93477249e+00, 5.64871979e+00,
          5.77020979e+00, 4.49102831e+00, 8.38159943e+00 ]
      - [ 7.48490143e+00, 4.54538536e+00, 6.50778103e+00, 6.19119072e+00,
          4.97908592e+00, 6.23528194e+00, 5.14743805e+00, 5.69502115e+00,
          5.92574406e+00, 6.15371799e+00, 6.17050123e+00, 5.56095886e+00,
          5.65890169e+00, 7.26460314e+00, 6.62814951e+00, 5.84690189e+00,
          4.96122932e+00, 6.32782459e+00, 5.35973120e+00, 6.32502890e+00,
          5.27886820e+00, 5.91650867e+00, 3.93575191e+00, 7.42078447e+00,
          5.30726099e+00, 5.77020407e+00, 6.56963921e+00, 5.26850510e+00,
          5.63245726e+00, 6.60684156e+00, 6.28568649e+00, 5.07031059e+00,
          5.28445005e+00, 5.47378922e+00, 5.84837198e+00, 6.40533781e+00,
          5.04727125e+00, 3.08266068e+00, 4.45119286e+00, 5.47506618e+00,
          5.59609699e+00, 6.04563570e+00, 5.05304623e+00, 5.24454880e+00,
          5.52972794e+00, 3.94462442e+00, 5.59813833e+00, 4.18881798e+00,
          3.90603876e+00, 5.15351486e+00, 6.34058571e+00, 5.00443125e+00,
          5.64980268e+00, 3.83707643e+00, 7.77861214e+00 ]
      - [ 8.33460712e+00, 5.98823738e+00, 7.25651598e+00, 7.54380560e+00,
          6.36923409e+00, 7.41475773e+00, 6.44280005e+00, 6.93477249e+00,
          7.32873964e+00, 6.99126959e+00, 7.04768276e+00, 6.81715298e+00,
          6.84869289e+00, 7.88248396e+00, 7.55912399e+00, 6.80512238e+00,
          6.27933168e+00, 7.20815897e+00, 6.20303535e+00, 6.79260111e+00,
          6.39149332e+00, 7.11689758e+00, 5.39933586e+00, 8.14577198e+00,
          6.45043039e+00, 6.98186302e+00, 7.48217678e+00, 6.39124107e+00,
          6.67570162e+00, 7.41751432e+00, 7.21286488e+00, 6.25956440e+00,
          6.46837664e+00, 6.35682154e+00, 7.21302223e+00, 7.47937489e+00,
          6.42423010e+00, 5.62661982e+00, 5.75265360e+00, 6.77784204e+00,
          6.82887363e+00, 6.83447552e+00, 6.46049023e+00, 6.64117861e+00,
          6.51234913e+00, 5.48695421e+00, 7.03303623e+00, 5.55662680e+00,
          5.38808012e+00, 6.32898235e+00, 0., 6.63295984e+00,
          6.40935612e+00, 5.53307343e+00, 8.29278851e+00 ]
      - [ 7.97211647e+00, 5.65369320e+00, 7.26094532e+00, 7.42755461e+00,
          6.00477362e+00, 7.08041239e+00, 5.87961006e+00, 6.28269148e+00,
          6.57332134e+00, 6.79762459e+00, 6.93440580e+00, 6.72775316e+00,
          6.51032400e+00, 7.62933588e+00, 7.29239893e+00, 6.38259888e+00,
          5.78543043e+00, 7.46464205e+00, 6.29380417e+00, 6.98706961e+00,
          6.40099907e+00, 6.72387648e+00, 5.06826735e+00, 8.46853256e+00,
          6.05017614e+00, 6.45778894e+00, 7.23381376e+00, 6.16930437e+00,
          6.55755329e+00, 7.45081234e+00, 0., 5.95678663e+00,
          6.15802145e+00, 6.33675385e+00, 6.63525105e+00, 6.90980673e+00,
          6.07294798e+00, 5.44660234e+00, 5.53912592e+00, 5.98495674e+00,
          6.20602131e+00, 6.61970377e+00, 5.85481024e+00, 6.08785057e+00,
          6.49800205e+00, 5.17522287e+00, 6.65999031e+00, 5.10873985e+00,
          5.03070974e+00, 5.98772430e+00, 7.21286488e+00, 6.13894606e+00,
          6.09439945e+00, 5.10206509e+00, 8.28191948e+00 ]
      - [ 7.77281904e+00, 4.68936062e+00, 6.87706137e+00, 6.47993183e+00,
          5.05778933e+00, 6.87176466e+00, 5.42579985e+00, 5.67051649e+00,
          6.30008364e+00, 6.08853674e+00, 6.34502792e+00, 5.63085651e+00,
          6.10197687e+00, 6.91435099e+00, 6.84223080e+00, 5.72657204e+00,
          5.26572561e+00, 6.39423466e+00, 5.81402159e+00, 6.27457523e+00,
          5.57297707e+00, 6.30677271e+00, 4.06560230e+00, 7.68127108e+00,
          5.56767559e+00, 5.81815624e+00, 6.94132280e+00, 5.41518784e+00,
          5.94847107e+00, 6.66312265e+00, 6.38545990e+00, 5.34987736e+00,
          5.50811434e+00, 5.51008558e+00, 6.51488161e+00, 6.71693468e+00,
          5.53608131e+00, 4.51821995e+00, 4.70386314e+00, 5.33474350e+00,
          5.82665253e+00, 5.77471447e+00, 5.49267578e+00, 5.55191374e+00,
          5.73731232e+00, 4.38481522e+00, 5.94341040e+00, 4.45524836e+00,
          3.71332240e+00, 5.16991568e+00, 6.38376999e+00, 5.58912373e+00,
          5.35698557e+00, 4.27425241e+00, 8.17516232e+00 ]
      - [ 7.52545261e+00, 4.72457075e+00, 6.43698835e+00, 6.49962139e+00,
          5.10279989e+00, 6.43092918e+00, 5.12386990e+00, 6.04935980e+00,
          6.22989130e+00, 6.15300894e+00, 6.10271454e+00, 5.74202967e+00,
          6.01883221e+00, 6.88998699e+00, 6.57931471e+00, 5.61117697e+00,
          5.08574247e+00, 6.49204350e+00, 5.40816975e+00, 5.92649460e+00,
          0., 5.91918087e+00, 3.88717556e+00, 7.50684643e+00,
          5.37264919e+00, 6.02149868e+00, 6.54158211e+00, 5.37335300e+00,
          5.51857519e+00, 6.65221405e+00, 6.40099907e+00, 4.97350883e+00,
          5.26262093e+00, 5.33572245e+00, 6.30262423e+00, 6.45916557e+00,
          5.34786510e+00, 4.40633965e+00, 4.52453661e+00, 5.66495752e+00,
          5.95887184e+00, 5.71007490e+00, 5.15638208e+00, 5.28578758e+00,
          5.80484724e+00, 3.98307443e+00, 5.68760777e+00, 4.26979351e+00,
          4.10311985e+00, 5.09062099e+00, 6.39149332e+00, 5.33285475e+00,
          5.66376972e+00, 4.06769514e+00, 7.98061371e+00 ]
      - [ 7.05492687e+00, 4.48720217e+00, 6.42726469e+00, 6.35097694e+00,
          5.08957863e+00, 6.43619919e+00, 5.43084621e+00, 5.67362785e+00,
          6.07049894e+00, 6.09948015e+00, 5.97859526e+00, 5.96730900e+00,
          5.91881847e+00, 7.01876116e+00, 6.56682158e+00, 5.62810946e+00,
          4.95746374e+00, 6.48467684e+00, 5.53234196e+00, 6.10357523e+00,
          5.32189655e+00, 5.80342054e+00, 3.92622471e+00, 7.59309435e+00,
          4.97535229e+00, 5.98569584e+00, 6.53864765e+00, 5.18784332e+00,
          5.88611364e+00, 6.46311235e+00, 5.79434204e+00, 4.96793175e+00,
          4.93842030e+00, 5.49018955e+00, 6.30502987e+00, 6.80935192e+00,
          5.26514769e+00, 4.32998991e+00, 4.49942064e+00, 5.48059416e+00,
          5.60682392e+00, 5.84597778e+00, 4.95280266e+00, 5.37940407e+00,
          5.58972168e+00, 3.85445166e+00, 5.82756948e+00, 3.37945056e+00,
          4.02876425e+00, 5.17577839e+00, 6.16599321e+00, 5.40460539e+00,
          5.37465191e+00, 3.95239806e+00, 8.03458691e+00 ]
      - [ 6.88757324e+00, 3.97867298e+00, 6.16454124e+00, 6.14109564e+00,
          4.46937895e+00, 5.91005278e+00, 4.74852753e+00, 5.31094790e+00,
          5.57035685e+00, 5.65990973e+00, 5.60484123e+00, 5.36833811e+00,
          5.27440691e+00, 6.42804623e+00, 5.73149014e+00, 5.06149673e+00,
          4.35118246e+00, 5.92656422e+00, 4.76925325e+00, 5.61139536e+00,
          4.85469389e+00, 5.41365957e+00, 3.01152945e+00, 6.97572231e+00,
          4.75505304e+00, 5.23413563e+00, 6.02845669e+00, 4.52979279e+00,
          5.26913309e+00, 6.02476168e+00, 5.72426701e+00, 4.23538113e+00,
          4.65803242e+00, 4.96316528e+00, 5.64998913e+00, 6.27539587e+00,
          4.58898067e+00, 3.54971743e+00, 3.68053961e+00, 4.80687714e+00,
          5.19491816e+00, 5.44340515e+00, 4.34755468e+00, 4.49667215e+00,
          5.12566137e+00, 3.13641095e+00, 4.91341448e+00, 3.38002682e+00,
          3.22092724e+00, 4.30130243e+00, 6.17013836e+00, 4.25318241e+00,
          4.81554270e+00, 2.61284018e+00, 7.56765032e+00 ]
      - [ 7.54756021e+00, 4.61288071e+00, 6.54353285e+00, 6.64495993e+00,
          5.25668287e+00, 6.17999172e+00, 5.07441044e+00, 5.82463121e+00,
          6.19559288e+00, 6.21602726e+00, 6.26681137e+00, 5.95164919e+00,
          6.04037476e+00, 7.09274149e+00, 6.51082611e+00, 5.83304691e+00,
          5.05036592e+00, 6.38963175e+00, 5.52691031e+00, 6.16777468e+00,
          5.28146267e+00, 5.89838886e+00, 3.96206069e+00, 7.49395561e+00,
          5.51424408e+00, 6.03127098e+00, 6.31013870e+00, 4.94874334e+00,
          5.54744387e+00, 6.62082338e+00, 6.21367407e+00, 4.89727736e+00,
          5.19706392e+00, 5.48654938e+00, 6.14677238e+00, 6.79856253e+00,
          5.36481953e+00, 4.24597216e+00, 4.38658333e+00, 5.47897911e+00,
          5.83479691e+00, 6.21861410e+00, 5.15277719e+00, 5.32330322e+00,
          5.67462826e+00, 4.13859701e+00, 5.57621002e+00, 3.48364568e+00,
          4.13061666e+00, 5.03946066e+00, 6.64200211e+00, 5.35895395e+00,
          5.29076529e+00, 3.95889020e+00, 7.34326220e+00 ]
      - [ 7.41314459e+00, 5.05688858e+00, 6.78245831e+00, 6.78297377e+00,
          5.55395126e+00, 6.87750196e+00, 6.00598240e+00, 5.88473654e+00,
          6.33067560e+00, 6.54942846e+00, 6.64526987e+00, 6.23579884e+00,
          6.17980337e+00, 7.09495687e+00, 6.71281099e+00, 6.15233994e+00,
          5.34842205e+00, 7.05239344e+00, 5.99763870e+00, 6.80117798e+00,
          5.68760777e+00, 6.25723410e+00, 4.44483566e+00, 7.66461372e+00,
          5.57897520e+00, 6.17669439e+00, 6.89673948e+00, 5.68146610e+00,
          5.87772036e+00, 6.97772646e+00, 6.65999031e+00, 5.26365185e+00,
          5.58415556e+00, 5.74735308e+00, 6.61304808e+00, 6.98595047e+00,
          5.61899328e+00, 4.68870068e+00, 4.97791767e+00, 5.73933935e+00,
          5.97046471e+00, 6.15448761e+00, 5.66208458e+00, 5.51106501e+00,
          5.86355400e+00, 4.30562162e+00, 0., 4.77650499e+00,
          4.43869686e+00, 5.36088085e+00, 7.03303623e+00, 5.64586258e+00,
          5.44099188e+00, 4.32710648e+00, 8.14982796e+00 ]
      - [ 7.56493950e+00, 5.07187700e+00, 6.93010044e+00, 7.01794577e+00,
          5.61824942e+00, 6.82348633e+00, 5.93046951e+00, 6.27122021e+00,
          6.58216381e+00, 6.73192883e+00, 6.65121651e+00, 6.83178949e+00,
          6.34127855e+00, 7.82069349e+00, 7.18555069e+00, 6.35288572e+00,
          5.70742989e+00, 6.90989876e+00, 6.13170910e+00, 6.67764521e+00,
          5.91596317e+00, 6.49060917e+00, 4.78179169e+00, 8.05770683e+00,
          5.84983969e+00, 6.34074306e+00, 7.03938246e+00, 5.63153887e+00,
          6.38250399e+00, 6.86826038e+00, 6.79920387e+00, 5.67593050e+00,
          5.49797106e+00, 6.05237627e+00, 6.79050398e+00, 7.28285313e+00,
          5.87247801e+00, 4.93298340e+00, 4.90371943e+00, 6.05308771e+00,
          6.71901178e+00, 6.68244076e+00, 5.78351545e+00, 5.68292856e+00,
          5.86690521e+00, 4.72054577e+00, 6.59234285e+00, 3.91622376e+00,
          4.75576258e+00, 5.81988764e+00, 7.04660940e+00, 6.09496069e+00,
          5.80772877e+00, 4.76077700e+00, 8.26430798e+00 ]
      - [ 7.07461309e+00, 4.44579315e+00, 6.38013792e+00, 6.34357405e+00,
          4.78889322e+00, 6.46777201e+00, 5.00053215e+00, 5.68007278e+00,
          5.99318933e+00, 6.38127851e+00, 5.90094471e+00, 5.57080460e+00,
          5.63301086e+00, 7.04634190e+00, 6.20702982e+00, 5.50606298e+00,
          4.78341627e+00, 6.45037746e+00, 5.24217749e+00, 5.78399897e+00,
          5.15638208e+00, 5.82816315e+00, 3.56180167e+00, 7.51652527e+00,
          4.88361406e+00, 5.79041100e+00, 6.23645782e+00, 4.97555971e+00,
          5.76720715e+00, 6.37584972e+00, 5.85481024e+00, 4.64030170e+00,
          5.08589983e+00, 5.29949999e+00, 5.93240929e+00, 6.45405483e+00,
          5.06184721e+00, 4.09951830e+00, 4.25220680e+00, 5.36898899e+00,
          5.56230402e+00, 5.80449867e+00, 0., 4.90382338e+00,
          5.41167355e+00, 3.73788595e+00, 5.66208458e+00, 3.84939265e+00,
          3.72622299e+00, 4.85264015e+00, 6.46049023e+00, 5.04639101e+00,
          5.27898407e+00, 3.61512446e+00, 7.75052547e+00 ]
      - [ 7.39611864e+00, 4.36170769e+00, 6.30388546e+00, 6.48348713e+00,
          5.12205458e+00, 6.48462391e+00, 5.08349133e+00, 5.54076433e+00,
          6.19438314e+00, 6.12308931e+00, 5.98634768e+00, 5.76275635e+00,
          5.81733418e+00, 6.89318323e+00, 6.29285812e+00, 5.65974903e+00,
          4.83253765e+00, 6.42135906e+00, 5.34857702e+00, 6.26712322e+00,
          5.29182911e+00, 5.70174980e+00, 3.68732405e+00, 7.26303101e+00,
          5.13274622e+00, 5.53528738e+00, 6.48705864e+00, 4.87526274e+00,
          5.51770353e+00, 6.41069794e+00, 6.24009085e+00, 4.62345219e+00,
          4.88297129e+00, 5.28348589e+00, 5.99066877e+00, 6.52255630e+00,
          4.90204144e+00, 3.10940957e+00, 4.32082510e+00, 5.32518244e+00,
          5.60221672e+00, 5.90975857e+00, 5.15033388e+00, 5.06670952e+00,
          5.32498837e+00, 3.68305993e+00, 5.37723398e+00, 3.86102366e+00,
          3.74887633e+00, 4.87004328e+00, 6.23908663e+00, 5.26203299e+00,
          5.03713942e+00, 3.69191623e+00, 7.71073151e+00 ]
      - [ 7.70548916e+00, 5.02714777e+00, 7.06951237e+00, 6.81004381e+00,
          5.59932232e+00, 7.07556868e+00, 5.59844780e+00, 6.14954329e+00,
          6.61269045e+00, 6.38970375e+00, 6.30600214e+00, 6.40551758e+00,
          6.20713902e+00, 7.27837276e+00, 6.61231422e+00, 6.25879717e+00,
          5.60105133e+00, 6.97385025e+00, 5.84262848e+00, 6.57779169e+00,
          5.51857519e+00, 6.23756933e+00, 4.46599102e+00, 8.05411816e+00,
          5.68202925e+00, 6.11316109e+00, 6.83334208e+00, 5.74869442e+00,
          0., 6.94534016e+00, 6.55755329e+00, 5.33403921e+00,
          5.56962204e+00, 5.77087641e+00, 6.38639164e+00, 6.94711733e+00,
          5.81622171e+00, 4.80683565e+00, 4.92108297e+00, 5.80178213e+00,
          6.34040594e+00, 6.47623730e+00, 5.76720715e+00, 5.68614578e+00,
          6.15110779e+00, 4.65264177e+00, 5.87772036e+00, 4.70598841e+00,
          4.57896566e+00, 5.75928116e+00, 6.67570162e+00, 5.87448025e+00,
          5.74218559e+00, 4.55218983e+00, 8.07264233e+00 ]
      - [ 7.51743746e+00, 5.23071527e+00, 6.90842724e+00, 6.52555895e+00,
          5.46909094e+00, 6.96702623e+00, 5.69807863e+00, 6.16218233e+00,
          6.47507381e+00, 6.31344032e+00, 6.63352489e+00, 6.13233423e+00,
          6.59865332e+00, 7.12955666e+00, 7.10426998e+00, 6.16225052e+00,
          5.35552406e+00, 7.09595585e+00, 5.90811872e+00, 6.58016443e+00,
          5.95887184e+00, 6.46117878e+00, 4.48634481e+00, 7.80633688e+00,
          5.67831373e+00, 6.25461340e+00, 7.03067160e+00, 5.67004824e+00,
          6.34040594e+00, 6.92564011e+00, 6.20602131e+00, 5.38817024e+00,
          5.63391352e+00, 5.84784365e+00, 6.44354057e+00, 7.15710640e+00,
          5.62396431e+00, 4.82758808e+00, 5.00116014e+00, 5.59018278e+00,
          0., 6.05221462e+00, 5.56230402e+00, 5.93556309e+00,
          6.34898710e+00, 4.50374699e+00, 5.97046471e+00, 4.74243832e+00,
          4.52263594e+00, 5.52355003e+00, 6.82887363e+00, 5.90805531e+00,
          5.71743393e+00, 4.48561907e+00, 8.31228065e+00 ]
      - [ 6.94554090e+00, 3.82321882e+00, 5.97787952e+00, 5.93971825e+00,
          4.51220846e+00, 6.04557896e+00, 5.00487852e+00, 5.15333271e+00,
          5.44659424e+00, 5.70560741e+00, 5.47221708e+00, 5.67111397e+00,
          5.38779497e+00, 6.49511147e+00, 5.73020697e+00, 5.18271637e+00,
          4.40527344e+00, 6.18219328e+00, 4.75824451e+00, 5.77953959e+00,
          4.91730785e+00, 5.40038586e+00, 3.20687509e+00, 7.13945866e+00,
          4.72128391e+00, 5.28520727e+00, 6.21082973e+00, 4.77734661e+00,
          5.26111603e+00, 6.09949017e+00, 5.84615278e+00, 4.58168936e+00,
          4.66837788e+00, 4.91654682e+00, 5.74662113e+00, 6.46763277e+00,
          4.42422628e+00, 3.50050330e+00, 3.94896984e+00, 4.64691019e+00,
          5.28337955e+00, 5.59887171e+00, 4.58167553e+00, 4.77653122e+00,
          5.18384838e+00, 3.07042909e+00, 4.90811825e+00, 3.53187847e+00,
          2.86720920e+00, 4.31286478e+00, 5.94208622e+00, 4.74571657e+00,
          4.75553370e+00, 3.07162452e+00, 7.90746975e+00 ]
      - [ 7.50536633e+00, 4.63632631e+00, 6.98710060e+00, 6.79112053e+00,
          5.25937414e+00, 6.71642733e+00, 5.49908543e+00, 5.81391954e+00,
          6.30855513e+00, 6.06557560e+00, 6.04150152e+00, 5.87856770e+00,
          5.87855434e+00, 7.20079184e+00, 6.50131226e+00, 5.82792044e+00,
          5.08602285e+00, 6.94550323e+00, 5.67377996e+00, 6.47847795e+00,
          5.48776722e+00, 5.93699646e+00, 4.09608698e+00, 7.76424789e+00,
          5.45909595e+00, 6.02275896e+00, 6.77696705e+00, 5.00687599e+00,
          5.54138947e+00, 6.79951954e+00, 6.08926868e+00, 4.96575928e+00,
          5.09922028e+00, 5.51245403e+00, 6.30310822e+00, 6.65763712e+00,
          5.18479633e+00, 4.38009405e+00, 3.41195726e+00, 5.11784887e+00,
          5.76639843e+00, 6.12082338e+00, 5.29333878e+00, 5.43424034e+00,
          5.64906406e+00, 4.12796021e+00, 5.73874569e+00, 4.22070885e+00,
          4.12824917e+00, 4.92373991e+00, 6.63736725e+00, 5.49475908e+00,
          5.59320354e+00, 3.95166397e+00, 7.73519707e+00 ]
      - [ 8.15710068e+00, 5.60526991e+00, 7.08490705e+00, 7.12946606e+00,
          5.53288078e+00, 6.89130020e+00, 5.94047928e+00, 6.23184299e+00,
          6.48078823e+00, 6.74428225e+00, 6.85497952e+00, 6.59058809e+00,
          6.35749674e+00, 7.73147726e+00, 6.97928953e+00, 6.35046291e+00,
          5.59337187e+00, 7.21549511e+00, 6.36282921e+00, 6.91020298e+00,
          6.23813581e+00, 6.75598097e+00, 5.05257034e+00, 8.15178680e+00,
          6.08237362e+00, 6.63029337e+00, 7.19668484e+00, 6.04608059e+00,
          6.64659500e+00, 7.15640259e+00, 6.83741903e+00, 5.86343431e+00,
          6.03221941e+00, 6.56474590e+00, 6.87515926e+00, 7.23762846e+00,
          5.96300983e+00, 3.94172406e+00, 5.38752747e+00, 5.97765398e+00,
          6.53813410e+00, 6.79553413e+00, 5.91821480e+00, 5.65108299e+00,
          6.40182018e+00, 4.92483282e+00, 6.29703808e+00, 5.23085451e+00,
          4.91365337e+00, 5.76167917e+00, 7.43622446e+00, 5.88764524e+00,
          5.97889566e+00, 4.90709972e+00, 7.81992769e+00 ]
      - [ 7.54972982e+00, 5.63876486e+00, 7.12407017e+00, 6.76042366e+00,
          5.74841261e+00, 6.88921642e+00, 5.85844660e+00, 6.21213150e+00,
          0., 6.83890915e+00, 6.87422466e+00, 6.83900452e+00,
          6.32502460e+00, 7.94281912e+00, 7.05645561e+00, 6.59087420e+00,
          5.79520798e+00, 6.98848772e+00, 6.28014660e+00, 6.85950089e+00,
          6.22989130e+00, 6.79632139e+00, 4.93966627e+00, 8.09272671e+00,
          6.19680834e+00, 6.61128902e+00, 7.55478239e+00, 6.01908112e+00,
          6.61269045e+00, 6.96483231e+00, 6.57332134e+00, 5.94762754e+00,
          6.08306313e+00, 6.24903822e+00, 6.98159838e+00, 7.36984062e+00,
          6.12215137e+00, 5.19007301e+00, 5.47811937e+00, 6.28547668e+00,
          6.47507381e+00, 6.73839092e+00, 5.99318933e+00, 5.86438274e+00,
          6.47097015e+00, 4.92830563e+00, 6.33067560e+00, 5.21733379e+00,
          4.81775570e+00, 5.80487585e+00, 7.32873964e+00, 5.43983746e+00,
          6.28779030e+00, 4.92075157e+00, 8.73856354e+00 ]
      - [ 7.38188410e+00, 4.51811934e+00, 6.54725361e+00, 6.60328531e+00,
          4.86070013e+00, 6.58207893e+00, 5.27355766e+00, 5.69843769e+00,
          6.05365658e+00, 6.03905153e+00, 6.16717196e+00, 6.04746723e+00,
          6.00728226e+00, 6.84097433e+00, 6.80477095e+00, 5.71915960e+00,
          4.93390417e+00, 6.56111908e+00, 5.61473083e+00, 6.17374468e+00,
          5.47154999e+00, 5.92338276e+00, 4.05240202e+00, 7.64346647e+00,
          5.44351768e+00, 5.73738289e+00, 6.67292976e+00, 5.10252666e+00,
          6.04403305e+00, 6.21341133e+00, 5.97811460e+00, 4.97750139e+00,
          5.37371063e+00, 5.44351053e+00, 5.96609974e+00, 6.81884766e+00,
          5.08750725e+00, 4.33142471e+00, 4.46231604e+00, 5.52166653e+00,
          5.71574545e+00, 5.78228903e+00, 5.16478300e+00, 5.23911524e+00,
          5.20863533e+00, 3.90452433e+00, 5.70597792e+00, 4.11848450e+00,
          3.41285253e+00, 4.83630276e+00, 6.30792141e+00, 5.37672520e+00,
          5.11336374e+00, 3.88834071e+00, 7.75715017e+00 ]
      - [ 8.33013058e+00, 6.00150394e+00, 7.39572287e+00, 0.,
          6.33776569e+00, 7.72376347e+00, 6.78434038e+00, 7.01384163e+00,
          6.76042366e+00, 7.26084471e+00, 7.08527040e+00, 6.70382690e+00,
          6.92585850e+00, 8.18876266e+00, 7.05466557e+00, 6.86703682e+00,
          5.96470404e+00, 7.60403252e+00, 6.68169785e+00, 7.23022938e+00,
          6.49962139e+00, 7.04629803e+00, 5.47838449e+00, 8.19324589e+00,
          6.44230270e+00, 7.07215834e+00, 7.10912752e+00, 6.49019337e+00,
          6.81004381e+00, 7.63608122e+00, 7.42755461e+00, 6.29975605e+00,
          6.23572874e+00, 6.42109680e+00, 7.23955870e+00, 8.12051010e+00,
          6.55637074e+00, 5.69817019e+00, 5.98771524e+00, 6.91460943e+00,
          6.52555895e+00, 7.29790640e+00, 6.34357405e+00, 6.39369822e+00,
          6.69737673e+00, 5.43261433e+00, 6.78297377e+00, 5.73592091e+00,
          5.34043598e+00, 6.44020319e+00, 7.54380560e+00, 6.46996689e+00,
          6.35172129e+00, 5.56410027e+00, 9.08111382e+00 ]
      - [ 7.07648420e+00, 4.04346371e+00, 6.44948864e+00, 6.20464611e+00,
          4.61807203e+00, 6.40201950e+00, 4.67944717e+00, 5.49176598e+00,
          6.11612463e+00, 5.82515621e+00, 5.90668774e+00, 5.38289118e+00,
          5.44150305e+00, 6.84137344e+00, 6.17197371e+00, 5.33023977e+00,
          4.51020575e+00, 6.17749786e+00, 5.13468790e+00, 6.08431387e+00,
          5.06983900e+00, 5.52521753e+00, 3.54510045e+00, 7.34814215e+00,
          4.99029970e+00, 5.31728029e+00, 6.15648651e+00, 4.73183632e+00,
          5.40665674e+00, 6.40152740e+00, 5.98942947e+00, 4.51745367e+00,
          4.87931824e+00, 5.22319984e+00, 6.00342512e+00, 6.61742878e+00,
          4.88317537e+00, 3.76401877e+00, 4.11184931e+00, 5.12601042e+00,
          5.46728420e+00, 6.05944777e+00, 4.68437481e+00, 5.01777554e+00,
          5.50047731e+00, 3.00447655e+00, 5.33928347e+00, 3.60918140e+00,
          3.60416198e+00, 4.61029577e+00, 6.36786699e+00, 5.11093998e+00,
          5.02303219e+00, 3.45374346e+00, 7.47170687e+00 ]
      - [ 7.00316668e+00, 4.16347647e+00, 6.13755417e+00, 6.23250484e+00,
          4.25369930e+00, 6.16738558e+00, 4.73822880e+00, 5.18334150e+00,
          5.59270096e+00, 5.77358866e+00, 5.65376329e+00, 5.43462801e+00,
          5.32122898e+00, 6.64649200e+00, 6.31418276e+00, 5.19985819e+00,
          4.60500908e+00, 6.10808468e+00, 5.24561834e+00, 5.74400425e+00,
          4.95340967e+00, 5.83246374e+00, 3.34311366e+00, 7.43911314e+00,
          4.97349358e+00, 5.51950884e+00, 6.50169373e+00, 4.76721096e+00,
          5.49993229e+00, 6.23664045e+00, 5.64768934e+00, 4.76439524e+00,
          4.87379026e+00, 4.90668774e+00, 5.82309914e+00, 6.59799910e+00,
          4.78005314e+00, 3.85990763e+00, 4.09857845e+00, 4.93002748e+00,
          5.14441872e+00, 5.64773130e+00, 4.51962662e+00, 4.74538994e+00,
          5.23013353e+00, 3.41851115e+00, 5.36374235e+00, 3.67138791e+00,
          2.90263629e+00, 4.75555754e+00, 6.23136282e+00, 5.04064226e+00,
          4.92391634e+00, 3.35466623e+00, 7.90533400e+00 ]
      - [ 8.71082783e+00, 6.53387499e+00, 7.21547699e+00, 7.82485104e+00,
          6.52884150e+00, 7.64857578e+00, 6.67056847e+00, 7.40012407e+00,
          7.84631348e+00, 7.70837450e+00, 7.68279028e+00, 7.51015759e+00,
          7.47846651e+00, 8.19314766e+00, 7.18899822e+00, 7.31999588e+00,
          6.97414112e+00, 6.91396332e+00, 7.11379147e+00, 6.50601339e+00,
          6.97045374e+00, 7.12614298e+00, 6.00696468e+00, 8.87990570e+00,
          7.02524281e+00, 7.48642874e+00, 7.91611910e+00, 7.13633299e+00,
          7.29626942e+00, 7.67663097e+00, 8.00760841e+00, 6.62665796e+00,
          6.84097624e+00, 7.23131466e+00, 7.48628473e+00, 8.39118099e+00,
          6.79213715e+00, 6.19473267e+00, 4.49142790e+00, 7.07534266e+00,
          7.38259268e+00, 7.64608812e+00, 6.91546726e+00, 6.83280897e+00,
          7.40094662e+00, 6.06844711e+00, 7.42818213e+00, 6.05368996e+00,
          6.14357376e+00, 6.91045713e+00, 7.68322086e+00, 6.90342712e+00,
          6.98684740e+00, 5.96303606e+00, 9.08831024e+00 ]
      - [ 7.07996178e+00, 4.24337530e+00, 6.48145962e+00, 6.44020319e+00,
          4.66829395e+00, 6.54918385e+00, 5.07428408e+00, 5.69415045e+00,
          5.80487585e+00, 5.84624815e+00, 5.89133120e+00, 5.58688784e+00,
          5.96645403e+00, 6.75147247e+00, 6.36894941e+00, 5.59688807e+00,
          4.75055933e+00, 6.11002922e+00, 5.32429361e+00, 5.80526733e+00,
          5.09062099e+00, 5.71684504e+00, 3.55495882e+00, 7.26949883e+00,
          5.14014149e+00, 5.48958349e+00, 6.40778255e+00, 4.87769413e+00,
          5.75928116e+00, 6.17235041e+00, 5.98772430e+00, 4.73084593e+00,
          4.75727129e+00, 5.19690847e+00, 6.01182365e+00, 6.84987926e+00,
          4.71767616e+00, 3.99674773e+00, 4.14757442e+00, 4.96053791e+00,
          5.52355003e+00, 5.60545969e+00, 4.85264015e+00, 5.18949413e+00,
          5.37915039e+00, 3.52711463e+00, 5.36088085e+00, 3.87990475e+00,
          3.57398510e+00, 0., 6.32898235e+00, 4.97084951e+00,
          4.94483089e+00, 3.50550413e+00, 7.61018038e+00 ]
      - [ 7.42384529e+00, 4.82413530e+00, 6.76445484e+00, 6.42109680e+00,
          5.10235119e+00, 6.49052191e+00, 5.45643234e+00, 5.85307741e+00,
          6.24903822e+00, 6.20260286e+00, 6.26074266e+00, 5.92281723e+00,
          6.08451271e+00, 6.85446787e+00, 6.44330120e+00, 5.81435490e+00,
          5.15624142e+00, 6.55247116e+00, 5.44243431e+00, 6.31104565e+00,
          5.33572245e+00, 6.26303387e+00, 4.14938402e+00, 7.30634928e+00,
          5.42508173e+00, 5.89989948e+00, 6.55543613e+00, 5.06558943e+00,
          5.77087641e+00, 6.64902401e+00, 6.33675385e+00, 5.32772112e+00,
          5.43734026e+00, 0., 6.21625280e+00, 7.14578533e+00,
          5.22825527e+00, 4.65827227e+00, 4.71383858e+00, 5.69969463e+00,
          5.84784365e+00, 6.14786959e+00, 5.29949999e+00, 5.46831512e+00,
          5.50136328e+00, 4.24947786e+00, 5.74735308e+00, 4.43955278e+00,
          4.14090157e+00, 5.19690847e+00, 6.35682154e+00, 5.75085449e+00,
          5.48275948e+00, 4.28062391e+00, 8.01933575e+00 ]
      - [ 7.42249680e+00, 4.56054592e+00, 6.56925392e+00, 6.61961889e+00,
          5.01574373e+00, 6.51830053e+00, 5.04962444e+00, 6.02696085e+00,
          6.11559439e+00, 6.02632856e+00, 5.86295319e+00, 5.89567280e+00,
          6.02149534e+00, 7.11961031e+00, 6.32090569e+00, 5.92265940e+00,
          5.15683889e+00, 6.22545433e+00, 5.07157660e+00, 5.83036327e+00,
          5.29316282e+00, 5.87033081e+00, 3.93611932e+00, 7.57258272e+00,
          5.08166647e+00, 6.03698111e+00, 6.37331152e+00, 5.20987701e+00,
          5.58697844e+00, 6.37619257e+00, 6.21301222e+00, 4.96709156e+00,
          5.14887333e+00, 5.56444216e+00, 5.94004440e+00, 6.69356728e+00,
          5.16680765e+00, 3.22956395e+00, 4.29051113e+00, 5.64981318e+00,
          5.73694944e+00, 6.11777878e+00, 5.02774429e+00, 5.16135740e+00,
          5.78021145e+00, 3.96551728e+00, 5.75913811e+00, 3.93177509e+00,
          3.97603893e+00, 5.05583668e+00, 6.11123800e+00, 5.49142122e+00,
          5.48258972e+00, 3.95466995e+00, 7.76288700e+00 ]
      - [ 8.02459908e+00, 5.89190435e+00, 7.36739206e+00, 6.91913939e+00,
          6.31510925e+00, 7.35494757e+00, 6.22765636e+00, 6.89023256e+00,
          6.95747089e+00, 6.73124027e+00, 6.95478153e+00, 6.48884487e+00,
          6.86257410e+00, 7.34923553e+00, 7.18838024e+00, 6.32707548e+00,
          3.27824616e+00, 7.86317301e+00, 6.11839676e+00, 7.58481932e+00,
          5.94708061e+00, 6.72916937e+00, 5.25879526e+00, 8.19635773e+00,
          5.85406780e+00, 7.10073185e+00, 7.40694523e+00, 6.06745672e+00,
          6.81851768e+00, 7.05015802e+00, 6.84281445e+00, 6.10330057e+00,
          6.26795530e+00, 6.43277216e+00, 7.33721209e+00, 7.67913485e+00,
          6.23648548e+00, 5.49137306e+00, 5.79828882e+00, 6.57519245e+00,
          6.53191566e+00, 6.63910103e+00, 6.17944622e+00, 6.20157957e+00,
          6.67685509e+00, 5.23226881e+00, 6.46582794e+00, 5.51273775e+00,
          5.23309040e+00, 6.13838148e+00, 7.35896301e+00, 6.42001581e+00,
          6.43125010e+00, 5.27650928e+00, 8.51390743e+00 ]
      - [ 7.10713768e+00, 4.01943350e+00, 5.89178133e+00, 6.11636829e+00,
          4.27468729e+00, 5.96585608e+00, 4.41082144e+00, 5.22282791e+00,
          5.42500496e+00, 5.72872543e+00, 5.57935953e+00, 5.27946758e+00,
          5.22734165e+00, 6.47802544e+00, 5.98334599e+00, 5.22839928e+00,
          4.43964100e+00, 6.18968344e+00, 4.75658703e+00, 5.55701876e+00,
          4.51048708e+00, 5.47002888e+00, 2.64990354e+00, 7.15381527e+00,
          4.70473289e+00, 5.43817711e+00, 6.01689053e+00, 4.46867704e+00,
          5.04303741e+00, 5.82713032e+00, 5.62126112e+00, 4.23984861e+00,
          4.61889124e+00, 5.02473211e+00, 5.53845167e+00, 6.20814133e+00,
          4.68634844e+00, 3.42988443e+00, 3.73982978e+00, 4.95887995e+00,
          5.18809223e+00, 5.49589491e+00, 4.49215460e+00, 4.48805332e+00,
          5.12227869e+00, 3.11053228e+00, 5.02263021e+00, 3.31882548e+00,
          3.03674936e+00, 4.51429653e+00, 5.99807453e+00, 4.76690531e+00,
          4.58685589e+00, 3.16093516e+00, 7.26963186e+00 ]
      - [ 6.80392075e+00, 3.55357575e+00, 6.00291777e+00, 5.78396845e+00,
          3.95106220e+00, 5.75336790e+00, 4.38584375e+00, 4.83955288e+00,
          5.23505974e+00, 5.12232304e+00, 5.33626795e+00, 5.12111902e+00,
          4.86016273e+00, 6.35439873e+00, 5.77965546e+00, 4.80142546e+00,
          3.84403086e+00, 5.94699287e+00, 4.72636175e+00, 5.51244736e+00,
          4.62441778e+00, 5.22859621e+00, 2.59320092e+00, 7.07052279e+00,
          4.33535480e+00, 4.85804892e+00, 5.90560722e+00, 4.25142288e+00,
          5.03581667e+00, 5.92309904e+00, 5.37596226e+00, 3.99002481e+00,
          4.36591530e+00, 4.63963890e+00, 5.43868065e+00, 6.26800489e+00,
          4.22828579e+00, 3.03527355e+00, 3.38320637e+00, 4.36506271e+00,
          4.98042488e+00, 5.12258673e+00, 4.23837376e+00, 4.09439182e+00,
          4.72988367e+00, 2.61064839e+00, 4.77558613e+00, 2.86436009e+00,
          2.62486529e+00, 4.02344894e+00, 5.81092978e+00, 4.44772005e+00,
          4.46474266e+00, 2.16474152e+00, 7.52027655e+00 ]
      - [ 7.23449564e+00, 4.97063208e+00, 6.83979225e+00, 6.68169785e+00,
          5.40823746e+00, 6.66832447e+00, 5.42866850e+00, 6.09430504e+00,
          6.28014660e+00, 6.26984596e+00, 5.88170815e+00, 6.10634661e+00,
          5.86342621e+00, 6.92123079e+00, 6.38014984e+00, 5.87827826e+00,
          5.01203442e+00, 6.77933502e+00, 0., 6.45070553e+00,
          5.40816975e+00, 6.20534754e+00, 4.16105986e+00, 7.34000206e+00,
          5.41717243e+00, 6.16955853e+00, 6.50130224e+00, 5.49959421e+00,
          5.84262848e+00, 6.75498581e+00, 6.29380417e+00, 5.06021214e+00,
          5.71023321e+00, 5.44243431e+00, 6.29104328e+00, 6.66177845e+00,
          5.28874207e+00, 4.42724466e+00, 4.81860781e+00, 5.77324915e+00,
          5.90811872e+00, 6.11455584e+00, 5.24217749e+00, 5.61946392e+00,
          5.87998343e+00, 4.26035357e+00, 5.99763870e+00, 4.50738811e+00,
          4.26204538e+00, 5.32429361e+00, 6.20303535e+00, 5.78577089e+00,
          5.75020790e+00, 4.30574846e+00, 8.20653820e+00 ]
      - [ 7.28915787e+00, 4.76891279e+00, 6.40212727e+00, 6.50269508e+00,
          4.88754940e+00, 6.65244246e+00, 5.16356182e+00, 5.87895489e+00,
          5.69772863e+00, 6.48158550e+00, 6.22056389e+00, 6.15863609e+00,
          5.96662617e+00, 7.22832775e+00, 6.91983032e+00, 5.63014889e+00,
          5.24543858e+00, 6.59853268e+00, 5.72015858e+00, 6.31540918e+00,
          5.44709778e+00, 5.95207071e+00, 4.19824886e+00, 7.57520199e+00,
          5.45829010e+00, 6.26817417e+00, 6.93347168e+00, 5.41047812e+00,
          5.64462423e+00, 6.49074411e+00, 6.22258472e+00, 5.17793226e+00,
          5.28687620e+00, 5.77977276e+00, 6.31233072e+00, 7.00308037e+00,
          5.52846861e+00, 4.49084949e+00, 4.73814631e+00, 5.45051908e+00,
          5.98208857e+00, 5.91579723e+00, 5.21108007e+00, 5.60088110e+00,
          5.74247408e+00, 4.18329239e+00, 5.92155409e+00, 4.49825382e+00,
          3.58054662e+00, 5.18575382e+00, 6.57460976e+00, 5.32052946e+00,
          5.62140989e+00, 4.25525570e+00, 8.16047192e+00 ]
      - [ 6.82988167e+00, 3.75000119e+00, 5.94560242e+00, 6.12387037e+00,
          4.25322819e+00, 5.91006279e+00, 4.50838089e+00, 5.19673443e+00,
          5.57898664e+00, 5.58107662e+00, 5.65471411e+00, 5.31342983e+00,
          5.22702789e+00, 6.51511812e+00, 6.10535479e+00, 5.14865208e+00,
          4.50647163e+00, 5.78665257e+00, 4.99660254e+00, 5.47329330e+00,
          4.66451311e+00, 5.28038406e+00, 2.60868335e+00, 7.11840582e+00,
          4.67947578e+00, 5.12797308e+00, 6.09451056e+00, 4.63029242e+00,
          5.25686789e+00, 6.00772667e+00, 5.53481245e+00, 4.33353567e+00,
          4.55188513e+00, 4.85832357e+00, 5.83014011e+00, 6.49634504e+00,
          4.49936008e+00, 3.68545818e+00, 3.62489676e+00, 4.71768618e+00,
          5.03144264e+00, 5.32099342e+00, 4.37451553e+00, 4.75622416e+00,
          5.03899145e+00, 3.06143880e+00, 5.02054739e+00, 3.24271464e+00,
          3.07006764e+00, 4.18871832e+00, 6.05767155e+00, 4.66610336e+00,
          4.77841568e+00, 2.96742749e+00, 7.50798798e+00 ]
      - [ 7.27879858e+00, 4.61454105e+00, 6.43176556e+00, 6.55637074e+00,
          4.80704498e+00, 6.52924013e+00, 5.24664211e+00, 5.68144369e+00,
          6.12215137e+00, 5.98804569e+00, 6.02173185e+00, 5.69121313e+00,
          5.57029581e+00, 6.93054390e+00, 6.12168503e+00, 5.74204254e+00,
          4.98765373e+00, 6.50106430e+00, 5.28874207e+00, 6.09105539e+00,
          5.34786510e+00, 5.89187145e+00, 3.73643756e+00, 7.45894623e+00,
          5.18528557e+00, 5.79730558e+00, 6.37736607e+00, 4.99906540e+00,
          5.81622171e+00, 6.22585440e+00, 6.07294798e+00, 4.90969563e+00,
          5.11499071e+00, 5.22825527e+00, 5.85163736e+00, 6.65372467e+00,
          0., 4.08104897e+00, 4.28634644e+00, 5.25076771e+00,
          5.62396431e+00, 5.71496534e+00, 5.06184721e+00, 5.10954475e+00,
          5.47705984e+00, 3.77923965e+00, 5.61899328e+00, 4.11064005e+00,
          3.84875703e+00, 4.71767616e+00, 6.42423010e+00, 5.33541250e+00,
          5.30090523e+00, 3.73182726e+00, 7.78192186e+00 ]
      - [ 8.38465405e+00, 6.33328581e+00, 7.96212482e+00, 7.10912752e+00,
          6.27794075e+00, 7.74643373e+00, 6.68063784e+00, 7.26197910e+00,
          7.55478239e+00, 6.93084192e+00, 6.62349796e+00, 6.63854885e+00,
          6.93002176e+00, 8.10015965e+00, 6.91177416e+00, 6.94326067e+00,
          6.24214745e+00, 7.57830286e+00, 6.50130224e+00, 6.92441559e+00,
          6.54158211e+00, 7.36758900e+00, 5.54086828e+00, 8.56375408e+00,
          6.54452515e+00, 7.12263060e+00, 0., 6.31252432e+00,
          6.83334208e+00, 7.16465616e+00, 7.23381376e+00, 6.05251455e+00,
          6.88182640e+00, 6.55543613e+00, 7.36276531e+00, 8.14879322e+00,
          6.37736607e+00, 5.75575733e+00, 6.08083200e+00, 6.89052105e+00,
          7.03067160e+00, 7.26196527e+00, 6.23645782e+00, 6.60108423e+00,
          7.06561756e+00, 5.58905315e+00, 6.89673948e+00, 5.74606371e+00,
          5.72796726e+00, 6.40778255e+00, 7.48217678e+00, 6.81783962e+00,
          6.65062189e+00, 5.63300467e+00, 8.02505016e+00 ]
      - [ 7.15584135e+00, 4.63399649e+00, 6.42125416e+00, 6.49019337e+00,
          5.04511452e+00, 6.52479029e+00, 5.27997065e+00, 5.63484049e+00,
          6.01908112e+00, 6.05602789e+00, 5.96716452e+00, 5.90271473e+00,
          5.92437363e+00, 6.79155493e+00, 6.09028435e+00, 5.57032108e+00,
          4.81846857e+00, 6.88177204e+00, 5.49959421e+00, 6.39924049e+00,
          5.37335300e+00, 6.00759602e+00, 3.89871216e+00, 7.41871214e+00,
          5.04583263e+00, 5.93541813e+00, 6.31252432e+00, 0.,
          5.74869442e+00, 6.33351326e+00, 6.16930437e+00, 4.93273544e+00,
          4.95211411e+00, 5.06558943e+00, 6.25063562e+00, 6.74489975e+00,
          4.99906540e+00, 4.18583155e+00, 4.31964159e+00, 5.29497099e+00,
          5.67004824e+00, 6.12179184e+00, 4.97555971e+00, 5.08283663e+00,
          5.50156546e+00, 3.94525671e+00, 5.68146610e+00, 3.87962914e+00,
          3.85658765e+00, 4.87769413e+00, 6.39124107e+00, 5.39167690e+00,
          5.14842939e+00, 3.87202573e+00, 7.52798367e+00 ]
      - [ 6.99902821e+00, 4.33742189e+00, 6.26094151e+00, 6.45104504e+00,
          4.76181650e+00, 6.37693262e+00, 5.01872587e+00, 5.54756927e+00,
          5.51594067e+00, 6.03720713e+00, 6.28262758e+00, 5.77683973e+00,
          5.78335238e+00, 7.09705353e+00, 6.56984854e+00, 5.72393036e+00,
          5.07418871e+00, 6.25133705e+00, 5.61145258e+00, 6.06718397e+00,
          5.13134480e+00, 5.90888119e+00, 3.61338425e+00, 7.49918604e+00,
          5.36473846e+00, 5.70190430e+00, 6.68802214e+00, 5.14445448e+00,
          5.85674047e+00, 6.44779396e+00, 5.98383427e+00, 5.00458670e+00,
          5.08605194e+00, 5.36526155e+00, 5.95271683e+00, 6.58585691e+00,
          5.07564974e+00, 4.10439014e+00, 4.41394520e+00, 5.20035648e+00,
          5.33743620e+00, 5.65725565e+00, 4.98775625e+00, 4.95921898e+00,
          5.66506004e+00, 3.32276607e+00, 5.57794428e+00, 4.07516909e+00,
          3.76888990e+00, 4.81910801e+00, 6.53359509e+00, 5.02096224e+00,
          5.20540857e+00, 3.73065639e+00, 7.99456310e+00 ]
      - [ 6.98600626e+00, 4.05458164e+00, 6.24027395e+00, 6.19630289e+00,
          4.51837111e+00, 6.16299963e+00, 4.88157272e+00, 5.48842716e+00,
          5.48675203e+00, 5.62158346e+00, 5.75332022e+00, 5.58682442e+00,
          5.37667322e+00, 6.73006821e+00, 6.22283030e+00, 5.17302036e+00,
          4.44208431e+00, 6.00183964e+00, 5.15969849e+00, 5.77252436e+00,
          5.10804796e+00, 5.32490063e+00, 3.46921468e+00, 7.17549181e+00,
          4.92072439e+00, 5.35935879e+00, 6.16834354e+00, 4.96757984e+00,
          5.48670197e+00, 5.87324238e+00, 5.72336483e+00, 4.51779270e+00,
          4.69124365e+00, 5.15427685e+00, 5.73665905e+00, 6.59503460e+00,
          4.78269958e+00, 3.82242799e+00, 3.99429774e+00, 4.93112421e+00,
          5.20543861e+00, 5.59686756e+00, 4.62911940e+00, 4.80921173e+00,
          5.25867081e+00, 3.30423808e+00, 5.20280361e+00, 3.59147406e+00,
          3.41101432e+00, 4.47807550e+00, 6.16277313e+00, 4.92872143e+00,
          4.96024847e+00, 2.84810781e+00, 7.73034668e+00 ]
      - [ 8.36338520e+00, 6.61644173e+00, 7.74979782e+00, 8.18876266e+00,
          6.60012388e+00, 7.83956718e+00, 6.83595610e+00, 7.36524057e+00,
          7.94281912e+00, 7.65042925e+00, 7.73542166e+00, 7.25968981e+00,
          7.36923981e+00, 0., 7.44724941e+00, 6.89973259e+00,
          6.69740677e+00, 8.18922710e+00, 6.92123079e+00, 7.85721588e+00,
          6.88998699e+00, 7.02291346e+00, 6.09546614e+00, 8.40725517e+00,
          6.96263075e+00, 7.08601665e+00, 8.10015965e+00, 6.79155493e+00,
          7.27837276e+00, 7.80814028e+00, 7.62933588e+00, 6.80529547e+00,
          6.96843433e+00, 6.85446787e+00, 7.90195084e+00, 8.45288086e+00,
          6.93054390e+00, 6.43460417e+00, 6.38505936e+00, 6.60563517e+00,
          7.12955666e+00, 7.08932352e+00, 7.04634190e+00, 7.18002129e+00,
          7.26915932e+00, 6.08793306e+00, 7.09495687e+00, 6.25842619e+00,
          6.02908754e+00, 6.75147247e+00, 7.88248396e+00, 7.41596460e+00,
          6.77033377e+00, 6.01292515e+00, 9.26081181e+00 ]
      - [ 7.78223610e+00, 5.35514736e+00, 6.66020155e+00, 6.92585850e+00,
          5.21902370e+00, 6.47184849e+00, 5.80167627e+00, 5.68057108e+00,
          6.32502460e+00, 6.52877617e+00, 6.61781788e+00, 6.54755306e+00,
          0., 7.36923981e+00, 6.96137047e+00, 6.02522087e+00,
          5.72541475e+00, 7.00925255e+00, 5.86342621e+00, 6.45867252e+00,
          6.01883221e+00, 6.54903269e+00, 4.64795351e+00, 7.80615616e+00,
          5.61840105e+00, 6.10885143e+00, 6.93002176e+00, 5.92437363e+00,
          6.20713902e+00, 7.05292034e+00, 6.51032400e+00, 5.59031439e+00,
          5.90546227e+00, 6.08451271e+00, 6.99055481e+00, 7.02041578e+00,
          5.57029581e+00, 4.93462801e+00, 5.19321346e+00, 5.68724966e+00,
          6.59865332e+00, 6.72034168e+00, 5.63301086e+00, 5.52120972e+00,
          6.47734690e+00, 4.79149246e+00, 6.17980337e+00, 4.88312817e+00,
          4.76571751e+00, 5.96645403e+00, 6.84869289e+00, 5.73682022e+00,
          5.89674091e+00, 4.60007429e+00, 8.38851357e+00 ]
      - [ 7.22279024e+00, 4.52771139e+00, 6.77427673e+00, 6.83057976e+00,
          5.01108122e+00, 6.36218643e+00, 5.05396557e+00, 5.39823627e+00,
          6.33449030e+00, 6.16595793e+00, 6.16001081e+00, 6.21709919e+00,
          5.79079056e+00, 6.77948380e+00, 6.41687298e+00, 5.33080626e+00,
          4.93246508e+00, 6.53293753e+00, 5.59355545e+00, 6.11822462e+00,
          5.58013773e+00, 5.80387974e+00, 4.02176762e+00, 7.85658646e+00,
          4.97918653e+00, 5.54033566e+00, 6.79377937e+00, 5.04654980e+00,
          5.63429880e+00, 6.36977482e+00, 6.27550983e+00, 4.89266872e+00,
          5.03886509e+00, 5.56842041e+00, 6.21489620e+00, 6.73720837e+00,
          5.01109314e+00, 4.20232391e+00, 4.45027542e+00, 4.97619152e+00,
          5.73298407e+00, 5.89682627e+00, 5.26296473e+00, 5.28182697e+00,
          5.57625532e+00, 3.93607259e+00, 5.77615929e+00, 3.29338598e+00,
          4.07438517e+00, 4.96928930e+00, 6.43362141e+00, 5.34221029e+00,
          5.14760256e+00, 3.89314246e+00, 7.74894810e+00 ]
      - [ 6.93388653e+00, 4.13568878e+00, 5.97412729e+00, 6.21251297e+00,
          4.55106831e+00, 6.17737293e+00, 4.95482635e+00, 5.27198219e+00,
          5.83727503e+00, 5.80155611e+00, 5.71018744e+00, 5.49879932e+00,
          5.65005016e+00, 6.36010981e+00, 6.23881912e+00, 5.19905853e+00,
          4.67516088e+00, 6.29611301e+00, 5.10012341e+00, 5.89551735e+00,
          4.79937887e+00, 5.21892262e+00, 3.37152267e+00, 7.15547657e+00,
          4.86913824e+00, 5.56483030e+00, 6.42793703e+00, 4.73249483e+00,
          5.44581556e+00, 5.99939394e+00, 6.15484905e+00, 4.50075054e+00,
          4.78735828e+00, 5.08767080e+00, 5.95421505e+00, 6.79088068e+00,
          4.79848480e+00, 3.69469666e+00, 3.99649382e+00, 4.84838772e+00,
          5.22533083e+00, 5.60869026e+00, 4.66809464e+00, 5.02883196e+00,
          5.19297218e+00, 2.80560756e+00, 5.12694883e+00, 3.52958369e+00,
          3.36373472e+00, 4.45873356e+00, 5.88970327e+00, 4.96152592e+00,
          4.87701178e+00, 3.35037661e+00, 7.76131964e+00 ]
      - [ 7.34298086e+00, 4.92409372e+00, 6.67672396e+00, 6.26681948e+00,
          5.52915287e+00, 6.91846466e+00, 5.45732117e+00, 6.07218647e+00,
          6.21752644e+00, 6.63284588e+00, 6.34037828e+00, 6.18187046e+00,
          6.14359617e+00, 7.20987034e+00, 6.40094900e+00, 5.84786272e+00,
          4.98514175e+00, 6.77385235e+00, 5.54883671e+00, 6.70838356e+00,
          5.57511282e+00, 6.05754805e+00, 4.30533457e+00, 7.90744162e+00,
          5.55485630e+00, 6.56059504e+00, 6.81234026e+00, 5.41868782e+00,
          5.74377537e+00, 6.57550478e+00, 6.35754442e+00, 5.03548050e+00,
          5.32578850e+00, 5.48125124e+00, 6.22340584e+00, 6.76509857e+00,
          5.50713491e+00, 4.49380302e+00, 4.71085215e+00, 5.97271538e+00,
          6.08970070e+00, 6.28643942e+00, 5.22274828e+00, 5.57111073e+00,
          5.68080711e+00, 4.24824142e+00, 5.53292513e+00, 4.57448101e+00,
          3.65991998e+00, 5.32360697e+00, 6.69907331e+00, 5.51791143e+00,
          5.56054926e+00, 4.39138699e+00, 8.17682076e+00 ]
      - [ 8.03304195e+00, 5.46448088e+00, 7.40577936e+00, 7.23955870e+00,
          6.01372385e+00, 7.27822876e+00, 6.33684969e+00, 6.74228239e+00,
          6.98159838e+00, 7.01769257e+00, 6.92755795e+00, 6.78766394e+00,
          6.99055481e+00, 7.90195084e+00, 7.44272995e+00, 6.83459568e+00,
          6.03711176e+00, 6.82485056e+00, 6.29104328e+00, 6.98458815e+00,
          6.30262423e+00, 6.71140909e+00, 5.15536594e+00, 7.76060820e+00,
          6.27893114e+00, 6.90477657e+00, 7.36276531e+00, 6.25063562e+00,
          6.38639164e+00, 6.90393877e+00, 6.63525105e+00, 5.87830114e+00,
          6.24299002e+00, 6.21625280e+00, 0., 7.12280655e+00,
          5.85163736e+00, 5.18423128e+00, 5.38891840e+00, 6.50814152e+00,
          6.44354057e+00, 6.74469995e+00, 5.93240929e+00, 5.94680309e+00,
          6.39509535e+00, 5.05658102e+00, 6.61304808e+00, 5.28452778e+00,
          5.05564022e+00, 6.01182365e+00, 7.21302223e+00, 6.41182280e+00,
          6.09706116e+00, 5.01311398e+00, 8.15307713e+00 ]
      - [ 7.29621553e+00, 4.11041021e+00, 6.32117176e+00, 6.27633047e+00,
          4.27009726e+00, 6.09548092e+00, 4.90728617e+00, 5.24807358e+00,
          5.79792404e+00, 5.71343422e+00, 5.78395414e+00, 5.53294802e+00,
          5.33476257e+00, 6.48060751e+00, 6.22252226e+00, 5.22835636e+00,
          4.62406683e+00, 6.12349844e+00, 5.24042559e+00, 5.62695503e+00,
          4.84102535e+00, 5.48721552e+00, 3.28826690e+00, 7.25366020e+00,
          5.02156782e+00, 5.44050884e+00, 6.35279751e+00, 4.73921061e+00,
          5.24878931e+00, 6.22868204e+00, 5.82223129e+00, 4.43208551e+00,
          4.85303211e+00, 5.18318653e+00, 5.74693871e+00, 6.46559525e+00,
          4.61254025e+00, 3.76710725e+00, 3.69200826e+00, 4.62403011e+00,
          5.35054111e+00, 5.39428473e+00, 4.54494333e+00, 4.69576931e+00,
          5.23997355e+00, 3.38644075e+00, 5.17110729e+00, 3.59272933e+00,
          3.36801481e+00, 4.57443571e+00, 6.24147034e+00, 4.91197014e+00,
          4.83077192e+00, 2.69926000e+00, 7.81737804e+00 ]
      - [ 6.81471777e+00, 4.00808287e+00, 6.28710413e+00, 6.27478838e+00,
          4.63068914e+00, 6.44733715e+00, 4.84440994e+00, 5.27920437e+00,
          5.38959742e+00, 5.65109205e+00, 5.79034281e+00, 5.65014315e+00,
          5.60878277e+00, 6.65905428e+00, 6.26470947e+00, 5.35382080e+00,
          4.46714878e+00, 5.94472599e+00, 5.19800186e+00, 5.92637539e+00,
          5.09691238e+00, 5.64045525e+00, 3.40913868e+00, 7.30853987e+00,
          4.98352289e+00, 5.47015762e+00, 6.41480780e+00, 4.96752834e+00,
          5.30253553e+00, 5.87437153e+00, 5.79134655e+00, 4.40814447e+00,
          4.87682486e+00, 5.13960552e+00, 5.39256668e+00, 6.44502020e+00,
          4.66795444e+00, 3.79464269e+00, 3.87311912e+00, 4.87935686e+00,
          5.19598818e+00, 5.40174246e+00, 4.70324564e+00, 4.68270636e+00,
          5.17014742e+00, 2.80573130e+00, 5.19413996e+00, 3.66745162e+00,
          3.32897210e+00, 4.49876785e+00, 6.29809856e+00, 4.84358692e+00,
          4.89358091e+00, 3.25542188e+00, 7.64286280e+00 ]
      - [ 7.05734301e+00, 4.06258678e+00, 6.15811157e+00, 6.25158501e+00,
          4.62851048e+00, 6.31334972e+00, 4.59610510e+00, 5.59369898e+00,
          5.78988409e+00, 5.91848040e+00, 5.92406654e+00, 5.52479506e+00,
          5.30849266e+00, 6.83457279e+00, 6.25465870e+00, 5.56390572e+00,
          4.73897171e+00, 6.06678772e+00, 5.08036423e+00, 5.40096569e+00,
          4.88183975e+00, 5.74848175e+00, 2.88509178e+00, 7.11834240e+00,
          4.84880114e+00, 5.47738838e+00, 6.30783653e+00, 4.96486568e+00,
          5.37647915e+00, 6.31462288e+00, 5.92143917e+00, 4.55440807e+00,
          4.83401585e+00, 4.98562908e+00, 5.90884399e+00, 6.56840897e+00,
          4.72470951e+00, 3.68804884e+00, 4.01518345e+00, 4.98098946e+00,
          5.40754938e+00, 5.66671371e+00, 4.58490372e+00, 5.07613897e+00,
          5.44126844e+00, 3.41019726e+00, 5.33517218e+00, 3.68441892e+00,
          3.45800138e+00, 4.56371880e+00, 5.79480505e+00, 4.86278009e+00,
          4.87251568e+00, 3.46940970e+00, 7.66919851e+00 ]
      - [ 7.91533756e+00, 5.27116346e+00, 6.86355114e+00, 6.70382690e+00,
          5.63709497e+00, 6.94482660e+00, 5.75915575e+00, 6.45690966e+00,
          6.83900452e+00, 6.80254745e+00, 6.42156887e+00, 0.,
          6.54755306e+00, 7.25968981e+00, 6.97181702e+00, 6.31640863e+00,
          5.50649834e+00, 7.09328032e+00, 6.10634661e+00, 6.63306189e+00,
          5.74202967e+00, 6.54013777e+00, 4.62219524e+00, 7.69893265e+00,
          6.14567518e+00, 6.47277212e+00, 6.63854885e+00, 5.90271473e+00,
          6.40551758e+00, 7.26122046e+00, 6.72775316e+00, 5.68179893e+00,
          6.12674904e+00, 5.92281723e+00, 6.78766394e+00, 7.40975237e+00,
          5.69121313e+00, 4.92924786e+00, 5.18021011e+00, 6.10306168e+00,
          6.13233423e+00, 6.37457752e+00, 5.57080460e+00, 5.93868589e+00,
          6.07249594e+00, 4.71560526e+00, 6.23579884e+00, 5.12584782e+00,
          4.73212194e+00, 5.58688784e+00, 6.81715298e+00, 6.07966518e+00,
          5.93818951e+00, 4.77600384e+00, 7.72737551e+00 ]
      - [ 9.55317116e+00, 7.55426693e+00, 8.88654137e+00, 9.08111382e+00,
          7.84000635e+00, 8.71630764e+00, 7.64716339e+00, 8.38159943e+00,
          8.73856354e+00, 8.43431377e+00, 8.30397701e+00, 7.72737551e+00,
          8.38851357e+00, 9.26081181e+00, 8.78735733e+00, 8.66614532e+00,
          7.56277561e+00, 9.06352615e+00, 8.20653820e+00, 8.75055218e+00,
          7.98061371e+00, 8.63984585e+00, 7.05784702e+00, 9.35694504e+00,
          8.04966736e+00, 8.29395199e+00, 8.02505016e+00, 7.52798367e+00,
          8.07264233e+00, 8.54848194e+00, 8.28191948e+00, 7.49626875e+00,
          7.92509031e+00, 8.01933575e+00, 8.15307713e+00, 8.54897308e+00,
          7.78192186e+00, 7.00423765e+00, 7.25605631e+00, 8.04211903e+00,
          8.31228065e+00, 8.37424850e+00, 7.75052547e+00, 8.07437515e+00,
          8.20404530e+00, 7.14491940e+00, 8.14982796e+00, 7.07952356e+00,
          7.20010471e+00, 7.61018038e+00, 8.29278851e+00, 8.09321785e+00,
          7.77799416e+00, 7.21941710e+00, 0. ]
      - [ 7.09829187e+00, 4.22378731e+00, 6.38693190e+00, 6.29975605e+00,
          4.94720268e+00, 6.51880646e+00, 5.02788639e+00, 5.50934172e+00,
          5.94762754e+00, 5.92261839e+00, 5.79727459e+00, 5.68179893e+00,
          5.59031439e+00, 6.80529547e+00, 6.10726357e+00, 5.33995581e+00,
          4.67948914e+00, 6.21180582e+00, 5.06021214e+00, 5.98502350e+00,
          4.97350883e+00, 5.59353304e+00, 3.57882762e+00, 7.40426111e+00,
          4.84452200e+00, 5.72176504e+00, 6.05251455e+00, 4.93273544e+00,
          5.33403921e+00, 6.24024916e+00, 5.95678663e+00, 0.,
          4.82087803e+00, 5.32772112e+00, 5.87830114e+00, 6.39289999e+00,
          4.90969563e+00, 3.90505266e+00, 3.98254704e+00, 5.26551533e+00,
          5.38817024e+00, 5.69835377e+00, 4.64030170e+00, 5.03958321e+00,
          5.19046354e+00, 3.46394444e+00, 5.26365185e+00, 3.77854943e+00,
          3.60520101e+00, 4.73084593e+00, 6.25956440e+00, 5.16358185e+00,
          5.06912661e+00, 3.47684026e+00, 7.49626875e+00 ]
      - [ 6.84803915e+00, 4.03695631e+00, 6.07861662e+00, 5.91765594e+00,
          4.68240404e+00, 6.36118937e+00, 4.76921844e+00, 5.51667070e+00,
          5.54295444e+00, 5.52406454e+00, 5.59082317e+00, 5.22336960e+00,
          5.62377405e+00, 6.77503061e+00, 6.16427422e+00, 5.46536922e+00,
          4.53362942e+00, 6.11751842e+00, 4.98117924e+00, 5.91274929e+00,
          4.90269947e+00, 5.44857836e+00, 3.26471281e+00, 7.22187948e+00,
          5.12769556e+00, 5.35064936e+00, 6.18725014e+00, 4.60654163e+00,
          5.35953999e+00, 6.07064867e+00, 5.66424370e+00, 4.28712082e+00,
          4.70753431e+00, 4.99908781e+00, 5.65881729e+00, 6.40747643e+00,
          4.52731609e+00, 3.49027348e+00, 3.80486774e+00, 4.96887636e+00,
          5.09541225e+00, 5.66114902e+00, 4.59887505e+00, 4.69256544e+00,
          5.00479460e+00, 3.22424793e+00, 5.30534267e+00, 3.53915691e+00,
          2.89038873e+00, 4.41576338e+00, 6.09001780e+00, 4.94964314e+00,
          4.85448694e+00, 3.22300434e+00, 7.35255051e+00 ]
      - [ 8.33539867e+00, 5.86725235e+00, 7.02837086e+00, 7.22205353e+00,
          3.10390401e+00, 7.21742678e+00, 5.83370876e+00, 6.31912565e+00,
          6.83363676e+00, 6.60465336e+00, 6.95055103e+00, 6.69887018e+00,
          6.50269794e+00, 7.64820910e+00, 6.92808723e+00, 6.35108852e+00,
          6.28092766e+00, 6.86793184e+00, 6.68489599e+00, 6.23803806e+00,
          6.48997259e+00, 6.98719549e+00, 5.18097782e+00, 8.51733112e+00,
          6.46997881e+00, 6.55110693e+00, 7.18225050e+00, 6.47688150e+00,
          6.87319517e+00, 7.74989557e+00, 7.15512371e+00, 6.35091782e+00,
          6.48295403e+00, 6.37959290e+00, 7.35507631e+00, 7.92855978e+00,
          6.38767862e+00, 5.53080940e+00, 5.55995846e+00, 5.98246956e+00,
          6.85336685e+00, 6.75315094e+00, 6.13454580e+00, 6.11222649e+00,
          6.58948374e+00, 5.29104376e+00, 6.68187094e+00, 5.42953730e+00,
          5.17844105e+00, 6.05981779e+00, 7.51962423e+00, 6.39257908e+00,
          6.32735109e+00, 5.20438576e+00, 8.91246605e+00 ]
      - [ 7.99079847e+00, 5.47539663e+00, 7.55438614e+00, 7.08527040e+00,
          5.82511377e+00, 7.28745317e+00, 6.03164577e+00, 6.61799812e+00,
          6.87422466e+00, 6.68202782e+00, 0., 6.42156887e+00,
          6.61781788e+00, 7.73542166e+00, 6.87636995e+00, 6.26291704e+00,
          5.79750919e+00, 7.41254473e+00, 5.88170815e+00, 6.93926573e+00,
          6.10271454e+00, 6.63436747e+00, 5.04889631e+00, 8.05182076e+00,
          6.09742165e+00, 6.76656103e+00, 6.62349796e+00, 5.96716452e+00,
          6.30600214e+00, 6.92330980e+00, 6.93440580e+00, 5.79727459e+00,
          6.19909620e+00, 6.26074266e+00, 6.92755795e+00, 7.37596893e+00,
          6.02173185e+00, 5.24733019e+00, 5.37333298e+00, 6.16123962e+00,
          6.63352489e+00, 6.81959391e+00, 5.90094471e+00, 5.99310780e+00,
          6.45022106e+00, 5.06092501e+00, 6.64526987e+00, 5.22292709e+00,
          4.98145866e+00, 5.89133120e+00, 7.04768276e+00, 6.24352264e+00,
          6.10057735e+00, 5.03829193e+00, 8.30397701e+00 ]
      - [ 7.24850655e+00, 4.82631016e+00, 6.39826012e+00, 6.46996689e+00,
          5.08472252e+00, 6.35471773e+00, 5.12722635e+00, 5.64871979e+00,
          5.43983746e+00, 6.33577204e+00, 6.24352264e+00, 6.07966518e+00,
          5.73682022e+00, 7.41596460e+00, 6.41703653e+00, 5.75776720e+00,
          5.08979797e+00, 6.34110546e+00, 5.78577089e+00, 6.15527201e+00,
          5.33285475e+00, 6.08880854e+00, 3.92832279e+00, 7.39198256e+00,
          5.34435463e+00, 6.01330662e+00, 6.81783962e+00, 5.39167690e+00,
          5.87448025e+00, 6.61694384e+00, 6.13894606e+00, 5.16358185e+00,
          5.31451988e+00, 5.75085449e+00, 6.41182280e+00, 6.65082502e+00,
          5.33541250e+00, 4.25484705e+00, 4.51647472e+00, 5.38999605e+00,
          5.90805531e+00, 5.93825674e+00, 5.04639101e+00, 5.10054016e+00,
          5.78067350e+00, 4.05988932e+00, 5.64586258e+00, 4.26592255e+00,
          4.04756594e+00, 4.97084951e+00, 6.63295984e+00, 0.,
          5.64441109e+00, 3.90195799e+00, 8.09321785e+00 ]
      - [ 7.43052149e+00, 4.35187101e+00, 6.48290396e+00, 6.40774345e+00,
          5.00895119e+00, 6.45194101e+00, 5.10829115e+00, 5.83857727e+00,
          6.16947460e+00, 6.07850027e+00, 5.89337111e+00, 5.55869102e+00,
          5.83815765e+00, 6.96168756e+00, 6.19195938e+00, 5.43845701e+00,
          4.74658680e+00, 6.36331654e+00, 5.23470116e+00, 6.13952208e+00,
          4.90303040e+00, 5.57389498e+00, 3.86989069e+00, 7.46840191e+00,
          5.08271790e+00, 5.93299437e+00, 6.19681549e+00, 5.25782156e+00,
          5.72934866e+00, 6.37399149e+00, 6.07798481e+00, 4.40334702e+00,
          5.01427889e+00, 5.49222469e+00, 6.04137230e+00, 6.90153503e+00,
          4.86349297e+00, 4.11766672e+00, 4.35709953e+00, 5.38038397e+00,
          5.79109287e+00, 5.77846003e+00, 4.90174007e+00, 5.22659588e+00,
          5.00767994e+00, 3.12329125e+00, 5.13521528e+00, 4.03836823e+00,
          3.80578828e+00, 4.74780941e+00, 6.30712891e+00, 5.35596514e+00,
          5.13801813e+00, 3.83424544e+00, 7.84400845e+00 ]
      - [ 7.70024252e+00, 5.40371275e+00, 6.70078325e+00, 7.29790640e+00,
          5.52589703e+00, 6.91364527e+00, 5.83128309e+00, 6.29779434e+00,
          6.73839092e+00, 6.28188229e+00, 6.81959391e+00, 6.37457752e+00,
          6.72034168e+00, 7.08932352e+00, 7.21133947e+00, 5.75932980e+00,
          5.53985071e+00, 6.76751089e+00, 6.11455584e+00, 6.76777983e+00,
          5.71007490e+00, 6.56215286e+00, 4.72045851e+00, 7.99033594e+00,
          5.59762621e+00, 5.89226770e+00, 7.26196527e+00, 6.12179184e+00,
          6.47623730e+00, 6.92554522e+00, 6.61970377e+00, 5.69835377e+00,
          6.13988400e+00, 6.14786959e+00, 6.74469995e+00, 6.90590572e+00,
          5.71496534e+00, 5.24268436e+00, 5.28905678e+00, 5.93726540e+00,
          6.05221462e+00, 0., 5.80449867e+00, 5.85701370e+00,
          6.28948641e+00, 4.85102940e+00, 6.15448761e+00, 5.06180763e+00,
          4.78000069e+00, 5.60545969e+00, 6.83447552e+00, 5.93825674e+00,
          6.15776014e+00, 4.73909569e+00, 8.37424850e+00 ]
      - [ 7.43400669e+00, 5.11146307e+00, 6.79980993e+00, 6.93367863e+00,
          5.10492802e+00, 6.57405472e+00, 5.51864719e+00, 5.93006897e+00,
          6.43324566e+00, 6.58661318e+00, 6.56998205e+00, 6.24385881e+00,
          6.15888453e+00, 7.28804588e+00, 6.72269869e+00, 5.91318274e+00,
          5.43285799e+00, 6.65787888e+00, 5.95938063e+00, 6.41874599e+00,
          5.72481203e+00, 6.27616787e+00, 4.34575939e+00, 8.17230606e+00,
          5.53710556e+00, 6.32105637e+00, 7.12578917e+00, 5.53558445e+00,
          6.06631994e+00, 6.82034397e+00, 6.05570269e+00, 5.52628899e+00,
          5.45788813e+00, 5.88522959e+00, 6.42882967e+00, 6.83450413e+00,
          5.68836117e+00, 4.78222656e+00, 4.77051735e+00, 5.38159609e+00,
          5.73853874e+00, 6.30920458e+00, 5.08238697e+00, 5.42768049e+00,
          5.93192244e+00, 4.49426746e+00, 6.01398945e+00, 3.77241039e+00,
          4.45949411e+00, 5.33753538e+00, 6.72082043e+00, 5.59868956e+00,
          5.89768076e+00, 4.39719152e+00, 8.23079586e+00 ]
      - [ 7.22382832e+00, 4.52645159e+00, 6.24290991e+00, 6.29955816e+00,
          4.45108795e+00, 6.11400080e+00, 4.99967766e+00, 5.47754478e+00,
          5.76251411e+00, 5.70005894e+00, 5.75910139e+00, 5.72221851e+00,
          5.44242620e+00, 6.68468666e+00, 6.02598190e+00, 5.36385012e+00,
          4.57827902e+00, 5.93355751e+00, 5.22090626e+00, 5.53051758e+00,
          4.99360943e+00, 5.61771917e+00, 3.59186339e+00, 7.34030867e+00,
          4.94665813e+00, 5.62169266e+00, 6.19910002e+00, 5.09778929e+00,
          5.53592014e+00, 5.97798586e+00, 6.15951824e+00, 4.48343039e+00,
          4.90061474e+00, 5.39633036e+00, 6.04037189e+00, 6.74233580e+00,
          4.78861570e+00, 3.90751028e+00, 4.06995153e+00, 5.10105324e+00,
          5.51585388e+00, 5.68785286e+00, 4.68794298e+00, 4.50814104e+00,
          5.64139175e+00, 3.56480479e+00, 5.38684225e+00, 3.89334846e+00,
          3.71731210e+00, 4.70246458e+00, 6.38628912e+00, 5.07172298e+00,
          5.30847502e+00, 3.00213242e+00, 8.01103401e+00 ]
      - [ 7.64392710e+00, 5.12387180e+00, 6.98364544e+00, 7.04629803e+00,
          5.75950003e+00, 6.91991091e+00, 5.84179163e+00, 6.45126581e+00,
          6.79632139e+00, 6.70885229e+00, 6.63436747e+00, 6.54013777e+00,
          6.54903269e+00, 7.02291346e+00, 7.01675987e+00, 6.16664648e+00,
          5.70030022e+00, 7.09509468e+00, 6.20534754e+00, 6.87821198e+00,
          5.91918087e+00, 0., 4.83565187e+00, 7.59086657e+00,
          5.89744425e+00, 6.67642689e+00, 7.36758900e+00, 6.00759602e+00,
          6.23756933e+00, 7.12253237e+00, 6.72387648e+00, 5.59353304e+00,
          5.73136759e+00, 6.26303387e+00, 6.71140909e+00, 7.38619471e+00,
          5.89187145e+00, 5.06163502e+00, 4.94522190e+00, 5.97205353e+00,
          6.46117878e+00, 6.56215286e+00, 5.82816315e+00, 5.89269161e+00,
          5.85776424e+00, 4.71022987e+00, 6.25723410e+00, 4.89291859e+00,
          4.82847929e+00, 5.71684504e+00, 7.11689758e+00, 6.08880854e+00,
          5.79628181e+00, 4.72524452e+00, 8.63984585e+00 ]
      - [ 7.38483286e+00, 4.45721483e+00, 6.59249210e+00, 6.35172129e+00,
          5.15329456e+00, 6.46075869e+00, 5.47947168e+00, 5.77020979e+00,
          6.28779030e+00, 6.05841589e+00, 6.10057735e+00, 5.93818951e+00,
          5.89674091e+00, 6.77033377e+00, 6.63976192e+00, 5.87625027e+00,
          5.18719959e+00, 6.71032190e+00, 5.75020790e+00, 6.10445595e+00,
          5.66376972e+00, 5.79628181e+00, 4.01345634e+00, 7.33321714e+00,
          5.33945560e+00, 5.74372244e+00, 6.65062189e+00, 5.14842939e+00,
          5.74218559e+00, 6.77128267e+00, 6.09439945e+00, 5.06912661e+00,
          5.08973169e+00, 5.48275948e+00, 6.09706116e+00, 6.95147753e+00,
          5.30090523e+00, 4.41476345e+00, 4.57583046e+00, 5.31059217e+00,
          5.71743393e+00, 6.15776014e+00, 5.27898407e+00, 5.24852324e+00,
          5.60875559e+00, 4.02364922e+00, 5.44099188e+00, 4.19329166e+00,
          3.98457122e+00, 4.94483089e+00, 6.40935612e+00, 5.64441109e+00,
          0., 4.05106354e+00, 7.77799416e+00 ]
      - [ 7.43576813e+00, 4.91424751e+00, 6.78289509e+00, 6.69138956e+00,
          5.40349579e+00, 6.68982649e+00, 5.65183067e+00, 5.97911501e+00,
          6.34478140e+00, 6.57417202e+00, 6.35193110e+00, 6.32706356e+00,
          6.32136106e+00, 7.56260872e+00, 6.70838642e+00, 5.92869139e+00,
          3.27824616e+00, 6.71929312e+00, 5.85661936e+00, 6.82137442e+00,
          6.15268898e+00, 6.41863871e+00, 4.49866486e+00, 7.89646101e+00,
          5.40269852e+00, 5.98509312e+00, 6.67531061e+00, 5.57808638e+00,
          6.14370966e+00, 6.37576532e+00, 6.45074368e+00, 5.29516268e+00,
          5.53712463e+00, 5.76947975e+00, 6.36808968e+00, 7.12447405e+00,
          5.68800688e+00, 4.65750742e+00, 4.79383421e+00, 5.91537333e+00,
          6.01590729e+00, 6.22864628e+00, 5.39169598e+00, 5.56899309e+00,
          5.97265244e+00, 4.41143751e+00, 6.07438087e+00, 4.48511267e+00,
          4.41852093e+00, 5.38049173e+00, 6.79701996e+00, 5.66474009e+00,
          5.82639694e+00, 4.27383852e+00, 7.96230650e+00 ]
      - [ 8.55885410e+00, 6.11049080e+00, 7.25982094e+00, 7.72376347e+00,
          6.05282211e+00, 0., 6.44271612e+00, 6.34988928e+00,
          6.88921642e+00, 7.21100807e+00, 7.28745317e+00, 6.94482660e+00,
          6.47184849e+00, 7.83956718e+00, 7.54643250e+00, 7.06798315e+00,
          6.21913290e+00, 7.50190639e+00, 6.66832447e+00, 7.19899130e+00,
          6.43092918e+00, 6.91991091e+00, 5.52328396e+00, 8.00969315e+00,
          6.31821394e+00, 7.19068193e+00, 7.74643373e+00, 6.52479029e+00,
          7.07556868e+00, 7.67551327e+00, 7.08041239e+00, 6.51880646e+00,
          6.49586868e+00, 6.49052191e+00, 7.27822876e+00, 7.55215883e+00,
          6.52924013e+00, 5.60733557e+00, 5.76235390e+00, 6.54646063e+00,
          6.96702623e+00, 6.91364527e+00, 6.46777201e+00, 6.25253582e+00,
          6.95046568e+00, 5.60459566e+00, 6.87750196e+00, 5.40188456e+00,
          5.61964989e+00, 6.54918385e+00, 7.41475773e+00, 6.35471773e+00,
          6.46075869e+00, 5.38022089e+00, 8.71630764e+00 ]
      - [ 7.72646713e+00, 6.18616295e+00, 0., 7.39572287e+00,
          5.89102316e+00, 7.25982094e+00, 6.35423422e+00, 6.63861513e+00,
          7.12407017e+00, 7.52232409e+00, 7.55438614e+00, 6.86355114e+00,
          6.66020155e+00, 7.74979782e+00, 7.18481779e+00, 6.77216959e+00,
          6.27663660e+00, 7.07344103e+00, 6.83979225e+00, 7.07092142e+00,
          6.43698835e+00, 6.98364544e+00, 5.49507809e+00, 7.88904285e+00,
          6.26803017e+00, 6.92843866e+00, 7.96212482e+00, 6.42125416e+00,
          7.06951237e+00, 7.26271200e+00, 7.26094532e+00, 6.38693190e+00,
          6.04507065e+00, 6.76445484e+00, 7.40577936e+00, 7.80034637e+00,
          6.43176556e+00, 5.70751047e+00, 5.67182207e+00, 6.80342245e+00,
          6.90842724e+00, 6.70078325e+00, 6.38013792e+00, 6.35338449e+00,
          7.10853148e+00, 5.49729586e+00, 6.78245831e+00, 5.66235495e+00,
          5.46976614e+00, 6.48145962e+00, 7.25651598e+00, 6.39826012e+00,
          6.59249210e+00, 5.58258581e+00, 8.88654137e+00 ]
      - [ 7.58591270e+00, 2.74495935e+00, 7.27852249e+00, 7.07731295e+00,
          5.98072338e+00, 7.22323704e+00, 5.94100618e+00, 6.54191971e+00,
          6.88661385e+00, 6.69101954e+00, 6.76626015e+00, 6.47415972e+00,
          6.78455639e+00, 7.67128897e+00, 7.37966824e+00, 6.45344973e+00,
          5.83641148e+00, 7.20859051e+00, 6.37264681e+00, 7.07638359e+00,
          6.08411026e+00, 6.27948856e+00, 4.92342663e+00, 7.73963547e+00,
          6.16579342e+00, 6.36160088e+00, 7.56138420e+00, 6.08056736e+00,
          6.32288885e+00, 7.11421204e+00, 6.91184759e+00, 5.67831993e+00,
          5.84426737e+00, 6.12488461e+00, 6.50343037e+00, 7.44102001e+00,
          5.94760275e+00, 5.06273699e+00, 5.22739315e+00, 6.35218763e+00,
          6.51352453e+00, 6.57850647e+00, 5.92292738e+00, 6.09506750e+00,
          5.93609667e+00, 4.76804018e+00, 6.33746004e+00, 4.91194487e+00,
          4.79508877e+00, 5.77850628e+00, 6.98765850e+00, 6.06240273e+00,
          5.70556402e+00, 4.95235538e+00, 8.21586323e+00 ]
      - [ 7.17075920e+00, 4.24513388e+00, 6.14818096e+00, 5.69723606e+00,
          4.83410788e+00, 6.32313251e+00, 5.13978672e+00, 5.77808523e+00,
          5.58859730e+00, 6.00331926e+00, 5.74204350e+00, 5.70386028e+00,
          5.63448858e+00, 6.81657839e+00, 6.01702595e+00, 5.47687101e+00,
          4.48538589e+00, 6.19587421e+00, 5.01372862e+00, 5.92913294e+00,
          4.96214247e+00, 5.66341686e+00, 3.52830958e+00, 7.28366709e+00,
          4.84405851e+00, 5.46584606e+00, 6.20034170e+00, 4.93324184e+00,
          5.50178814e+00, 6.25262928e+00, 5.93077517e+00, 4.68849897e+00,
          4.80254936e+00, 4.93313694e+00, 5.95208025e+00, 6.66539001e+00,
          4.70523787e+00, 3.80123210e+00, 4.02223349e+00, 5.15117407e+00,
          5.47755909e+00, 5.74163961e+00, 4.85703182e+00, 5.00360632e+00,
          5.28763962e+00, 2.99226117e+00, 5.14718390e+00, 3.72242308e+00,
          3.43036699e+00, 4.69291925e+00, 6.14716816e+00, 5.03197765e+00,
          5.01991844e+00, 3.47857237e+00, 7.80382347e+00 ]
      - [ 6.80402184e+00, 4.19041014e+00, 6.19524384e+00, 6.55481720e+00,
          4.55540323e+00, 6.22560072e+00, 4.87926102e+00, 5.39446783e+00,
          5.60552502e+00, 5.78138781e+00, 5.81791639e+00, 5.68319702e+00,
          5.76008463e+00, 6.78843927e+00, 6.62061405e+00, 5.28512526e+00,
          4.57269669e+00, 6.23583651e+00, 5.44189119e+00, 6.21977043e+00,
          5.04643488e+00, 5.48551369e+00, 3.54893303e+00, 7.27494335e+00,
          5.12806702e+00, 5.64884377e+00, 6.71508455e+00, 4.76832199e+00,
          5.60924768e+00, 6.08791637e+00, 5.79653454e+00, 4.66537380e+00,
          4.84159088e+00, 5.17076302e+00, 5.83975458e+00, 6.45433617e+00,
          4.98578930e+00, 3.97223616e+00, 3.30766654e+00, 5.38282108e+00,
          5.48049402e+00, 5.54529142e+00, 4.59953165e+00, 4.96012497e+00,
          5.20744514e+00, 3.59054184e+00, 5.38358068e+00, 3.68357563e+00,
          3.51483774e+00, 4.72911453e+00, 6.24079943e+00, 5.10891199e+00,
          5.04675531e+00, 3.48527431e+00, 7.63383389e+00 ]
      - [ 8.96630859e+00, 6.96326065e+00, 7.88904285e+00, 8.19324589e+00,
          7.41069603e+00, 8.00969315e+00, 7.66039467e+00, 8.10119915e+00,
          8.09272671e+00, 8.21454334e+00, 8.05182076e+00, 7.69893265e+00,
          7.80615616e+00, 8.40725517e+00, 8.88391304e+00, 8.29015350e+00,
          7.34984970e+00, 8.10927010e+00, 7.34000206e+00, 8.35538864e+00,
          7.50684643e+00, 7.59086657e+00, 6.78240347e+00, 0.,
          7.73573685e+00, 7.74417114e+00, 8.56375408e+00, 7.41871214e+00,
          8.05411816e+00, 8.42414951e+00, 8.46853256e+00, 7.40426111e+00,
          7.60877609e+00, 7.30634928e+00, 7.76060820e+00, 8.90249538e+00,
          7.45894623e+00, 6.82782507e+00, 7.05469227e+00, 8.02383614e+00,
          7.80633688e+00, 7.99033594e+00, 7.51652527e+00, 7.65484858e+00,
          7.88068295e+00, 6.69773102e+00, 7.66461372e+00, 6.97542667e+00,
          6.75226402e+00, 7.26949883e+00, 8.14577198e+00, 7.39198256e+00,
          7.33321714e+00, 6.67033052e+00, 9.35694504e+00 ]
      - [ 7.44934702e+00, 4.53747654e+00, 6.35423422e+00, 6.78434038e+00,
          4.42046165e+00, 6.44271612e+00, 0., 5.64369202e+00,
          5.85844660e+00, 6.19664288e+00, 6.03164577e+00, 5.75915575e+00,
          5.80167627e+00, 6.83595610e+00, 6.49658251e+00, 5.61683226e+00,
          4.96150637e+00, 6.43950033e+00, 5.42866850e+00, 5.63226604e+00,
          5.12386990e+00, 5.84179163e+00, 3.75110650e+00, 7.66039467e+00,
          5.28236914e+00, 5.55569315e+00, 6.68063784e+00, 5.27997065e+00,
          5.59844780e+00, 6.51275063e+00, 5.87961006e+00, 5.02788639e+00,
          5.13335419e+00, 5.45643234e+00, 6.33684969e+00, 6.68281603e+00,
          5.24664211e+00, 4.12272692e+00, 4.31233025e+00, 5.42044783e+00,
          5.69807863e+00, 5.83128309e+00, 5.00053215e+00, 5.26811981e+00,
          5.94769812e+00, 3.93902898e+00, 6.00598240e+00, 4.06057835e+00,
          3.91494060e+00, 5.07428408e+00, 6.44280005e+00, 5.12722635e+00,
          5.47947168e+00, 4.00744152e+00, 7.64716339e+00 ]
      - [ 8.49528790e+00, 6.24669933e+00, 7.80034637e+00, 8.12051010e+00,
          6.83681011e+00, 7.55215883e+00, 6.68281603e+00, 6.97751999e+00,
          7.36984062e+00, 7.47087812e+00, 7.37596893e+00, 7.40975237e+00,
          7.02041578e+00, 8.45288086e+00, 8.11237812e+00, 7.28368568e+00,
          6.64204216e+00, 7.66233063e+00, 6.66177845e+00, 7.61393738e+00,
          6.45916557e+00, 7.38619471e+00, 5.72414112e+00, 8.90249538e+00,
          6.96691990e+00, 7.17280245e+00, 8.14879322e+00, 6.74489975e+00,
          6.94711733e+00, 8.25396156e+00, 6.90980673e+00, 6.39289999e+00,
          6.98226738e+00, 7.14578533e+00, 7.12280655e+00, 0.,
          6.65372467e+00, 5.82281494e+00, 6.15465879e+00, 7.15609789e+00,
          7.15710640e+00, 6.90590572e+00, 6.45405483e+00, 6.52634668e+00,
          7.12727547e+00, 5.94918776e+00, 6.98595047e+00, 5.89503813e+00,
          5.80875015e+00, 6.84987926e+00, 7.47937489e+00, 6.65082502e+00,
          6.95147753e+00, 5.80621767e+00, 8.54897308e+00 ]
      - [ 7.40250874e+00, 4.54561186e+00, 6.42121601e+00, 6.22038984e+00,
          4.83613825e+00, 6.78348780e+00, 4.96448946e+00, 5.67026329e+00,
          6.00591993e+00, 6.38357115e+00, 6.16941500e+00, 5.71626329e+00,
          5.86038828e+00, 6.82675648e+00, 6.39732027e+00, 5.60852385e+00,
          4.94555616e+00, 6.52493048e+00, 5.40891361e+00, 5.68644476e+00,
          5.15160704e+00, 5.86433554e+00, 3.41355133e+00, 7.65240574e+00,
          5.13597441e+00, 5.76899815e+00, 6.64152479e+00, 5.14001703e+00,
          5.67244339e+00, 6.46589088e+00, 6.12353230e+00, 4.78818512e+00,
          5.09490728e+00, 5.17435741e+00, 6.07529831e+00, 6.70500898e+00,
          5.01136684e+00, 4.35661936e+00, 4.25662994e+00, 5.29334974e+00,
          5.64991188e+00, 5.72538805e+00, 4.72162962e+00, 5.15427256e+00,
          5.67159033e+00, 3.94883204e+00, 5.59414148e+00, 4.08249331e+00,
          3.86942554e+00, 4.98281717e+00, 6.33542252e+00, 5.22122192e+00,
          5.27059889e+00, 3.75315619e+00, 7.89872551e+00 ]
      - [ 7.47352743e+00, 5.02488422e+00, 6.77216959e+00, 6.86703682e+00,
          5.13920975e+00, 7.06798315e+00, 5.61683226e+00, 5.97176647e+00,
          6.59087420e+00, 6.19025993e+00, 6.26291704e+00, 6.31640863e+00,
          6.02522087e+00, 6.89973259e+00, 6.43403101e+00, 0.,
          5.18109465e+00, 6.60700178e+00, 5.87827826e+00, 6.57035875e+00,
          5.61117697e+00, 6.16664648e+00, 4.52357006e+00, 8.29015350e+00,
          5.32871914e+00, 6.09433222e+00, 6.94326067e+00, 5.57032108e+00,
          6.25879717e+00, 6.45032787e+00, 6.38259888e+00, 5.33995581e+00,
          5.73103476e+00, 5.81435490e+00, 6.83459568e+00, 7.28368568e+00,
          5.74204254e+00, 4.91138458e+00, 4.92356586e+00, 5.78124905e+00,
          6.16225052e+00, 5.75932980e+00, 5.50606298e+00, 5.63641596e+00,
          5.70687580e+00, 4.50780058e+00, 6.15233994e+00, 4.59285688e+00,
          4.44836473e+00, 5.59688807e+00, 6.80512238e+00, 5.75776720e+00,
          5.87625027e+00, 4.45573997e+00, 8.66614532e+00 ]
      - [ 7.45200539e+00, 4.69595480e+00, 6.35338449e+00, 6.39369822e+00,
          4.84731197e+00, 6.25253582e+00, 5.26811981e+00, 5.62474871e+00,
          5.86438274e+00, 5.93296814e+00, 5.99310780e+00, 5.93868589e+00,
          5.52120972e+00, 7.18002129e+00, 6.19620657e+00, 5.63641596e+00,
          4.89793205e+00, 6.34552860e+00, 5.61946392e+00, 6.01083612e+00,
          5.28578758e+00, 5.89269161e+00, 3.96010876e+00, 7.65484858e+00,
          5.21338797e+00, 5.81692314e+00, 6.60108423e+00, 5.08283663e+00,
          5.68614578e+00, 6.59981441e+00, 6.08785057e+00, 5.03958321e+00,
          5.24764204e+00, 5.46831512e+00, 5.94680309e+00, 6.52634668e+00,
          5.10954475e+00, 4.08082962e+00, 4.39947176e+00, 5.48193884e+00,
          5.93556309e+00, 5.85701370e+00, 4.90382338e+00, 0.,
          5.69805956e+00, 3.97539115e+00, 5.51106501e+00, 4.07327557e+00,
          3.98893428e+00, 5.18949413e+00, 6.64117861e+00, 5.10054016e+00,
          5.24852324e+00, 3.68236661e+00, 8.07437515e+00 ]
      - [ 6.76763344e+00, 4.16208601e+00, 6.42474890e+00, 6.40308475e+00,
          4.67712116e+00, 6.07932281e+00, 5.02391243e+00, 5.18495226e+00,
          5.81169319e+00, 5.73995352e+00, 5.98606014e+00, 5.63386297e+00,
          5.62748337e+00, 6.85767651e+00, 6.56398773e+00, 5.65135574e+00,
          4.72272253e+00, 6.34720182e+00, 5.31353378e+00, 6.02052689e+00,
          4.97591114e+00, 5.74279308e+00, 3.52375364e+00, 7.35864353e+00,
          5.05470085e+00, 5.30719900e+00, 6.62063837e+00, 4.82312393e+00,
          5.35069275e+00, 6.28573465e+00, 5.84168148e+00, 4.76223993e+00,
          4.78221607e+00, 5.11990738e+00, 5.69798088e+00, 6.30552292e+00,
          4.73431253e+00, 3.78430843e+00, 3.96203971e+00, 4.95288992e+00,
          5.32315683e+00, 5.54162073e+00, 4.73324919e+00, 4.74209499e+00,
          5.22378635e+00, 3.55835819e+00, 5.30237484e+00, 3.72181606e+00,
          3.50896430e+00, 4.56838512e+00, 6.24170637e+00, 4.85107231e+00,
          5.03670025e+00, 2.95694113e+00, 7.81378937e+00 ]
      - [ 7.75686121e+00, 4.81516600e+00, 7.10853148e+00, 6.69737673e+00,
          5.56121302e+00, 6.95046568e+00, 5.94769812e+00, 6.23383665e+00,
          6.47097015e+00, 6.62619686e+00, 6.45022106e+00, 6.07249594e+00,
          6.47734690e+00, 7.26915932e+00, 6.96437073e+00, 5.70687580e+00,
          5.42029428e+00, 7.01352167e+00, 5.87998343e+00, 6.92661381e+00,
          5.80484724e+00, 5.85776424e+00, 4.46660662e+00, 7.88068295e+00,
          5.65419722e+00, 6.46632862e+00, 7.06561756e+00, 5.50156546e+00,
          6.15110779e+00, 6.73764372e+00, 6.49800205e+00, 5.19046354e+00,
          5.52156639e+00, 5.50136328e+00, 6.39509535e+00, 7.12727547e+00,
          5.47705984e+00, 4.69545126e+00, 4.86649752e+00, 5.80551720e+00,
          6.34898710e+00, 6.28948641e+00, 5.41167355e+00, 5.69805956e+00,
          0., 4.36962509e+00, 5.86355400e+00, 4.47612667e+00,
          4.27478647e+00, 5.37915039e+00, 6.51234913e+00, 5.78067350e+00,
          5.60875559e+00, 4.41419363e+00, 8.20404530e+00 ]
      - [ 7.10580635e+00, 3.98811388e+00, 6.15433264e+00, 6.02373600e+00,
          4.27501059e+00, 6.00217009e+00, 4.51170111e+00, 5.27757549e+00,
          5.41331768e+00, 5.47437954e+00, 5.62201309e+00, 5.22842693e+00,
          5.38966703e+00, 6.49232340e+00, 5.89289570e+00, 5.14305449e+00,
          4.33756590e+00, 6.02251244e+00, 4.84414673e+00, 5.68686056e+00,
          4.71193552e+00, 5.47425413e+00, 2.30471539e+00, 7.41362095e+00,
          4.63869810e+00, 5.36429834e+00, 6.07388830e+00, 4.63645601e+00,
          5.08252954e+00, 5.79398394e+00, 5.53690100e+00, 4.60630083e+00,
          4.67871904e+00, 4.84211349e+00, 5.67313480e+00, 6.25907993e+00,
          4.41224003e+00, 3.52615309e+00, 3.79159737e+00, 4.77395010e+00,
          5.01809025e+00, 5.27225590e+00, 4.37837744e+00, 4.67268229e+00,
          5.08950520e+00, 3.14595962e+00, 5.11638784e+00, 3.38810396e+00,
          3.10161471e+00, 4.28208017e+00, 5.95310879e+00, 4.64632511e+00,
          4.75391769e+00, 3.06514072e+00, 7.56289530e+00 ]
      - [ 7.17451429e+00, 4.40424824e+00, 6.04507065e+00, 6.23572874e+00,
          4.99749994e+00, 6.49586868e+00, 5.13335419e+00, 5.52914524e+00,
          6.08306313e+00, 6.18814278e+00, 6.19909620e+00, 6.12674904e+00,
          5.90546227e+00, 6.96843433e+00, 6.31071901e+00, 5.73103476e+00,
          4.92205286e+00, 6.51498556e+00, 5.71023321e+00, 6.11808920e+00,
          5.26262093e+00, 5.73136759e+00, 3.94437504e+00, 7.60877609e+00,
          4.99525595e+00, 5.85038042e+00, 6.88182640e+00, 4.95211411e+00,
          5.56962204e+00, 6.19988012e+00, 6.15802145e+00, 4.82087803e+00,
          0., 5.43734026e+00, 6.24299002e+00, 6.98226738e+00,
          5.11499071e+00, 4.16919947e+00, 4.22243881e+00, 5.24842644e+00,
          5.63391352e+00, 6.13988400e+00, 5.08589983e+00, 5.24764204e+00,
          5.52156639e+00, 3.87439394e+00, 5.58415556e+00, 3.81662416e+00,
          3.90215063e+00, 4.75727129e+00, 6.46837664e+00, 5.31451988e+00,
          5.08973169e+00, 3.81323314e+00, 7.92509031e+00 ]
      - [ 7.44579506e+00, 4.89507675e+00, 6.26727629e+00, 6.88802814e+00,
          3.10390401e+00, 6.36007023e+00, 4.93125153e+00, 5.34413671e+00,
          6.21758270e+00, 5.78199625e+00, 6.23074484e+00, 6.16013479e+00,
          5.60890198e+00, 6.92073727e+00, 6.76098251e+00, 5.63516331e+00,
          5.23478460e+00, 6.56346846e+00, 5.75140667e+00, 5.92545605e+00,
          5.40609074e+00, 6.06557560e+00, 4.14798164e+00, 7.52066135e+00,
          5.46929073e+00, 5.86862993e+00, 6.81973600e+00, 5.31270266e+00,
          5.89342403e+00, 6.25020361e+00, 6.33934164e+00, 5.28052092e+00,
          5.21437979e+00, 5.53508902e+00, 6.12381077e+00, 7.06330919e+00,
          4.96803474e+00, 4.41677856e+00, 4.53257847e+00, 5.26560545e+00,
          5.66760206e+00, 5.89359522e+00, 5.24430990e+00, 5.37605715e+00,
          6.14013958e+00, 4.23931122e+00, 6.02609301e+00, 4.32541943e+00,
          4.17395496e+00, 5.11204290e+00, 6.62253475e+00, 5.48745775e+00,
          5.68735075e+00, 4.06624413e+00, 7.92261314e+00 ]
      - [ 8.04104424e+00, 5.59885263e+00, 7.52232409e+00, 7.26084471e+00,
          5.37515068e+00, 7.21100807e+00, 6.19664288e+00, 6.61951971e+00,
          6.83890915e+00, 0., 6.68202782e+00, 6.80254745e+00,
          6.52877617e+00, 7.65042925e+00, 7.18478155e+00, 6.19025993e+00,
          5.78945303e+00, 7.21932602e+00, 6.26984596e+00, 6.68847322e+00,
          6.15300894e+00, 6.70885229e+00, 5.05810976e+00, 8.21454334e+00,
          6.06680822e+00, 6.39479494e+00, 6.93084192e+00, 6.05602789e+00,
          6.38970375e+00, 7.04848528e+00, 6.79762459e+00, 5.92261839e+00,
          6.18814278e+00, 6.20260286e+00, 7.01769257e+00, 7.47087812e+00,
          5.98804569e+00, 5.29206848e+00, 5.38143921e+00, 6.03926229e+00,
          6.31344032e+00, 6.28188229e+00, 6.38127851e+00, 5.93296814e+00,
          6.62619686e+00, 5.07348347e+00, 6.54942846e+00, 5.26485109e+00,
          5.06101942e+00, 5.84624815e+00, 6.99126959e+00, 6.33577204e+00,
          6.05841589e+00, 4.91237164e+00, 8.43431377e+00 ]
      - [ 7.41659546e+00, 4.86018610e+00, 6.80342245e+00, 6.91460943e+00,
          4.70362139e+00, 6.54646063e+00, 5.42044783e+00, 5.59965420e+00,
          6.28547668e+00, 6.03926229e+00, 6.16123962e+00, 6.10306168e+00,
          5.68724966e+00, 6.60563517e+00, 6.37243128e+00, 5.78124905e+00,
          5.32592726e+00, 6.87149858e+00, 5.77324915e+00, 6.07009840e+00,
          5.66495752e+00, 5.97205353e+00, 4.09645176e+00, 8.02383614e+00,
          5.50268078e+00, 5.76697111e+00, 6.89052105e+00, 5.29497099e+00,
          5.80178213e+00, 6.97701073e+00, 5.98495674e+00, 5.26551533e+00,
          5.24842644e+00, 5.69969463e+00, 6.50814152e+00, 7.15609789e+00,
          5.25076771e+00, 4.49578047e+00, 4.56335354e+00, 0.,
          5.59018278e+00, 5.93726540e+00, 5.36898899e+00, 5.48193884e+00,
          5.80551720e+00, 4.11497307e+00, 5.73933935e+00, 4.15810776e+00,
          4.11037493e+00, 4.96053791e+00, 6.77784204e+00, 5.38999605e+00,
          5.31059217e+00, 3.96634316e+00, 8.04211903e+00 ]
      - [ 6.96401215e+00, 3.99123549e+00, 6.05936193e+00, 6.23072052e+00,
          4.58827066e+00, 6.07173681e+00, 4.92244482e+00, 5.17211103e+00,
          5.66606474e+00, 5.71916771e+00, 5.83017159e+00, 5.48282814e+00,
          5.45642185e+00, 6.64296770e+00, 6.13349771e+00, 5.21953058e+00,
          4.45017099e+00, 6.13599491e+00, 5.18277216e+00, 5.71488094e+00,
          4.83646297e+00, 5.32843781e+00, 3.19143939e+00, 7.23963261e+00,
          4.77844572e+00, 5.19858980e+00, 6.47870827e+00, 4.65968657e+00,
          5.17193747e+00, 6.03179646e+00, 5.79432917e+00, 4.43524837e+00,
          4.50850487e+00, 5.00861979e+00, 5.59223318e+00, 6.20843935e+00,
          4.56064224e+00, 3.41679907e+00, 3.59045720e+00, 4.84344578e+00,
          5.12964678e+00, 5.44080257e+00, 4.46074915e+00, 4.65727997e+00,
          5.02717495e+00, 3.25777698e+00, 4.99214220e+00, 3.40177274e+00,
          3.25195909e+00, 4.37193346e+00, 6.12638807e+00, 4.77234697e+00,
          4.69157839e+00, 2.66047049e+00, 7.52725029e+00 ]
      - [ 8.18943214e+00, 6.16695023e+00, 7.18481779e+00, 7.05466557e+00,
          6.10085392e+00, 7.54643250e+00, 6.49658251e+00, 6.78759909e+00,
          7.05645561e+00, 7.18478155e+00, 6.87636995e+00, 6.97181702e+00,
          6.96137047e+00, 7.44724941e+00, 0., 6.43403101e+00,
          6.13112831e+00, 7.36916924e+00, 6.38014984e+00, 7.07689190e+00,
          6.57931471e+00, 7.01675987e+00, 5.46137476e+00, 8.88391304e+00,
          6.23431492e+00, 7.15868521e+00, 6.91177416e+00, 6.09028435e+00,
          6.61231422e+00, 7.66506100e+00, 7.29239893e+00, 6.10726357e+00,
          6.31071901e+00, 6.44330120e+00, 7.44272995e+00, 8.11237812e+00,
          6.12168503e+00, 5.63600636e+00, 5.62809181e+00, 6.37243128e+00,
          7.10426998e+00, 7.21133947e+00, 6.20702982e+00, 6.19620657e+00,
          6.96437073e+00, 5.46886349e+00, 6.71281099e+00, 5.64882851e+00,
          5.55527449e+00, 6.36894941e+00, 7.55912399e+00, 6.41703653e+00,
          6.63976192e+00, 5.46378756e+00, 8.78735733e+00 ]
      - [ 7.08897829e+00, 4.07254505e+00, 6.11141682e+00, 6.00685549e+00,
          4.30603647e+00, 6.03946161e+00, 4.75905371e+00, 5.22319317e+00,
          5.39354324e+00, 5.62643814e+00, 5.58195210e+00, 5.26695395e+00,
          5.35625601e+00, 6.61706686e+00, 5.88288927e+00, 5.14151001e+00,
          4.30580902e+00, 5.99425888e+00, 4.87984085e+00, 5.72209978e+00,
          4.72827768e+00, 5.60373545e+00, 2.42604041e+00, 7.35997009e+00,
          4.70128870e+00, 5.29169798e+00, 6.20966005e+00, 4.76338005e+00,
          5.25892830e+00, 5.98044300e+00, 5.71341228e+00, 4.57317209e+00,
          4.79218578e+00, 4.90959692e+00, 5.87210655e+00, 6.24268913e+00,
          4.44925785e+00, 3.57736921e+00, 3.87695265e+00, 4.74813843e+00,
          5.11795807e+00, 5.17134285e+00, 4.43616438e+00, 4.69076538e+00,
          5.14621401e+00, 3.17325902e+00, 4.97602987e+00, 3.45822716e+00,
          3.16014910e+00, 4.34249115e+00, 6.05714798e+00, 4.65582085e+00,
          4.83392334e+00, 3.08299160e+00, 7.68141842e+00 ]
      - [ 7.71071243e+00, 6.01065397e+00, 7.26271200e+00, 7.63608122e+00,
          6.31891918e+00, 7.67551327e+00, 6.51275063e+00, 7.00375223e+00,
          6.96483231e+00, 7.04848528e+00, 6.92330980e+00, 7.26122046e+00,
          7.05292034e+00, 7.80814028e+00, 7.66506100e+00, 6.45032787e+00,
          5.86776447e+00, 7.12050247e+00, 6.75498581e+00, 7.13598156e+00,
          6.65221405e+00, 7.12253237e+00, 5.44899845e+00, 8.42414951e+00,
          6.40746307e+00, 7.26703358e+00, 7.16465616e+00, 6.33351326e+00,
          6.94534016e+00, 0., 7.45081234e+00, 6.24024916e+00,
          6.19988012e+00, 6.64902401e+00, 6.90393877e+00, 8.25396156e+00,
          6.22585440e+00, 5.73321104e+00, 5.75823498e+00, 6.97701073e+00,
          6.92564011e+00, 6.92554522e+00, 6.37584972e+00, 6.59981441e+00,
          6.73764372e+00, 5.45065641e+00, 6.97772646e+00, 5.58391428e+00,
          5.40728045e+00, 6.17235041e+00, 7.41751432e+00, 6.61694384e+00,
          6.77128267e+00, 5.40577030e+00, 8.54848194e+00 ]
      - [ 0., 6.62642193e+00, 7.72646713e+00, 8.33013058e+00,
          7.26809120e+00, 8.55885410e+00, 7.44934702e+00, 7.58751535e+00,
          7.54972982e+00, 8.04104424e+00, 7.99079847e+00, 7.91533756e+00,
          7.78223610e+00, 8.36338520e+00, 8.18943214e+00, 7.47352743e+00,
          7.00681973e+00, 8.23004055e+00, 7.23449564e+00, 8.46761608e+00,
          7.52545261e+00, 7.64392710e+00, 6.54194641e+00, 8.96630859e+00,
          6.96389103e+00, 7.36954784e+00, 8.38465405e+00, 7.15584135e+00,
          7.70548916e+00, 7.71071243e+00, 7.97211647e+00, 7.09829187e+00,
          7.17451429e+00, 7.42384529e+00, 8.03304195e+00, 8.49528790e+00,
          7.27879858e+00, 6.84141064e+00, 6.72678041e+00, 7.41659546e+00,
          7.51743746e+00, 7.70024252e+00, 7.07461309e+00, 7.45200539e+00,
          7.75686121e+00, 6.39915133e+00, 7.41314459e+00, 6.44093704e+00,
          6.43082380e+00, 7.07996178e+00, 8.33460712e+00, 7.24850655e+00,
          7.38483286e+00, 6.44213676e+00, 9.55317116e+00 ]
      - [ 6.73368168e+00, 2.74495935e+00, 6.21529818e+00, 6.08418798e+00,
          4.29168320e+00, 6.12949085e+00, 4.57727385e+00, 5.12623549e+00,
          5.58887243e+00, 5.74405575e+00, 5.40807390e+00, 5.35958767e+00,
          5.13756847e+00, 6.61630726e+00, 6.05579519e+00, 4.89096212e+00,
          4.28677845e+00, 5.93469667e+00, 4.88603592e+00, 5.57873106e+00,
          4.76406813e+00, 5.30525780e+00, 3.00985670e+00, 7.22091722e+00,
          4.70279169e+00, 5.13621855e+00, 6.17382431e+00, 4.58739090e+00,
          5.06311274e+00, 6.05916834e+00, 5.58788490e+00, 4.30198145e+00,
          4.43947649e+00, 4.90917110e+00, 5.70053530e+00, 6.14356089e+00,
          4.72055149e+00, 3.58055568e+00, 3.70652580e+00, 4.68637800e+00,
          5.23109722e+00, 5.49482346e+00, 4.41799641e+00, 4.69294548e+00,
          5.11898613e+00, 3.04290676e+00, 5.10396481e+00, 3.29545546e+00,
          3.08256197e+00, 4.20605993e+00, 6.16118622e+00, 4.99033356e+00,
          4.71695566e+00, 2.96130371e+00, 7.85513067e+00 ]
      - [ 8.46761608e+00, 5.75012302e+00, 7.07092142e+00, 7.23022938e+00,
          5.23238516e+00, 7.19899130e+00, 5.63226604e+00, 6.63071775e+00,
          6.85950089e+00, 6.68847322e+00, 6.93926573e+00, 6.63306189e+00,
          6.45867252e+00, 7.85721588e+00, 7.07689190e+00, 6.57035875e+00,
          6.42521715e+00, 6.21301842e+00, 6.45070553e+00, 0.,
          5.92649460e+00, 6.87821198e+00, 4.89621878e+00, 8.35538864e+00,
          6.11931849e+00, 6.59203196e+00, 6.92441559e+00, 6.39924049e+00,
          6.57779169e+00, 7.13598156e+00, 6.98706961e+00, 5.98502350e+00,
          6.11808920e+00, 6.31104565e+00, 6.98458815e+00, 7.61393738e+00,
          6.09105539e+00, 5.38257313e+00, 5.17137623e+00, 6.07009840e+00,
          6.58016443e+00, 6.76777983e+00, 5.78399897e+00, 6.01083612e+00,
          6.92661381e+00, 5.19674921e+00, 6.80117798e+00, 5.18745089e+00,
          5.16965485e+00, 5.80526733e+00, 6.79260111e+00, 6.15527201e+00,
          6.10445595e+00, 4.99439096e+00, 8.75055218e+00 ]
      - [ 7.26361227e+00, 4.42905617e+00, 6.52816486e+00, 6.38141537e+00,
          4.94228172e+00, 6.35135937e+00, 5.06250858e+00, 5.88607454e+00,
          6.16010141e+00, 5.78006792e+00, 5.92465401e+00, 5.55516386e+00,
          5.65718651e+00, 7.21859694e+00, 6.48213196e+00, 5.45746326e+00,
          4.87811136e+00, 6.42134857e+00, 5.19166279e+00, 6.00608349e+00,
          4.94236898e+00, 5.72405958e+00, 3.26923871e+00, 7.58193684e+00,
          5.23529291e+00, 5.76110697e+00, 6.15633488e+00, 5.04216719e+00,
          5.25981855e+00, 6.51638556e+00, 6.11602640e+00, 4.77363014e+00,
          5.32543182e+00, 5.30833292e+00, 6.21115255e+00, 6.16905499e+00,
          4.95063829e+00, 4.02807331e+00, 4.22905159e+00, 5.30497456e+00,
          5.64004374e+00, 5.80678034e+00, 4.79717779e+00, 5.15078497e+00,
          5.43622637e+00, 3.81534100e+00, 5.73193502e+00, 3.94638777e+00,
          3.88375783e+00, 4.83519030e+00, 6.42185497e+00, 5.00419283e+00,
          5.20420313e+00, 3.77745438e+00, 7.59970856e+00 ]
      - [ 6.96389103e+00, 4.74676991e+00, 6.26803017e+00, 6.44230270e+00,
          5.12373495e+00, 6.31821394e+00, 5.28236914e+00, 5.53856182e+00,
          6.19680834e+00, 6.06680822e+00, 6.09742165e+00, 6.14567518e+00,
          5.61840105e+00, 6.96263075e+00, 6.23431492e+00, 5.32871914e+00,
          4.58069086e+00, 6.69560528e+00, 5.41717243e+00, 6.11931849e+00,
          5.37264919e+00, 5.89744425e+00, 3.95077610e+00, 7.73573685e+00,
          0., 5.91904783e+00, 6.54452515e+00, 5.04583263e+00,
          5.68202925e+00, 6.40746307e+00, 6.05017614e+00, 4.84452200e+00,
          4.99525595e+00, 5.42508173e+00, 6.27893114e+00, 6.96691990e+00,
          5.18528557e+00, 4.24830008e+00, 4.57157183e+00, 5.50268078e+00,
          5.67831373e+00, 5.59762621e+00, 4.88361406e+00, 5.21338797e+00,
          5.65419722e+00, 4.02091694e+00, 5.57897520e+00, 4.02151012e+00,
          4.10483170e+00, 5.14014149e+00, 6.45043039e+00, 5.34435463e+00,
          5.33945560e+00, 3.99898720e+00, 8.04966736e+00 ]
   decision_functions:
      -
         sv_count: 60
         rho: -1.0833577903441909e-01
         alpha: [ 1.1472974510485607e+00, 8.9166424881989215e-01,
             8.9166424707795811e-01, 8.9166425985016873e-01,
             8.9166419859541368e-01, 8.9166423243542803e-01,
             8.9166423445578935e-01, 8.9166422231952880e-01,
             8.9166430952334452e-01, 2.8607152135339189e+00,
             8.9166422766091513e-01, 8.9166631358568071e-01,
             8.9166422993383310e-01, 8.9166423635788472e-01,
             9.5397549542222015e-01, 1.5832986967702969e+00,
             8.9166421514023497e-01, 8.9166420096247945e-01,
             9.1240975115885736e-01, 8.9166426771939922e-01,
             8.9166422687103930e-01, 8.9166437700225643e-01,
             8.5440744355908937e-01, 8.9166431259790258e-01,
             8.9166424485798157e-01, 8.9166424937656785e-01,
             8.9166421514022409e-01, 8.9166425983637432e-01,
             1.5567707479075430e+00, 1.4547244376320438e+00,
             -9.4800737111104483e-01, -1.3804163138427141e+00,
             -8.3510488964621132e-01, -1.6550613889675632e+00,
             -1.0924291092640268e+00, -1.1083359353892757e+00,
             -1.1083358112720076e+00, -1.1083358157830228e+00,
             -1.1083357916291090e+00, -1.0315729044379711e+00,
             -9.8463173100375256e-01, -1.0633717353356649e+00,
             -7.9986028744781090e-01, -5.8555129761337266e-01,
             -1.1083217393286469e+00, -1.1083357596411629e+00,
             -7.9426573647813425e-01, -1.1076430822815582e+00,
             -1.1083357767577005e+00, -1.1083400021966423e+00,
             -1.1083357722388145e+00, -1.1083332617306150e+00,
             -9.4520655329485492e-01, -1.1083350752446941e+00,
             -7.9927361378505557e-01, -1.0252777157248809e+00,
             -7.2041765282481129e-01, -1.1083353839758554e+00,
             -1.1522948988227217e+00, -7.1981236008312977e-01 ]
         index: [ 33, 1, 2, 79, 4, 5, 41, 36, 32, 9, 49, 89, 50, 54, 58,
             59, 63, 64, 78, 68, 20, 69, 44, 55, 82, 25, 84, 85, 86, 88,
             3, 6, 8, 34, 12, 35, 22, 15, 16, 17, 18, 19, 42, 39, 26, 40,
             28, 29, 72, 73, 75, 77, 23, 80, 81, 30, 66, 61, 62, 46 ]
      -
         sv_count: 60
         rho: -1.5061217867231672e-01
         alpha: [ 8.6866808417482355e-01, 8.4938777205264970e-01,
             8.4938782643341082e-01, 8.4938785150833296e-01,
             8.4938782665884716e-01, 8.4938779631478711e-01,
             8.4938784347074825e-01, 8.4938784494060660e-01,
             8.4938781278001430e-01, 1.7230633167936111e+00,
             8.4938776324089382e-01, 8.4938838552599227e-01,
             8.4938779633969064e-01, 8.4938780298908123e-01,
             7.4625438956598600e-01, 1.5226883037172185e+00,
             8.4938782888259512e-01, 8.4938781303961863e-01,
             8.6873887558767970e-01, 8.4938776124809501e-01,
             8.4938787039320163e-01, 8.4938952071029172e-01,
             6.7989566153230385e-01, 8.4938796204449329e-01,
             8.4938777732614301e-01, 8.4938777042120051e-01,
             8.4938782988475858e-01, 8.4938785757889068e-01,
             1.0227637846882780e+00, 1.8336680976778634e+00,
             -1.1506121484866134e+00, -1.1506121015746422e+00,
             -1.2122109647403279e+00, -1.1506092012667462e+00,
             -6.7839928423889595e-01, -1.1506861226597351e+00,
             -5.4787920993890304e-01, -1.1506122037298536e+00,
             -1.1506124003249603e+00, -4.4003033458013213e-01,
             -1.1506122374323882e+00, -9.3574081274169718e-01,
             -6.6439214297611005e-01, -1.0471847110285364e+00,
             -5.3410097986850547e-01, -1.1506076934913883e+00,
             -9.6280214676124620e-01, -1.1505900024691231e+00,
             -1.1506121869578674e+00, -6.0444007561227109e-01,
             -1.1506115024396377e+00, -7.8238892129046722e-01,
             -7.5319138173750277e-01, -7.8848418890344862e-01,
             -8.9771004986920033e-01, -1.1506122186200543e+00,
             -1.1506122060510067e+00, -1.1506122036150195e+00,
             -3.8982945497219729e-01, -6.0487573914362891e-01 ]
         index: [ 33, 1, 2, 79, 4, 5, 41, 36, 32, 9, 49, 89, 50, 54, 58,
             59, 63, 64, 78, 68, 20, 69, 44, 55, 82, 25, 84, 85, 86, 88,
             60, 27, 31, 37, 38, 65, 43, 0, 7, 47, 70, 71, 48, 10, 74,
             13, 76, 51, 45, 52, 53, 14, 21, 83, 56, 57, 11, 87, 24, 67 ]
      -
         sv_count: 60
         rho: -4.5840805836073480e-02
         alpha: [ 1.2843408843952715e+00, 9.9133811506103864e-01,
             1.4319356268319656e+00, 1.7180389266906111e+00,
             9.2184287219987215e-01, 9.5416303805312530e-01,
             9.5415923907453071e-01, 9.5415914928103518e-01,
             9.5415923138184700e-01, 1.4343075150013496e+00,
             1.0278330626845549e+00, 9.1727213738403413e-01,
             1.2489664804030831e+00, 1.9033284085597639e+00,
             9.5417300049999842e-01, 9.5415921546435900e-01,
             1.1373721112038300e+00, 9.5357017369405639e-01,
             9.5415914273555313e-01, 9.5416077301526536e-01,
             9.5415920262734022e-01, 9.5415875654830551e-01,
             1.8287415034817756e+00, 9.5415826337802578e-01,
             8.0271012140271503e-01, 1.8766375328343516e+00,
             1.8329768457791025e+00, 9.5416019162098265e-01,
             9.3946346637324862e-01, 1.3094386372041831e+00,
             -1.0458407731915207e+00, -1.0458407092533042e+00,
             -1.1287668578745758e+00, -1.0458384077028637e+00,
             -6.9068500271842559e-01, -1.0549388147454648e+00,
             -1.8833543158025712e+00, -1.0458408163902715e+00,
             -1.0458400038456026e+00, -1.4185879916733686e+00,
             -1.0458407884898977e+00, -9.3069868732830152e-01,
             -1.2714880788957803e+00, -1.6608494055366281e+00,
             -9.5422879013666650e-01, -1.0458325174228831e+00,
             -1.9885567907389246e+00, -1.0458206075320264e+00,
             -1.0458407825775828e+00, -1.7227636258515413e+00,
             -1.0463207269810155e+00, -1.3874982393664745e+00,
             -1.1962450480008395e+00, -1.5394218144150542e+00,
             -1.0397152969685739e+00, -1.0458408112940556e+00,
             -1.0458408549353400e+00, -1.0458407855719629e+00,
             -1.0074140260348374e+00, -5.3845225358881998e-01 ]
         index: [ 3, 6, 8, 34, 12, 35, 22, 15, 16, 17, 18, 19, 42, 39,
             26, 40, 28, 29, 72, 73, 75, 77, 23, 80, 81, 30, 66, 61, 62,
             46, 60, 27, 31, 37, 38, 65, 43, 0, 7, 47, 70, 71, 48, 10,
             74, 13, 76, 51, 45, 52, 53, 14, 21, 83, 56, 57, 11, 87, 24,
             67 ]
