%YAML:1.0
---
opencv_ml_svm:
   format: 3
   svmType: C_SVC
   kernel:
      type: RBF
      gamma: 5.0624999999999998e-01
   C: 1.2500000000000000e+01
   term_criteria: { epsilon:1.1920928955078125e-07, iterations:1000 }
   var_count: 45
   class_count: 3
   class_labels: !!opencv-matrix
      rows: 3
      cols: 1
      dt: i
      data: [ 0, 1, 2 ]
   sv_total: 90
   support_vectors:
      - [ 7.19068193e+00, 5.56483030e+00, 8.29395199e+00, 7.17280245e+00,
          6.10885143e+00, 5.73738289e+00, 5.06375790e+00, 6.09433222e+00,
          5.19393158e+00, 5.98509312e+00, 5.86862993e+00, 4.13313818e+00,
          5.59736681e+00, 5.76697111e+00, 6.02275896e+00, 4.67067003e+00,
          6.01330662e+00, 7.74417114e+00, 4.97092199e+00, 5.54033566e+00,
          7.08601665e+00, 5.77020407e+00, 7.12263060e+00, 7.36954784e+00,
          4.73007298e+00, 5.55569315e+00, 5.30719900e+00, 7.15868521e+00,
          6.90477657e+00, 7.07215834e+00, 5.70190430e+00, 6.92705965e+00,
          7.10073185e+00, 4.64127350e+00, 6.98186302e+00, 6.47277212e+00,
          6.61128902e+00, 5.76110697e+00, 6.59203196e+00, 6.67642689e+00,
          6.55110693e+00, 4.55425882e+00, 6.32105637e+00, 5.72176504e+00,
          6.39479494e+00 ]
      - [ 7.50190639e+00, 6.29611301e+00, 9.06352615e+00, 7.66233063e+00,
          7.00925255e+00, 6.56111908e+00, 5.79622316e+00, 6.60700178e+00,
          6.03071404e+00, 6.71929312e+00, 6.56346846e+00, 5.50293493e+00,
          5.67726660e+00, 6.87149858e+00, 6.94550323e+00, 5.60449076e+00,
          6.34110546e+00, 8.10927010e+00, 5.53897238e+00, 6.53293753e+00,
          8.18922710e+00, 6.32782459e+00, 7.57830286e+00, 8.23004055e+00,
          5.34887648e+00, 6.43950033e+00, 6.34720182e+00, 7.36916924e+00,
          6.82485056e+00, 7.60403252e+00, 6.25133705e+00, 0.,
          7.86317301e+00, 5.54464626e+00, 7.20815897e+00, 7.09328032e+00,
          6.98848772e+00, 6.42134857e+00, 6.21301842e+00, 7.09509468e+00,
          6.86793184e+00, 5.39627790e+00, 6.65787888e+00, 6.21180582e+00,
          7.21932602e+00 ]
      - [ 6.34988928e+00, 5.27198219e+00, 8.38159943e+00, 6.97751999e+00,
          5.68057108e+00, 5.69843769e+00, 4.93076468e+00, 5.97176647e+00,
          4.87476921e+00, 5.97911501e+00, 5.34413671e+00, 4.73065805e+00,
          5.20934725e+00, 5.59965420e+00, 5.81391954e+00, 4.01490641e+00,
          5.64871979e+00, 8.10119915e+00, 4.89659357e+00, 5.39823627e+00,
          7.36524057e+00, 5.69502115e+00, 7.26197910e+00, 7.58751535e+00,
          4.54814672e+00, 5.64369202e+00, 5.18495226e+00, 6.78759909e+00,
          6.74228239e+00, 7.01384163e+00, 5.54756927e+00, 6.95439053e+00,
          6.89023256e+00, 4.54416704e+00, 6.93477249e+00, 6.45690966e+00,
          6.21213150e+00, 5.88607454e+00, 6.63071775e+00, 6.45126581e+00,
          6.31912565e+00, 4.52379084e+00, 5.93006897e+00, 5.50934172e+00,
          6.61951971e+00 ]
      - [ 6.23528194e+00, 4.74485588e+00, 7.77861214e+00, 6.40533781e+00,
          5.65890169e+00, 5.37809801e+00, 4.36989117e+00, 5.84690189e+00,
          4.67666149e+00, 5.76663065e+00, 5.22424126e+00, 3.96575618e+00,
          4.64445257e+00, 5.47506618e+00, 5.38188696e+00, 4.00669146e+00,
          5.00443125e+00, 7.42078447e+00, 4.23027086e+00, 5.25525713e+00,
          7.26460314e+00, 0., 6.56963921e+00, 7.48490143e+00,
          3.85181451e+00, 5.14743805e+00, 4.67614222e+00, 6.62814951e+00,
          5.84837198e+00, 6.19119072e+00, 5.23833656e+00, 6.32782459e+00,
          6.12105894e+00, 3.91495514e+00, 6.34058571e+00, 5.56095886e+00,
          5.92574406e+00, 4.89543104e+00, 6.32502890e+00, 5.91650867e+00,
          6.44657516e+00, 3.87269282e+00, 5.72761011e+00, 5.07031059e+00,
          6.15371799e+00 ]
      - [ 7.41475773e+00, 5.88970327e+00, 8.29278851e+00, 7.47937489e+00,
          6.84869289e+00, 6.30792141e+00, 5.73064899e+00, 6.80512238e+00,
          5.81737947e+00, 6.79701996e+00, 6.62253475e+00, 5.37563705e+00,
          6.05941820e+00, 6.77784204e+00, 6.63736725e+00, 5.42827654e+00,
          6.63295984e+00, 8.14577198e+00, 5.56886816e+00, 6.43362141e+00,
          7.88248396e+00, 6.34058571e+00, 7.48217678e+00, 8.33460712e+00,
          5.37685204e+00, 6.44280005e+00, 6.24170637e+00, 7.55912399e+00,
          7.21302223e+00, 7.54380560e+00, 6.53359509e+00, 7.20815897e+00,
          7.35896301e+00, 5.51451731e+00, 0., 6.81715298e+00,
          7.32873964e+00, 6.42185497e+00, 6.79260111e+00, 7.11689758e+00,
          7.51962423e+00, 5.43775320e+00, 6.72082043e+00, 6.25956440e+00,
          6.99126959e+00 ]
      - [ 7.08041239e+00, 6.15484905e+00, 8.28191948e+00, 6.90980673e+00,
          6.51032400e+00, 5.97811460e+00, 5.36302137e+00, 6.38259888e+00,
          3.94870996e+00, 6.45074368e+00, 6.33934164e+00, 5.08007479e+00,
          5.83761406e+00, 5.98495674e+00, 6.08926868e+00, 4.94246674e+00,
          6.13894606e+00, 8.46853256e+00, 5.49946308e+00, 6.27550983e+00,
          7.62933588e+00, 6.28568649e+00, 7.23381376e+00, 7.97211647e+00,
          5.07222748e+00, 5.87961006e+00, 5.84168148e+00, 7.29239893e+00,
          6.63525105e+00, 7.42755461e+00, 5.98383427e+00, 7.46464205e+00,
          6.84281445e+00, 5.10717487e+00, 7.21286488e+00, 6.72775316e+00,
          6.57332134e+00, 6.11602640e+00, 6.98706961e+00, 6.72387648e+00,
          7.15512371e+00, 5.03223181e+00, 6.05570269e+00, 5.95678663e+00,
          6.79762459e+00 ]
      - [ 6.87176466e+00, 5.21428156e+00, 8.17516232e+00, 6.71693468e+00,
          6.10197687e+00, 5.60686398e+00, 4.65181589e+00, 5.72657204e+00,
          4.94596195e+00, 5.87898302e+00, 5.68754911e+00, 4.33404970e+00,
          4.96403265e+00, 5.33474350e+00, 5.53427362e+00, 4.22242308e+00,
          5.58912373e+00, 7.68127108e+00, 3.67909646e+00, 5.43489552e+00,
          6.91435099e+00, 5.34390545e+00, 6.94132280e+00, 7.77281904e+00,
          4.22734070e+00, 5.42579985e+00, 5.08146667e+00, 6.84223080e+00,
          6.51488161e+00, 6.47993183e+00, 5.37241888e+00, 6.39423466e+00,
          6.51053667e+00, 4.29005432e+00, 6.38376999e+00, 5.63085651e+00,
          6.30008364e+00, 5.20593929e+00, 6.27457523e+00, 6.30677271e+00,
          6.17111731e+00, 4.08721542e+00, 5.93648100e+00, 5.34987736e+00,
          6.08853674e+00 ]
      - [ 6.43092918e+00, 4.79937887e+00, 7.98061371e+00, 6.45916557e+00,
          6.01883221e+00, 5.47154999e+00, 4.40116119e+00, 5.61117697e+00,
          4.73553276e+00, 6.15268898e+00, 5.40609074e+00, 3.96148396e+00,
          4.81408310e+00, 5.66495752e+00, 5.48776722e+00, 4.13349867e+00,
          5.33285475e+00, 7.50684643e+00, 3.66827536e+00, 5.58013773e+00,
          6.88998699e+00, 5.27886820e+00, 6.54158211e+00, 7.52545261e+00,
          4.01352787e+00, 5.12386990e+00, 4.97591114e+00, 6.57931471e+00,
          6.30262423e+00, 6.49962139e+00, 5.13134480e+00, 6.49204350e+00,
          5.94708061e+00, 4.15811253e+00, 6.39149332e+00, 5.74202967e+00,
          6.22989130e+00, 4.94236898e+00, 5.92649460e+00, 5.91918087e+00,
          6.48997259e+00, 3.92234826e+00, 5.72481203e+00, 4.97350883e+00,
          6.15300894e+00 ]
      - [ 6.43619919e+00, 4.76587677e+00, 8.03458691e+00, 6.80935192e+00,
          5.91881847e+00, 5.17585516e+00, 4.22196245e+00, 5.62810946e+00,
          4.38912058e+00, 5.58674717e+00, 5.61451101e+00, 4.07022953e+00,
          5.02706289e+00, 5.48059416e+00, 5.51156187e+00, 3.39318633e+00,
          5.40460539e+00, 7.59309435e+00, 4.18442917e+00, 5.26037931e+00,
          7.01876116e+00, 5.28912306e+00, 6.53864765e+00, 7.05492687e+00,
          3.92818761e+00, 5.43084621e+00, 5.04697084e+00, 6.56682158e+00,
          6.30502987e+00, 6.35097694e+00, 5.10584927e+00, 6.48467684e+00,
          6.27972460e+00, 3.96489859e+00, 6.16599321e+00, 5.96730900e+00,
          6.07049894e+00, 5.17962599e+00, 6.10357523e+00, 5.80342054e+00,
          6.28914356e+00, 3.86517262e+00, 5.50826740e+00, 4.96793175e+00,
          6.09948015e+00 ]
      - [ 5.91005278e+00, 4.24179316e+00, 7.56765032e+00, 6.27539587e+00,
          5.27440691e+00, 4.64820862e+00, 2.73775411e+00, 5.06149673e+00,
          3.97001719e+00, 5.02114868e+00, 4.96649027e+00, 3.14458442e+00,
          3.96740603e+00, 4.80687714e+00, 4.74455690e+00, 3.22177935e+00,
          4.25318241e+00, 6.97572231e+00, 3.60864091e+00, 4.64048290e+00,
          6.42804623e+00, 4.71963549e+00, 6.02845669e+00, 6.88757324e+00,
          3.08401608e+00, 4.74852753e+00, 4.22747755e+00, 5.73149014e+00,
          5.64998913e+00, 6.14109564e+00, 4.54420376e+00, 5.92656422e+00,
          5.84358168e+00, 3.14648032e+00, 6.17013836e+00, 5.36833811e+00,
          5.57035685e+00, 4.41763496e+00, 5.61139536e+00, 5.41365957e+00,
          5.87818909e+00, 2.96692944e+00, 5.10391140e+00, 4.23538113e+00,
          5.65990973e+00 ]
      - [ 6.17999172e+00, 4.86239243e+00, 7.34326220e+00, 6.79856253e+00,
          6.04037476e+00, 5.21009159e+00, 4.37367201e+00, 5.83304691e+00,
          4.54286671e+00, 5.55492449e+00, 5.56906366e+00, 4.12937737e+00,
          4.74865150e+00, 5.47897911e+00, 5.43996334e+00, 4.25327396e+00,
          5.35895395e+00, 7.49395561e+00, 4.27661419e+00, 5.19896412e+00,
          7.09274149e+00, 5.29478836e+00, 6.31013870e+00, 7.54756021e+00,
          3.54315686e+00, 5.07441044e+00, 5.17423010e+00, 6.51082611e+00,
          6.14677238e+00, 6.64495993e+00, 5.38046503e+00, 6.38963175e+00,
          6.45360374e+00, 3.96460247e+00, 6.64200211e+00, 5.95164919e+00,
          6.19559288e+00, 5.02860260e+00, 6.16777468e+00, 5.89838886e+00,
          6.59692335e+00, 3.86534476e+00, 5.83452845e+00, 4.89727736e+00,
          6.21602726e+00 ]
      - [ 6.87750196e+00, 5.12694883e+00, 8.14982796e+00, 6.98595047e+00,
          6.17980337e+00, 5.70597792e+00, 4.79990196e+00, 6.15233994e+00,
          5.11962032e+00, 6.07438087e+00, 6.02609301e+00, 4.39127064e+00,
          5.04600763e+00, 5.73933935e+00, 5.73874569e+00, 4.44643831e+00,
          5.64586258e+00, 7.66461372e+00, 4.89775991e+00, 5.77615929e+00,
          7.09495687e+00, 5.59813833e+00, 6.89673948e+00, 7.41314459e+00,
          4.37609577e+00, 6.00598240e+00, 5.30237484e+00, 6.71281099e+00,
          6.61304808e+00, 6.78297377e+00, 5.57794428e+00, 7.05239344e+00,
          6.46582794e+00, 3.84688449e+00, 7.03303623e+00, 6.23579884e+00,
          6.33067560e+00, 5.73193502e+00, 6.80117798e+00, 6.25723410e+00,
          6.68187094e+00, 4.33075094e+00, 6.01398945e+00, 5.26365185e+00,
          6.54942846e+00 ]
      - [ 6.82348633e+00, 5.39711618e+00, 8.26430798e+00, 7.28285313e+00,
          6.34127855e+00, 5.78926611e+00, 4.96737719e+00, 6.35288572e+00,
          5.22701311e+00, 6.12454796e+00, 6.09273958e+00, 4.83377934e+00,
          5.24325132e+00, 6.05308771e+00, 5.94473982e+00, 4.90674019e+00,
          6.09496069e+00, 8.05770683e+00, 3.93665767e+00, 5.79568291e+00,
          7.82069349e+00, 5.93876171e+00, 7.03938246e+00, 7.56493950e+00,
          4.58160305e+00, 5.93046951e+00, 5.56583405e+00, 7.18555069e+00,
          6.79050398e+00, 7.01794577e+00, 6.04665089e+00, 6.90989876e+00,
          7.00950909e+00, 4.71426201e+00, 7.04660940e+00, 6.83178949e+00,
          6.58216381e+00, 5.64912748e+00, 6.67764521e+00, 6.49060917e+00,
          6.72877550e+00, 4.71205616e+00, 6.38995123e+00, 5.67593050e+00,
          6.73192883e+00 ]
      - [ 6.46777201e+00, 4.66809464e+00, 7.75052547e+00, 6.45405483e+00,
          5.63301086e+00, 5.16478300e+00, 3.94592810e+00, 5.50606298e+00,
          4.31031466e+00, 5.39169598e+00, 5.24430990e+00, 3.82165742e+00,
          4.51179123e+00, 5.36898899e+00, 5.29333878e+00, 3.27954936e+00,
          5.04639101e+00, 7.51652527e+00, 4.14476824e+00, 5.26296473e+00,
          7.04634190e+00, 5.05304623e+00, 6.23645782e+00, 7.07461309e+00,
          3.63390088e+00, 5.00053215e+00, 4.73324919e+00, 6.20702982e+00,
          5.93240929e+00, 6.34357405e+00, 4.98775625e+00, 6.45037746e+00,
          6.17944622e+00, 3.80941176e+00, 6.46049023e+00, 5.57080460e+00,
          5.99318933e+00, 4.79717779e+00, 5.78399897e+00, 5.82816315e+00,
          6.13454580e+00, 3.55820060e+00, 5.08238697e+00, 4.64030170e+00,
          6.38127851e+00 ]
      - [ 6.48462391e+00, 4.53708267e+00, 7.71073151e+00, 6.52255630e+00,
          5.81733418e+00, 5.13105297e+00, 4.24371243e+00, 5.65974903e+00,
          4.41365957e+00, 5.42550755e+00, 5.67293215e+00, 3.81380105e+00,
          4.55933523e+00, 5.32518244e+00, 5.10980654e+00, 3.88070989e+00,
          5.26203299e+00, 7.26303101e+00, 4.00893784e+00, 4.93622160e+00,
          6.89318323e+00, 4.86082745e+00, 6.48705864e+00, 7.39611864e+00,
          3.64895678e+00, 5.08349133e+00, 4.50298977e+00, 6.29285812e+00,
          5.99066877e+00, 6.48348713e+00, 4.95250797e+00, 6.42135906e+00,
          6.22611427e+00, 3.16392589e+00, 6.23908663e+00, 5.76275635e+00,
          6.19438314e+00, 4.93678236e+00, 6.26712322e+00, 5.70174980e+00,
          6.28944874e+00, 3.59124184e+00, 5.62704229e+00, 4.62345219e+00,
          6.12308931e+00 ]
      - [ 7.07556868e+00, 5.44581556e+00, 8.07264233e+00, 6.94711733e+00,
          6.20713902e+00, 6.04403305e+00, 4.85887718e+00, 6.25879717e+00,
          5.22883940e+00, 6.14370966e+00, 5.89342403e+00, 3.95108438e+00,
          5.20725346e+00, 5.80178213e+00, 5.54138947e+00, 4.71024323e+00,
          5.87448025e+00, 8.05411816e+00, 4.79057789e+00, 5.63429880e+00,
          7.27837276e+00, 5.63245726e+00, 6.83334208e+00, 7.70548916e+00,
          4.49239731e+00, 5.59844780e+00, 5.35069275e+00, 6.61231422e+00,
          6.38639164e+00, 6.81004381e+00, 5.85674047e+00, 6.97385025e+00,
          6.81851768e+00, 4.54836321e+00, 6.67570162e+00, 6.40551758e+00,
          6.61269045e+00, 5.25981855e+00, 6.57779169e+00, 6.23756933e+00,
          6.87319517e+00, 4.43935633e+00, 6.06631994e+00, 5.33403921e+00,
          6.38970375e+00 ]
      - [ 6.96702623e+00, 5.22533083e+00, 8.31228065e+00, 7.15710640e+00,
          6.59865332e+00, 5.71574545e+00, 4.92813730e+00, 6.16225052e+00,
          4.97948503e+00, 6.01590729e+00, 5.66760206e+00, 4.68594265e+00,
          5.33157492e+00, 5.59018278e+00, 5.76639843e+00, 3.97711849e+00,
          5.90805531e+00, 7.80633688e+00, 4.99899626e+00, 5.73298407e+00,
          7.12955666e+00, 5.59609699e+00, 7.03067160e+00, 7.51743746e+00,
          4.52921724e+00, 5.69807863e+00, 5.32315683e+00, 7.10426998e+00,
          6.44354057e+00, 6.52555895e+00, 5.33743620e+00, 7.09595585e+00,
          6.53191566e+00, 4.51257372e+00, 6.82887363e+00, 6.13233423e+00,
          6.47507381e+00, 5.64004374e+00, 6.58016443e+00, 6.46117878e+00,
          6.85336685e+00, 4.44457865e+00, 5.73853874e+00, 5.38817024e+00,
          6.31344032e+00 ]
      - [ 6.04557896e+00, 4.21055984e+00, 7.90746975e+00, 6.46763277e+00,
          5.38779497e+00, 4.66183043e+00, 3.53174019e+00, 5.18271637e+00,
          4.03033829e+00, 5.09479952e+00, 4.97469378e+00, 3.08457780e+00,
          4.23324490e+00, 4.64691019e+00, 4.90903807e+00, 2.95113373e+00,
          4.74571657e+00, 7.13945866e+00, 3.64978504e+00, 4.65791464e+00,
          6.49511147e+00, 4.59942961e+00, 6.21082973e+00, 6.94554090e+00,
          3.15739894e+00, 5.00487852e+00, 4.38919306e+00, 5.73020697e+00,
          5.74662113e+00, 5.93971825e+00, 4.58119106e+00, 6.18219328e+00,
          5.86085939e+00, 3.09446239e+00, 5.94208622e+00, 5.67111397e+00,
          5.44659424e+00, 4.72567081e+00, 5.77953959e+00, 5.40038586e+00,
          5.93640471e+00, 3.08099937e+00, 5.24738884e+00, 4.58168936e+00,
          5.70560741e+00 ]
      - [ 6.71642733e+00, 5.15119171e+00, 7.73519707e+00, 6.65763712e+00,
          5.87855434e+00, 5.38167143e+00, 4.31411791e+00, 5.82792044e+00,
          4.72450542e+00, 5.70151567e+00, 5.59412718e+00, 4.13003397e+00,
          4.89281893e+00, 5.11784887e+00, 0., 4.21442032e+00,
          5.49475908e+00, 7.76424789e+00, 4.45182037e+00, 5.20011187e+00,
          7.20079184e+00, 5.38188696e+00, 6.77696705e+00, 7.50536633e+00,
          4.06551361e+00, 5.49908543e+00, 4.72767544e+00, 6.50131226e+00,
          6.30310822e+00, 6.79112053e+00, 5.28696775e+00, 6.94550323e+00,
          6.38136148e+00, 4.10246849e+00, 6.63736725e+00, 5.87856770e+00,
          6.30855513e+00, 5.11160183e+00, 6.47847795e+00, 5.93699646e+00,
          6.57998610e+00, 3.93620658e+00, 5.53995132e+00, 4.96575928e+00,
          6.06557560e+00 ]
      - [ 6.89130020e+00, 5.78943491e+00, 7.81992769e+00, 7.23762846e+00,
          6.35749674e+00, 6.15910435e+00, 5.22955465e+00, 6.35046291e+00,
          5.46188545e+00, 6.00533152e+00, 5.90325403e+00, 4.99449873e+00,
          3.99731755e+00, 5.97765398e+00, 6.04684448e+00, 5.09961271e+00,
          5.88764524e+00, 8.15178680e+00, 5.27194643e+00, 6.04568052e+00,
          7.73147726e+00, 5.87077522e+00, 7.19668484e+00, 8.15710068e+00,
          4.97846603e+00, 5.94047928e+00, 5.81282902e+00, 6.97928953e+00,
          6.87515926e+00, 7.12946606e+00, 5.74711323e+00, 7.21549511e+00,
          6.92830467e+00, 4.90845490e+00, 7.43622446e+00, 6.59058809e+00,
          6.48078823e+00, 5.90890932e+00, 6.91020298e+00, 6.75598097e+00,
          6.75615168e+00, 4.96829414e+00, 6.38802195e+00, 5.86343431e+00,
          6.74428225e+00 ]
      - [ 6.88921642e+00, 5.83727503e+00, 8.73856354e+00, 7.36984062e+00,
          6.32502460e+00, 6.05365658e+00, 5.21340370e+00, 6.59087420e+00,
          5.35989904e+00, 6.34478140e+00, 6.21758270e+00, 4.95662308e+00,
          5.57272005e+00, 6.28547668e+00, 6.30855513e+00, 5.00390673e+00,
          5.43983746e+00, 8.09272671e+00, 5.24819946e+00, 6.33449030e+00,
          7.94281912e+00, 5.92574406e+00, 7.55478239e+00, 7.54972982e+00,
          4.89389610e+00, 5.85844660e+00, 5.81169319e+00, 7.05645561e+00,
          6.98159838e+00, 6.76042366e+00, 5.51594067e+00, 6.98848772e+00,
          6.95747089e+00, 4.99016380e+00, 7.32873964e+00, 6.83900452e+00,
          0., 6.16010141e+00, 6.85950089e+00, 6.79632139e+00,
          6.83363676e+00, 4.93939829e+00, 6.43324566e+00, 5.94762754e+00,
          6.83890915e+00 ]
      - [ 6.58207893e+00, 4.80056334e+00, 7.75715017e+00, 6.81884766e+00,
          6.00728226e+00, 0., 4.26198959e+00, 5.71915960e+00,
          4.49575520e+00, 5.49922419e+00, 5.40342045e+00, 4.04592896e+00,
          4.80775928e+00, 5.52166653e+00, 5.38167143e+00, 4.01995373e+00,
          5.37672520e+00, 7.64346647e+00, 4.17783213e+00, 5.27993345e+00,
          6.84097433e+00, 5.37809801e+00, 6.67292976e+00, 7.38188410e+00,
          3.76451564e+00, 5.27355766e+00, 4.89159250e+00, 6.80477095e+00,
          5.96609974e+00, 6.60328531e+00, 5.17412186e+00, 6.56111908e+00,
          6.31974268e+00, 3.92052078e+00, 6.30792141e+00, 6.04746723e+00,
          6.05365658e+00, 5.43562365e+00, 6.17374468e+00, 5.92338276e+00,
          6.10936069e+00, 3.90885520e+00, 5.78381538e+00, 4.97750139e+00,
          6.03905153e+00 ]
      - [ 7.72376347e+00, 6.21251297e+00, 9.08111382e+00, 8.12051010e+00,
          6.92585850e+00, 6.60328531e+00, 5.85128784e+00, 6.86703682e+00,
          5.99953270e+00, 6.69138956e+00, 6.88802814e+00, 5.45056152e+00,
          5.83875990e+00, 6.91460943e+00, 6.79112053e+00, 5.46091080e+00,
          6.46996689e+00, 8.19324589e+00, 5.68929577e+00, 6.83057976e+00,
          8.18876266e+00, 6.19119072e+00, 7.10912752e+00, 8.33013058e+00,
          5.47002602e+00, 6.78434038e+00, 6.40308475e+00, 7.05466557e+00,
          7.23955870e+00, 0., 6.45104504e+00, 7.60403252e+00,
          6.91913939e+00, 5.43227386e+00, 7.54380560e+00, 6.70382690e+00,
          6.76042366e+00, 6.38141537e+00, 7.23022938e+00, 7.04629803e+00,
          7.22205353e+00, 5.50589895e+00, 6.93367863e+00, 6.29975605e+00,
          7.26084471e+00 ]
      - [ 6.40201950e+00, 4.52362490e+00, 7.47170687e+00, 6.61742878e+00,
          5.44150305e+00, 4.92549086e+00, 3.99982834e+00, 5.33023977e+00,
          4.31488657e+00, 5.22026253e+00, 5.10967159e+00, 3.54478526e+00,
          4.55057764e+00, 5.12601042e+00, 4.74202394e+00, 3.69656587e+00,
          5.11093998e+00, 7.34814215e+00, 3.80984020e+00, 4.76434326e+00,
          6.84137344e+00, 4.85249615e+00, 6.15648651e+00, 7.07648420e+00,
          3.44876862e+00, 4.67944717e+00, 4.47228861e+00, 6.17197371e+00,
          6.00342512e+00, 6.20464611e+00, 4.88214445e+00, 6.17749786e+00,
          5.90987015e+00, 3.50897503e+00, 6.36786699e+00, 5.38289118e+00,
          6.11612463e+00, 4.66613626e+00, 6.08431387e+00, 5.52521753e+00,
          5.98438549e+00, 3.11906719e+00, 5.43873692e+00, 4.51745367e+00,
          5.82515621e+00 ]
      - [ 6.16738558e+00, 4.36681032e+00, 7.90533400e+00, 6.59799910e+00,
          5.32122898e+00, 4.76071405e+00, 3.75559139e+00, 5.19985819e+00,
          4.01196337e+00, 5.29183674e+00, 4.84791279e+00, 3.56816864e+00,
          4.40863419e+00, 4.93002748e+00, 4.96020412e+00, 3.45109749e+00,
          5.04064226e+00, 7.43911314e+00, 3.73584843e+00, 4.96402168e+00,
          6.64649200e+00, 4.85808372e+00, 6.50169373e+00, 7.00316668e+00,
          2.98164320e+00, 4.73822880e+00, 4.29286861e+00, 6.31418276e+00,
          5.82309914e+00, 6.23250484e+00, 4.54937840e+00, 6.10808468e+00,
          5.99186707e+00, 3.49294376e+00, 6.23136282e+00, 5.43462801e+00,
          5.59270096e+00, 4.74943495e+00, 5.74400425e+00, 5.83246374e+00,
          5.65279579e+00, 3.26043057e+00, 5.14903593e+00, 4.76439524e+00,
          5.77358866e+00 ]
      - [ 7.64857578e+00, 6.63241291e+00, 9.08831024e+00, 8.39118099e+00,
          7.47846651e+00, 7.10694027e+00, 6.40543032e+00, 7.31999588e+00,
          6.40592003e+00, 7.20012474e+00, 7.02548790e+00, 6.08096266e+00,
          4.51810408e+00, 7.07534266e+00, 7.25865650e+00, 6.16324997e+00,
          6.90342712e+00, 8.87990570e+00, 6.07445049e+00, 6.97748137e+00,
          8.19314766e+00, 6.93720818e+00, 7.91611910e+00, 8.71082783e+00,
          5.98530388e+00, 6.67056847e+00, 6.86022711e+00, 7.18899822e+00,
          7.48628473e+00, 7.82485104e+00, 7.06982899e+00, 6.91396332e+00,
          8.18103218e+00, 6.01553726e+00, 7.68322086e+00, 7.51015759e+00,
          7.84631348e+00, 6.85075855e+00, 6.50601339e+00, 7.12614298e+00,
          7.42714548e+00, 6.01365232e+00, 7.18256140e+00, 6.62665796e+00,
          7.70837450e+00 ]
      - [ 6.54918385e+00, 4.45873356e+00, 7.61018038e+00, 6.84987926e+00,
          5.96645403e+00, 4.83630276e+00, 3.97519302e+00, 5.59688807e+00,
          4.38365650e+00, 5.38049173e+00, 5.11204290e+00, 3.22389245e+00,
          4.48088169e+00, 4.96053791e+00, 4.92373991e+00, 3.74206948e+00,
          4.97084951e+00, 7.26949883e+00, 3.94863939e+00, 4.96928930e+00,
          6.75147247e+00, 5.15351486e+00, 6.40778255e+00, 7.07996178e+00,
          3.57088566e+00, 5.07428408e+00, 4.56838512e+00, 6.36894941e+00,
          6.01182365e+00, 6.44020319e+00, 4.81910801e+00, 6.11002922e+00,
          6.13838148e+00, 3.53207350e+00, 6.32898235e+00, 5.58688784e+00,
          5.80487585e+00, 4.83519030e+00, 5.80526733e+00, 5.71684504e+00,
          6.05981779e+00, 3.45886278e+00, 5.33753538e+00, 4.73084593e+00,
          5.84624815e+00 ]
      - [ 6.49052191e+00, 5.08767080e+00, 8.01933575e+00, 7.14578533e+00,
          6.08451271e+00, 5.44351053e+00, 4.56068993e+00, 5.81435490e+00,
          4.74579763e+00, 5.76947975e+00, 5.53508902e+00, 4.17971516e+00,
          5.04561424e+00, 5.69969463e+00, 5.51245403e+00, 4.21812010e+00,
          5.75085449e+00, 7.30634928e+00, 4.40776920e+00, 5.56842041e+00,
          6.85446787e+00, 5.47378922e+00, 6.55543613e+00, 7.42384529e+00,
          3.64728427e+00, 5.45643234e+00, 5.11990738e+00, 6.44330120e+00,
          6.21625280e+00, 6.42109680e+00, 5.36526155e+00, 6.55247116e+00,
          6.43277216e+00, 4.19661665e+00, 6.35682154e+00, 5.92281723e+00,
          6.24903822e+00, 5.30833292e+00, 6.31104565e+00, 6.26303387e+00,
          6.37959290e+00, 4.18110466e+00, 5.88522959e+00, 5.32772112e+00,
          6.20260286e+00 ]
      - [ 6.51830053e+00, 4.80887651e+00, 7.76288700e+00, 6.69356728e+00,
          6.02149534e+00, 5.19588804e+00, 4.20484114e+00, 5.92265940e+00,
          4.65097570e+00, 5.75793600e+00, 5.37093830e+00, 3.93222737e+00,
          4.49444342e+00, 5.64981318e+00, 5.49911118e+00, 4.02728128e+00,
          5.49142122e+00, 7.57258272e+00, 4.18038654e+00, 5.21941805e+00,
          7.11961031e+00, 5.00560045e+00, 6.37331152e+00, 7.42249680e+00,
          3.48872089e+00, 5.04962444e+00, 5.14686871e+00, 6.32090569e+00,
          5.94004440e+00, 6.61961889e+00, 5.24649858e+00, 6.22545433e+00,
          6.44406271e+00, 3.97290111e+00, 6.11123800e+00, 5.89567280e+00,
          6.11559439e+00, 5.17568541e+00, 5.83036327e+00, 5.87033081e+00,
          6.38254070e+00, 3.83182096e+00, 5.59833288e+00, 4.96709156e+00,
          6.02632856e+00 ]
      - [ 7.35494757e+00, 6.05766296e+00, 8.51390743e+00, 7.67913485e+00,
          6.86257410e+00, 6.31974268e+00, 5.48676682e+00, 6.32707548e+00,
          5.59499454e+00, 6.55649233e+00, 6.55339622e+00, 5.25447416e+00,
          5.90727186e+00, 6.57519245e+00, 6.38136148e+00, 5.20145988e+00,
          6.42001581e+00, 8.19635773e+00, 5.40459013e+00, 6.28525591e+00,
          7.34923553e+00, 6.12105894e+00, 7.40694523e+00, 8.02459908e+00,
          5.25901985e+00, 6.22765636e+00, 6.13343716e+00, 7.18838024e+00,
          7.33721209e+00, 6.91913939e+00, 6.50441074e+00, 7.86317301e+00,
          0., 5.25032520e+00, 7.35896301e+00, 6.48884487e+00,
          6.95747089e+00, 6.16930056e+00, 7.58481932e+00, 6.72916937e+00,
          7.48883486e+00, 5.24689722e+00, 6.79709768e+00, 6.10330057e+00,
          6.73124027e+00 ]
      - [ 5.96585608e+00, 4.17767906e+00, 7.26963186e+00, 6.20814133e+00,
          5.22734165e+00, 4.45686340e+00, 3.49668241e+00, 5.22839928e+00,
          3.75393200e+00, 5.15639877e+00, 4.89801073e+00, 3.13785791e+00,
          3.96112633e+00, 4.95887995e+00, 4.87802887e+00, 3.25131345e+00,
          4.76690531e+00, 7.15381527e+00, 3.44122267e+00, 4.69814587e+00,
          6.47802544e+00, 4.83332157e+00, 6.01689053e+00, 7.10713768e+00,
          3.01685882e+00, 4.41082144e+00, 4.38576555e+00, 5.98334599e+00,
          5.53845167e+00, 6.11636829e+00, 4.37461329e+00, 6.18968344e+00,
          5.85885429e+00, 3.10968733e+00, 5.99807453e+00, 5.27946758e+00,
          5.42500496e+00, 4.60400152e+00, 5.55701876e+00, 5.47002888e+00,
          5.64126158e+00, 2.68502712e+00, 5.04374218e+00, 4.23984861e+00,
          5.72872543e+00 ]
      - [ 5.75336790e+00, 3.89659214e+00, 7.52027655e+00, 6.26800489e+00,
          4.86016273e+00, 4.26057529e+00, 3.13743281e+00, 4.80142546e+00,
          3.60582232e+00, 4.69345045e+00, 4.55364943e+00, 2.79129958e+00,
          3.77529001e+00, 4.36506271e+00, 4.51501751e+00, 2.68569350e+00,
          4.44772005e+00, 7.07052279e+00, 3.18743348e+00, 4.28045607e+00,
          6.35439873e+00, 4.14342785e+00, 5.90560722e+00, 6.80392075e+00,
          2.26839328e+00, 4.38584375e+00, 3.81215215e+00, 5.77965546e+00,
          5.43868065e+00, 5.78396845e+00, 4.22215605e+00, 5.94699287e+00,
          5.38687849e+00, 2.51751971e+00, 5.81092978e+00, 5.12111902e+00,
          5.23505974e+00, 4.15858793e+00, 5.51244736e+00, 5.22859621e+00,
          5.45476866e+00, 2.46125174e+00, 4.84802055e+00, 3.99002481e+00,
          5.12232304e+00 ]
      - [ 6.66832447e+00, 5.10012341e+00, 8.20653820e+00, 6.66177845e+00,
          5.86342621e+00, 5.61473083e+00, 4.42671537e+00, 5.87827826e+00,
          4.92055416e+00, 5.85661936e+00, 5.75140667e+00, 3.69269252e+00,
          4.92693138e+00, 5.77324915e+00, 5.67377996e+00, 4.27562618e+00,
          5.78577089e+00, 7.34000206e+00, 4.62267542e+00, 5.59355545e+00,
          6.92123079e+00, 5.35973120e+00, 6.50130224e+00, 7.23449564e+00,
          4.16154242e+00, 5.42866850e+00, 5.31353378e+00, 6.38014984e+00,
          6.29104328e+00, 6.68169785e+00, 5.61145258e+00, 6.77933502e+00,
          6.11839676e+00, 4.36978245e+00, 6.20303535e+00, 6.10634661e+00,
          6.28014660e+00, 5.19166279e+00, 6.45070553e+00, 6.20534754e+00,
          6.68489599e+00, 4.18973303e+00, 5.95938063e+00, 5.06021214e+00,
          6.26984596e+00 ]
      - [ 6.65244246e+00, 4.96164227e+00, 8.16047192e+00, 7.00308037e+00,
          5.96662617e+00, 5.53277588e+00, 4.55707741e+00, 5.63014889e+00,
          4.65389967e+00, 5.80855703e+00, 5.22328568e+00, 3.66953897e+00,
          4.83128643e+00, 5.45051908e+00, 5.60125923e+00, 4.24980879e+00,
          5.32052946e+00, 7.57520199e+00, 4.48617029e+00, 5.67141771e+00,
          7.22832775e+00, 5.45203686e+00, 6.93347168e+00, 7.28915787e+00,
          4.23104286e+00, 5.16356182e+00, 5.24516106e+00, 6.91983032e+00,
          6.31233072e+00, 6.50269508e+00, 5.12086725e+00, 6.59853268e+00,
          6.54092598e+00, 4.32195139e+00, 6.57460976e+00, 6.15863609e+00,
          5.69772863e+00, 5.54177046e+00, 6.31540918e+00, 5.95207071e+00,
          6.30571222e+00, 4.09164715e+00, 5.62956095e+00, 5.17793226e+00,
          6.48158550e+00 ]
      - [ 5.91006279e+00, 4.09514093e+00, 7.50798798e+00, 6.49634504e+00,
          5.22702789e+00, 4.60385895e+00, 3.53050518e+00, 5.14865208e+00,
          3.80434942e+00, 5.03087091e+00, 4.81882715e+00, 3.09072351e+00,
          4.13540840e+00, 4.71768618e+00, 4.75607252e+00, 3.15927005e+00,
          4.66610336e+00, 7.11840582e+00, 3.39947963e+00, 4.74513483e+00,
          6.51511812e+00, 4.83017778e+00, 6.09451056e+00, 6.82988167e+00,
          3.01297426e+00, 4.50838089e+00, 4.20555210e+00, 6.10535479e+00,
          5.83014011e+00, 6.12387037e+00, 4.28634453e+00, 5.78665257e+00,
          6.06635857e+00, 3.10760260e+00, 6.05767155e+00, 5.31342983e+00,
          5.57898664e+00, 4.45847893e+00, 5.47329330e+00, 5.28038406e+00,
          5.67690468e+00, 2.57587147e+00, 4.79082680e+00, 4.33353567e+00,
          5.58107662e+00 ]
      - [ 6.52924013e+00, 4.79848480e+00, 7.78192186e+00, 6.65372467e+00,
          5.57029581e+00, 5.08750725e+00, 4.24307585e+00, 5.74204254e+00,
          4.44350672e+00, 5.68800688e+00, 4.96803474e+00, 3.84829164e+00,
          4.58118916e+00, 5.25076771e+00, 5.18479633e+00, 3.85634017e+00,
          5.33541250e+00, 7.45894623e+00, 4.19106865e+00, 5.01109314e+00,
          6.93054390e+00, 5.04727125e+00, 6.37736607e+00, 7.27879858e+00,
          3.74518752e+00, 5.24664211e+00, 4.73431253e+00, 6.12168503e+00,
          5.85163736e+00, 6.55637074e+00, 5.07564974e+00, 6.50106430e+00,
          6.23648548e+00, 3.37026787e+00, 6.42423010e+00, 5.69121313e+00,
          6.12215137e+00, 4.95063829e+00, 6.09105539e+00, 5.89187145e+00,
          6.38767862e+00, 3.72290325e+00, 5.68836117e+00, 4.90969563e+00,
          5.98804569e+00 ]
      - [ 7.74643373e+00, 6.42793703e+00, 8.02505016e+00, 8.14879322e+00,
          6.93002176e+00, 6.67292976e+00, 5.69029474e+00, 6.94326067e+00,
          6.09827232e+00, 6.67531061e+00, 6.81973600e+00, 5.54610586e+00,
          6.10485935e+00, 6.89052105e+00, 6.77696705e+00, 5.69592619e+00,
          6.81783962e+00, 8.56375408e+00, 5.81360817e+00, 6.79377937e+00,
          8.10015965e+00, 6.56963921e+00, 0., 8.38465405e+00,
          5.52283812e+00, 6.68063784e+00, 6.62063837e+00, 6.91177416e+00,
          7.36276531e+00, 7.10912752e+00, 6.68802214e+00, 7.57830286e+00,
          7.40694523e+00, 5.62737131e+00, 7.48217678e+00, 6.63854885e+00,
          7.55478239e+00, 6.15633488e+00, 6.92441559e+00, 7.36758900e+00,
          7.18225050e+00, 5.57454824e+00, 7.12578917e+00, 6.05251455e+00,
          6.93084192e+00 ]
      - [ 6.52479029e+00, 4.73249483e+00, 7.52798367e+00, 6.74489975e+00,
          5.92437363e+00, 5.10252666e+00, 4.11079645e+00, 5.57032108e+00,
          3.42967987e+00, 5.57808638e+00, 5.31270266e+00, 4.02160549e+00,
          4.75349903e+00, 5.29497099e+00, 5.00687599e+00, 3.95654178e+00,
          5.39167690e+00, 7.41871214e+00, 4.17023468e+00, 5.04654980e+00,
          6.79155493e+00, 5.26850510e+00, 6.31252432e+00, 7.15584135e+00,
          3.75796604e+00, 5.27997065e+00, 4.82312393e+00, 6.09028435e+00,
          6.25063562e+00, 6.49019337e+00, 5.14445448e+00, 6.88177204e+00,
          6.06745672e+00, 3.79679990e+00, 6.39124107e+00, 5.90271473e+00,
          6.01908112e+00, 5.04216719e+00, 6.39924049e+00, 6.00759602e+00,
          6.47688150e+00, 3.80928206e+00, 5.53558445e+00, 4.93273544e+00,
          6.05602789e+00 ]
      - [ 6.37693262e+00, 4.79695749e+00, 7.99456310e+00, 6.58585691e+00,
          5.78335238e+00, 5.17412186e+00, 4.29043293e+00, 5.72393036e+00,
          4.37669420e+00, 5.53906298e+00, 5.23037958e+00, 3.95808291e+00,
          4.64743090e+00, 5.20035648e+00, 5.28696775e+00, 3.79654956e+00,
          5.02096224e+00, 7.49918604e+00, 4.15831470e+00, 5.18045759e+00,
          7.09705353e+00, 5.23833656e+00, 6.68802214e+00, 6.99902821e+00,
          3.78459764e+00, 5.01872587e+00, 4.58631802e+00, 6.56984854e+00,
          5.95271683e+00, 6.45104504e+00, 0., 6.25133705e+00,
          6.50441074e+00, 3.78368855e+00, 6.53359509e+00, 5.77683973e+00,
          5.51594067e+00, 4.94399834e+00, 6.06718397e+00, 5.90888119e+00,
          6.10420799e+00, 3.60721898e+00, 5.34673166e+00, 5.00458670e+00,
          6.03720713e+00 ]
      - [ 6.16299963e+00, 4.37565374e+00, 7.73034668e+00, 6.59503460e+00,
          5.37667322e+00, 4.73458481e+00, 3.81851554e+00, 5.17302036e+00,
          4.17811966e+00, 4.97009659e+00, 5.00861120e+00, 3.40851879e+00,
          4.36412334e+00, 4.93112421e+00, 5.07105446e+00, 3.40841174e+00,
          4.92872143e+00, 7.17549181e+00, 3.77169466e+00, 4.92072392e+00,
          6.73006821e+00, 4.79431772e+00, 6.16834354e+00, 6.98600626e+00,
          3.31000233e+00, 4.88157272e+00, 4.50195646e+00, 6.22283030e+00,
          5.73665905e+00, 6.19630289e+00, 4.72683811e+00, 6.00183964e+00,
          6.02130938e+00, 3.00559068e+00, 6.16277313e+00, 5.58682442e+00,
          5.48675203e+00, 4.89836979e+00, 5.77252436e+00, 5.32490063e+00,
          5.91723013e+00, 3.29820824e+00, 5.23351860e+00, 4.51779270e+00,
          5.62158346e+00 ]
      - [ 7.83956718e+00, 6.36010981e+00, 9.26081181e+00, 8.45288086e+00,
          7.36923981e+00, 6.84097433e+00, 6.30006409e+00, 6.89973259e+00,
          6.33473587e+00, 7.56260872e+00, 6.92073727e+00, 6.01778221e+00,
          6.57845879e+00, 6.60563517e+00, 7.20079184e+00, 6.01043415e+00,
          7.41596460e+00, 8.40725517e+00, 6.26442862e+00, 6.77948380e+00,
          0., 7.26460314e+00, 8.10015965e+00, 8.36338520e+00,
          6.00370693e+00, 6.83595610e+00, 6.85767651e+00, 7.44724941e+00,
          7.90195084e+00, 8.18876266e+00, 7.09705353e+00, 8.18922710e+00,
          7.34923553e+00, 6.06791210e+00, 7.88248396e+00, 7.25968981e+00,
          7.94281912e+00, 7.21859694e+00, 7.85721588e+00, 7.02291346e+00,
          7.64820910e+00, 6.02319002e+00, 7.28804588e+00, 6.80529547e+00,
          7.65042925e+00 ]
      - [ 6.47184849e+00, 5.65005016e+00, 8.38851357e+00, 7.02041578e+00,
          0., 6.00728226e+00, 5.05392408e+00, 6.02522087e+00,
          5.09365892e+00, 6.32136106e+00, 5.60890198e+00, 4.73439360e+00,
          5.32390022e+00, 5.68724966e+00, 5.87855434e+00, 4.74551964e+00,
          5.73682022e+00, 7.80615616e+00, 5.08728504e+00, 5.79079056e+00,
          7.36923981e+00, 5.65890169e+00, 6.93002176e+00, 7.78223610e+00,
          4.72613001e+00, 5.80167627e+00, 5.62748337e+00, 6.96137047e+00,
          6.99055481e+00, 6.92585850e+00, 5.78335238e+00, 7.00925255e+00,
          6.86257410e+00, 4.68041611e+00, 6.84869289e+00, 6.54755306e+00,
          6.32502460e+00, 5.65718651e+00, 6.45867252e+00, 6.54903269e+00,
          6.50269794e+00, 4.56490421e+00, 6.15888453e+00, 5.59031439e+00,
          6.52877617e+00 ]
      - [ 6.36218643e+00, 4.89066553e+00, 7.74894810e+00, 6.73720837e+00,
          5.79079056e+00, 5.27993345e+00, 4.38772058e+00, 5.33080626e+00,
          4.71648884e+00, 5.53604269e+00, 5.24283409e+00, 4.00949192e+00,
          4.80436087e+00, 4.97619152e+00, 5.20011187e+00, 3.93111968e+00,
          5.34221029e+00, 7.85658646e+00, 4.20765686e+00, 0.,
          6.77948380e+00, 5.25525713e+00, 6.79377937e+00, 7.22279024e+00,
          3.88278794e+00, 5.05396557e+00, 4.81595421e+00, 6.41687298e+00,
          6.21489620e+00, 6.83057976e+00, 5.18045759e+00, 6.53293753e+00,
          6.28525591e+00, 3.90891218e+00, 6.43362141e+00, 6.21709919e+00,
          6.33449030e+00, 5.19607592e+00, 6.11822462e+00, 5.80387974e+00,
          6.48097277e+00, 3.90401745e+00, 5.46918249e+00, 4.89266872e+00,
          6.16595793e+00 ]
      - [ 6.17737293e+00, 0., 7.76131964e+00, 6.79088068e+00,
          5.65005016e+00, 4.80056334e+00, 3.76737165e+00, 5.19905853e+00,
          4.16189671e+00, 5.33973455e+00, 4.94458914e+00, 3.39919400e+00,
          4.26751900e+00, 4.84838772e+00, 5.15119171e+00, 3.40583205e+00,
          4.96152592e+00, 7.15547657e+00, 3.64590096e+00, 4.89066553e+00,
          6.36010981e+00, 4.74485588e+00, 6.42793703e+00, 6.93388653e+00,
          3.29320645e+00, 4.95482635e+00, 4.61982965e+00, 6.23881912e+00,
          5.95421505e+00, 6.21251297e+00, 4.79695749e+00, 6.29611301e+00,
          6.05766296e+00, 3.36490369e+00, 5.88970327e+00, 5.49879932e+00,
          5.83727503e+00, 4.79014301e+00, 5.89551735e+00, 5.21892262e+00,
          6.02029276e+00, 3.27799726e+00, 5.18234110e+00, 4.50075054e+00,
          5.80155611e+00 ]
      - [ 6.91846466e+00, 5.11722183e+00, 8.17682076e+00, 6.76509857e+00,
          6.14359617e+00, 5.47336626e+00, 4.62325573e+00, 5.84786272e+00,
          4.84267426e+00, 5.69059992e+00, 5.97421503e+00, 4.26296663e+00,
          3.55885553e+00, 5.97271538e+00, 5.62350941e+00, 4.45334721e+00,
          5.51791143e+00, 7.90744162e+00, 4.55088234e+00, 5.75042534e+00,
          7.20987034e+00, 5.58383512e+00, 6.81234026e+00, 7.34298086e+00,
          4.19918013e+00, 5.45732117e+00, 5.40278339e+00, 6.40094900e+00,
          6.22340584e+00, 6.26681948e+00, 5.55349445e+00, 6.77385235e+00,
          6.23009968e+00, 4.23293400e+00, 6.69907331e+00, 6.18187046e+00,
          6.21752644e+00, 5.36927748e+00, 6.70838356e+00, 6.05754805e+00,
          6.68732023e+00, 4.29675341e+00, 5.72518587e+00, 5.03548050e+00,
          6.63284588e+00 ]
      - [ 7.27822876e+00, 5.95421505e+00, 8.15307713e+00, 7.12280655e+00,
          6.99055481e+00, 5.96609974e+00, 5.34942818e+00, 6.83459568e+00,
          5.59576750e+00, 6.36808968e+00, 6.12381077e+00, 5.14915180e+00,
          5.56733894e+00, 6.50814152e+00, 6.30310822e+00, 5.17514181e+00,
          6.41182280e+00, 7.76060820e+00, 5.25723934e+00, 6.21489620e+00,
          7.90195084e+00, 5.84837198e+00, 7.36276531e+00, 8.03304195e+00,
          4.94485903e+00, 6.33684969e+00, 5.69798088e+00, 7.44272995e+00,
          0., 7.23955870e+00, 5.95271683e+00, 6.82485056e+00,
          7.33721209e+00, 5.02285719e+00, 7.21302223e+00, 6.78766394e+00,
          6.98159838e+00, 6.21115255e+00, 6.98458815e+00, 6.71140909e+00,
          7.35507631e+00, 5.07528257e+00, 6.42882967e+00, 5.87830114e+00,
          7.01769257e+00 ]
      - [ 6.09548092e+00, 4.21921015e+00, 7.81737804e+00, 6.46559525e+00,
          5.33476257e+00, 4.84101009e+00, 3.67559266e+00, 5.22835636e+00,
          4.17576265e+00, 5.32353067e+00, 4.69503975e+00, 3.40848899e+00,
          4.11873007e+00, 4.62403011e+00, 4.85158110e+00, 3.37402272e+00,
          4.91197014e+00, 7.25366020e+00, 3.78066373e+00, 4.81979942e+00,
          6.48060751e+00, 4.83421469e+00, 6.35279751e+00, 7.29621553e+00,
          3.24277592e+00, 4.90728617e+00, 4.36447287e+00, 6.22252226e+00,
          5.74693871e+00, 6.27633047e+00, 4.74396133e+00, 6.12349844e+00,
          5.99314642e+00, 3.34723997e+00, 6.24147034e+00, 5.53294802e+00,
          5.79792404e+00, 4.71152449e+00, 5.62695503e+00, 5.48721552e+00,
          5.80452442e+00, 2.92083287e+00, 5.21552277e+00, 4.43208551e+00,
          5.71343422e+00 ]
      - [ 6.44733715e+00, 4.26270819e+00, 7.64286280e+00, 6.44502020e+00,
          5.60878277e+00, 4.68467855e+00, 3.77905750e+00, 5.35382080e+00,
          4.23237514e+00, 5.03643894e+00, 5.05951929e+00, 3.43806124e+00,
          4.18366957e+00, 4.87935686e+00, 4.98198509e+00, 3.39825559e+00,
          4.84358692e+00, 7.30853987e+00, 3.68901420e+00, 4.66051912e+00,
          6.65905428e+00, 4.89522648e+00, 6.41480780e+00, 6.81471777e+00,
          2.97746515e+00, 4.84440994e+00, 4.40519571e+00, 6.26470947e+00,
          5.39256668e+00, 6.27478838e+00, 4.65254402e+00, 5.94472599e+00,
          6.00324249e+00, 3.29127192e+00, 6.29809856e+00, 5.65014315e+00,
          5.38959742e+00, 4.85558939e+00, 5.92637539e+00, 5.64045525e+00,
          6.04617834e+00, 3.28236890e+00, 5.43295622e+00, 4.40814447e+00,
          5.65109205e+00 ]
      - [ 6.31334972e+00, 4.36000109e+00, 7.66919851e+00, 6.56840897e+00,
          5.30849266e+00, 5.15019083e+00, 3.96898270e+00, 5.56390572e+00,
          4.22811890e+00, 5.34618092e+00, 5.13495541e+00, 3.48974133e+00,
          4.23665524e+00, 4.98098946e+00, 5.05400181e+00, 3.43911099e+00,
          4.86278009e+00, 7.11834240e+00, 3.79024935e+00, 4.93796062e+00,
          6.83457279e+00, 4.78719044e+00, 6.30783653e+00, 7.05734301e+00,
          3.46677589e+00, 4.59610510e+00, 4.38573456e+00, 6.25465870e+00,
          5.90884399e+00, 6.25158501e+00, 4.58459806e+00, 6.06678772e+00,
          6.15043497e+00, 3.47163844e+00, 5.79480505e+00, 5.52479506e+00,
          5.78988409e+00, 4.72885084e+00, 5.40096569e+00, 5.74848175e+00,
          5.97887087e+00, 2.97440863e+00, 5.19079351e+00, 4.55440807e+00,
          5.91848040e+00 ]
      - [ 6.94482660e+00, 5.49879932e+00, 7.72737551e+00, 7.40975237e+00,
          6.54755306e+00, 6.04746723e+00, 4.97283649e+00, 6.31640863e+00,
          5.26650810e+00, 6.32706356e+00, 6.16013479e+00, 4.81714630e+00,
          5.44660711e+00, 6.10306168e+00, 5.87856770e+00, 4.83043766e+00,
          6.07966518e+00, 7.69893265e+00, 5.01890516e+00, 6.21709919e+00,
          7.25968981e+00, 5.56095886e+00, 6.63854885e+00, 7.91533756e+00,
          4.69731951e+00, 5.75915575e+00, 5.63386297e+00, 6.97181702e+00,
          6.78766394e+00, 6.70382690e+00, 5.77683973e+00, 7.09328032e+00,
          6.48884487e+00, 4.77720308e+00, 6.81715298e+00, 0.,
          6.83900452e+00, 5.55516386e+00, 6.63306189e+00, 6.54013777e+00,
          6.69887018e+00, 4.62871313e+00, 6.24385881e+00, 5.68179893e+00,
          6.80254745e+00 ]
      - [ 8.71630764e+00, 7.76131964e+00, 0., 8.54897308e+00,
          8.38851357e+00, 7.75715017e+00, 7.21881247e+00, 8.66614532e+00,
          7.30813789e+00, 7.96230650e+00, 7.92261314e+00, 7.15027475e+00,
          7.33829737e+00, 8.04211903e+00, 7.73519707e+00, 7.25686789e+00,
          8.09321785e+00, 9.35694504e+00, 7.20215750e+00, 7.74894810e+00,
          9.26081181e+00, 7.77861214e+00, 8.02505016e+00, 9.55317116e+00,
          7.08338213e+00, 7.64716339e+00, 7.81378937e+00, 8.78735733e+00,
          8.15307713e+00, 9.08111382e+00, 7.99456310e+00, 9.06352615e+00,
          8.51390743e+00, 7.07351589e+00, 8.29278851e+00, 7.72737551e+00,
          8.73856354e+00, 7.59970856e+00, 8.75055218e+00, 8.63984585e+00,
          8.91246605e+00, 7.08895302e+00, 8.23079586e+00, 7.49626875e+00,
          8.43431377e+00 ]
      - [ 6.51880646e+00, 4.50075054e+00, 7.49626875e+00, 6.39289999e+00,
          5.59031439e+00, 4.97750139e+00, 3.87924147e+00, 5.33995581e+00,
          4.34370661e+00, 5.29516268e+00, 5.28052092e+00, 3.52549696e+00,
          4.26580477e+00, 5.26551533e+00, 4.96575928e+00, 3.58714056e+00,
          5.16358185e+00, 7.40426111e+00, 3.91697240e+00, 4.89266872e+00,
          6.80529547e+00, 5.07031059e+00, 6.05251455e+00, 7.09829187e+00,
          3.46567035e+00, 5.02788639e+00, 4.76223993e+00, 6.10726357e+00,
          5.87830114e+00, 6.29975605e+00, 5.00458670e+00, 6.21180582e+00,
          6.10330057e+00, 3.49709153e+00, 6.25956440e+00, 5.68179893e+00,
          5.94762754e+00, 4.77363014e+00, 5.98502350e+00, 5.59353304e+00,
          6.35091782e+00, 3.50559831e+00, 5.52628899e+00, 0.,
          5.92261839e+00 ]
      - [ 6.36118937e+00, 4.24491692e+00, 7.35255051e+00, 6.40747643e+00,
          5.62377405e+00, 4.66709709e+00, 3.65248656e+00, 5.46536922e+00,
          3.92635298e+00, 5.33186722e+00, 5.08296537e+00, 3.31923413e+00,
          4.08962536e+00, 4.96887636e+00, 4.96572638e+00, 3.41111779e+00,
          4.94964314e+00, 7.22187948e+00, 3.62622762e+00, 4.88575935e+00,
          6.77503061e+00, 4.50679874e+00, 6.18725014e+00, 6.84803915e+00,
          3.14154029e+00, 4.76921844e+00, 4.32405996e+00, 6.16427422e+00,
          5.65881729e+00, 5.91765594e+00, 4.65840626e+00, 6.11751842e+00,
          5.84573221e+00, 2.86627722e+00, 6.09001780e+00, 5.22336960e+00,
          5.54295444e+00, 4.59999371e+00, 5.91274929e+00, 5.44857836e+00,
          6.10587597e+00, 3.25968671e+00, 5.35258055e+00, 4.28712082e+00,
          5.52406454e+00 ]
      - [ 7.21742678e+00, 6.02029276e+00, 8.91246605e+00, 7.92855978e+00,
          6.50269794e+00, 6.10936069e+00, 5.52967739e+00, 6.35108852e+00,
          5.73117447e+00, 6.65666962e+00, 6.20780802e+00, 5.31291533e+00,
          5.67071629e+00, 5.98246956e+00, 6.57998610e+00, 5.29451227e+00,
          6.39257908e+00, 8.51733112e+00, 5.61374474e+00, 6.48097277e+00,
          7.64820910e+00, 6.44657516e+00, 7.18225050e+00, 8.33539867e+00,
          5.18040133e+00, 5.83370876e+00, 6.04663420e+00, 6.92808723e+00,
          7.35507631e+00, 7.22205353e+00, 6.10420799e+00, 6.86793184e+00,
          7.48883486e+00, 5.34147978e+00, 7.51962423e+00, 6.69887018e+00,
          6.83363676e+00, 6.30672693e+00, 6.23803806e+00, 6.98719549e+00,
          0., 5.11639166e+00, 6.40452957e+00, 6.35091782e+00,
          6.60465336e+00 ]
      - [ 7.28745317e+00, 5.71018744e+00, 8.30397701e+00, 7.37596893e+00,
          6.61781788e+00, 6.16717196e+00, 3.51640797e+00, 6.26291704e+00,
          5.67911577e+00, 6.35193110e+00, 6.23074484e+00, 4.94103479e+00,
          5.69090319e+00, 6.16123962e+00, 6.04150152e+00, 5.09340191e+00,
          6.24352264e+00, 8.05182076e+00, 5.20407248e+00, 6.16001081e+00,
          7.73542166e+00, 6.17050123e+00, 6.62349796e+00, 7.99079847e+00,
          4.94392300e+00, 6.03164577e+00, 5.98606014e+00, 6.87636995e+00,
          6.92755795e+00, 7.08527040e+00, 6.28262758e+00, 7.41254473e+00,
          6.95478153e+00, 5.04608774e+00, 7.04768276e+00, 6.42156887e+00,
          6.87422466e+00, 5.92465401e+00, 6.93926573e+00, 6.63436747e+00,
          6.95055103e+00, 5.00321436e+00, 6.56998205e+00, 5.79727459e+00,
          6.68202782e+00 ]
      - [ 6.35471773e+00, 4.96152592e+00, 8.09321785e+00, 6.65082502e+00,
          5.73682022e+00, 5.37672520e+00, 4.28194237e+00, 5.75776720e+00,
          4.60759735e+00, 5.66474009e+00, 5.48745775e+00, 4.15439987e+00,
          4.60838938e+00, 5.38999605e+00, 5.49475908e+00, 4.07093954e+00,
          0., 7.39198256e+00, 4.41178036e+00, 5.34221029e+00,
          7.41596460e+00, 5.00443125e+00, 6.81783962e+00, 7.24850655e+00,
          4.08792543e+00, 5.12722635e+00, 4.85107231e+00, 6.41703653e+00,
          6.41182280e+00, 6.46996689e+00, 5.02096224e+00, 6.34110546e+00,
          6.42001581e+00, 4.09980488e+00, 6.63295984e+00, 6.07966518e+00,
          5.43983746e+00, 5.00419283e+00, 6.15527201e+00, 6.08880854e+00,
          6.39257908e+00, 3.97322655e+00, 5.59868956e+00, 5.16358185e+00,
          6.33577204e+00 ]
      - [ 6.45194101e+00, 4.47320890e+00, 7.84400845e+00, 6.90153503e+00,
          5.83815765e+00, 4.95803928e+00, 4.11626291e+00, 5.43845701e+00,
          4.56836605e+00, 5.67279673e+00, 5.42358875e+00, 3.33353710e+00,
          4.44820642e+00, 5.38038397e+00, 5.34031105e+00, 3.87942243e+00,
          5.35596514e+00, 7.46840191e+00, 4.09876347e+00, 5.19503975e+00,
          6.96168756e+00, 5.12296820e+00, 6.19681549e+00, 7.43052149e+00,
          3.73305607e+00, 5.10829115e+00, 5.02996969e+00, 6.19195938e+00,
          6.04137230e+00, 6.40774345e+00, 5.24922800e+00, 6.36331654e+00,
          5.86287832e+00, 3.68842101e+00, 6.30712891e+00, 5.55869102e+00,
          6.16947460e+00, 5.12654591e+00, 6.13952208e+00, 5.57389498e+00,
          6.32710838e+00, 3.76708770e+00, 5.65241861e+00, 4.40334702e+00,
          6.07850027e+00 ]
      - [ 6.91364527e+00, 5.60869026e+00, 8.37424850e+00, 6.90590572e+00,
          6.72034168e+00, 5.78228903e+00, 5.12252426e+00, 5.75932980e+00,
          5.23426533e+00, 6.22864628e+00, 5.89359522e+00, 4.72784042e+00,
          5.63039398e+00, 5.93726540e+00, 6.12082338e+00, 4.13979864e+00,
          5.93825674e+00, 7.99033594e+00, 4.93565369e+00, 5.89682627e+00,
          7.08932352e+00, 6.04563570e+00, 7.26196527e+00, 7.70024252e+00,
          4.83572721e+00, 5.83128309e+00, 5.54162073e+00, 7.21133947e+00,
          6.74469995e+00, 7.29790640e+00, 5.65725565e+00, 6.76751089e+00,
          6.63910103e+00, 4.87703466e+00, 6.83447552e+00, 6.37457752e+00,
          6.73839092e+00, 5.80678034e+00, 6.76777983e+00, 6.56215286e+00,
          6.75315094e+00, 4.75538206e+00, 6.30920458e+00, 5.69835377e+00,
          6.28188229e+00 ]
      - [ 6.57405472e+00, 5.18234110e+00, 8.23079586e+00, 6.83450413e+00,
          6.15888453e+00, 5.78381538e+00, 4.82341003e+00, 5.91318274e+00,
          4.81480074e+00, 5.85876703e+00, 5.51099110e+00, 4.52398396e+00,
          5.03707933e+00, 5.38159609e+00, 5.53995132e+00, 4.33324051e+00,
          5.59868956e+00, 8.17230606e+00, 4.86321926e+00, 5.46918249e+00,
          7.28804588e+00, 5.72761011e+00, 7.12578917e+00, 7.43400669e+00,
          4.43395185e+00, 5.51864719e+00, 5.17820740e+00, 6.72269869e+00,
          6.42882967e+00, 6.93367863e+00, 5.34673166e+00, 6.65787888e+00,
          6.79709768e+00, 4.49701881e+00, 6.72082043e+00, 6.24385881e+00,
          6.43324566e+00, 5.55098438e+00, 6.41874599e+00, 6.27616787e+00,
          6.40452957e+00, 4.32142687e+00, 0., 5.52628899e+00,
          6.58661318e+00 ]
      - [ 6.11400080e+00, 4.55692101e+00, 8.01103401e+00, 6.74233580e+00,
          5.44242620e+00, 5.07464743e+00, 3.88417673e+00, 5.36385012e+00,
          4.43081379e+00, 5.11917734e+00, 4.97950315e+00, 3.69480705e+00,
          4.26016378e+00, 5.10105324e+00, 5.13147736e+00, 3.62449980e+00,
          5.07172298e+00, 7.34030867e+00, 3.98029017e+00, 5.05936003e+00,
          6.68468666e+00, 5.13566446e+00, 6.19910002e+00, 7.22382832e+00,
          3.21769142e+00, 4.99967766e+00, 4.80331421e+00, 6.02598190e+00,
          6.04037189e+00, 6.29955816e+00, 4.80710506e+00, 5.93355751e+00,
          6.09992599e+00, 3.54724956e+00, 6.38628912e+00, 5.72221851e+00,
          5.76251411e+00, 4.94044399e+00, 5.53051758e+00, 5.61771917e+00,
          5.83929491e+00, 3.50503850e+00, 5.34662342e+00, 4.48343039e+00,
          5.70005894e+00 ]
      - [ 6.91991091e+00, 5.21892262e+00, 8.63984585e+00, 7.38619471e+00,
          6.54903269e+00, 5.92338276e+00, 5.00820589e+00, 6.16664648e+00,
          5.35625219e+00, 6.41863871e+00, 6.06557560e+00, 4.82381821e+00,
          5.29344940e+00, 5.97205353e+00, 5.93699646e+00, 4.87201881e+00,
          6.08880854e+00, 7.59086657e+00, 5.04100609e+00, 5.80387974e+00,
          7.02291346e+00, 5.91650867e+00, 7.36758900e+00, 7.64392710e+00,
          4.76279306e+00, 5.84179163e+00, 5.74279308e+00, 7.01675987e+00,
          6.71140909e+00, 7.04629803e+00, 5.90888119e+00, 7.09509468e+00,
          6.72916937e+00, 4.70522976e+00, 7.11689758e+00, 6.54013777e+00,
          6.79632139e+00, 5.72405958e+00, 6.87821198e+00, 0.,
          6.98719549e+00, 4.73916197e+00, 6.27616787e+00, 5.59353304e+00,
          6.70885229e+00 ]
      - [ 6.46075869e+00, 4.87701178e+00, 7.77799416e+00, 6.95147753e+00,
          5.89674091e+00, 5.11336374e+00, 4.38593292e+00, 5.87625027e+00,
          4.58636618e+00, 5.82639694e+00, 5.68735075e+00, 4.07645798e+00,
          4.70551729e+00, 5.31059217e+00, 5.59320354e+00, 4.13890743e+00,
          5.64441109e+00, 7.33321714e+00, 4.30964518e+00, 5.14760256e+00,
          6.77033377e+00, 5.64980268e+00, 6.65062189e+00, 7.38483286e+00,
          4.02847958e+00, 5.47947168e+00, 5.03670025e+00, 6.63976192e+00,
          6.09706116e+00, 6.35172129e+00, 5.20540857e+00, 6.71032190e+00,
          6.43125010e+00, 3.46815491e+00, 6.40935612e+00, 5.93818951e+00,
          6.28779030e+00, 5.20420313e+00, 6.10445595e+00, 5.79628181e+00,
          6.32735109e+00, 3.93208480e+00, 5.89768076e+00, 5.06912661e+00,
          6.05841589e+00 ]
      - [ 6.68982649e+00, 5.33973455e+00, 7.96230650e+00, 7.12447405e+00,
          6.32136106e+00, 5.49922419e+00, 4.64544344e+00, 5.92869139e+00,
          4.99099493e+00, 0., 5.77518225e+00, 4.46691608e+00,
          4.87276363e+00, 5.91537333e+00, 5.70151567e+00, 4.40965796e+00,
          5.66474009e+00, 7.89646101e+00, 4.70439959e+00, 5.53604269e+00,
          7.56260872e+00, 5.76663065e+00, 6.67531061e+00, 7.43576813e+00,
          4.30882359e+00, 5.65183067e+00, 5.33694315e+00, 6.70838642e+00,
          6.36808968e+00, 6.69138956e+00, 5.53906298e+00, 6.71929312e+00,
          6.55649233e+00, 4.45763731e+00, 6.79701996e+00, 6.32706356e+00,
          6.34478140e+00, 5.57005072e+00, 6.82137442e+00, 6.41863871e+00,
          6.65666962e+00, 4.35421133e+00, 5.85876703e+00, 5.29516268e+00,
          6.57417202e+00 ]
      - [ 0., 6.17737293e+00, 8.71630764e+00, 7.55215883e+00,
          6.47184849e+00, 6.58207893e+00, 5.73372459e+00, 7.06798315e+00,
          5.81393194e+00, 6.68982649e+00, 6.36007023e+00, 5.66488791e+00,
          5.91040421e+00, 6.54646063e+00, 6.71642733e+00, 5.47589922e+00,
          6.35471773e+00, 8.00969315e+00, 5.76511574e+00, 6.36218643e+00,
          7.83956718e+00, 6.23528194e+00, 7.74643373e+00, 8.55885410e+00,
          5.42167997e+00, 6.44271612e+00, 6.07932281e+00, 7.54643250e+00,
          7.27822876e+00, 7.72376347e+00, 6.37693262e+00, 7.50190639e+00,
          7.35494757e+00, 5.53382921e+00, 7.41475773e+00, 6.94482660e+00,
          6.88921642e+00, 6.35135937e+00, 7.19899130e+00, 6.91991091e+00,
          7.21742678e+00, 5.45894337e+00, 6.57405472e+00, 6.51880646e+00,
          7.21100807e+00 ]
      - [ 7.25982094e+00, 5.97412729e+00, 8.88654137e+00, 7.80034637e+00,
          6.66020155e+00, 6.54725361e+00, 5.92408514e+00, 6.77216959e+00,
          4.08040476e+00, 6.78289509e+00, 6.26727629e+00, 5.57075214e+00,
          5.70906878e+00, 6.80342245e+00, 6.98710060e+00, 5.39041567e+00,
          6.39826012e+00, 7.88904285e+00, 5.69973898e+00, 6.77427673e+00,
          7.74979782e+00, 6.50778103e+00, 7.96212482e+00, 7.72646713e+00,
          5.57249546e+00, 6.35423422e+00, 6.42474890e+00, 7.18481779e+00,
          7.40577936e+00, 7.39572287e+00, 6.26094151e+00, 7.07344103e+00,
          7.36739206e+00, 5.41864586e+00, 7.25651598e+00, 6.86355114e+00,
          7.12407017e+00, 6.52816486e+00, 7.07092142e+00, 6.98364544e+00,
          7.02837086e+00, 5.50608873e+00, 6.79980993e+00, 6.38693190e+00,
          7.52232409e+00 ]
      - [ 7.22323704e+00, 5.58233261e+00, 8.21586323e+00, 7.44102001e+00,
          6.78455639e+00, 5.81535625e+00, 5.19863749e+00, 6.45344973e+00,
          5.58924913e+00, 6.33420849e+00, 6.22348928e+00, 4.91059494e+00,
          5.52596188e+00, 6.35218763e+00, 6.06796217e+00, 4.95798159e+00,
          6.06240273e+00, 7.73963547e+00, 4.03441238e+00, 5.80738306e+00,
          7.67128897e+00, 5.84609079e+00, 7.56138420e+00, 7.58591270e+00,
          4.78950453e+00, 5.94100618e+00, 5.75534153e+00, 7.37966824e+00,
          6.50343037e+00, 7.07731295e+00, 5.75952387e+00, 7.20859051e+00,
          7.03555250e+00, 4.81873274e+00, 6.98765850e+00, 6.47415972e+00,
          6.88661385e+00, 5.82447577e+00, 7.07638359e+00, 6.27948856e+00,
          7.21628141e+00, 4.85911512e+00, 6.55244017e+00, 5.67831993e+00,
          6.69101954e+00 ]
      - [ 6.32313251e+00, 4.48264837e+00, 7.80382347e+00, 6.66539001e+00,
          5.63448858e+00, 5.03844023e+00, 3.87883639e+00, 5.47687101e+00,
          4.21530485e+00, 5.22427225e+00, 5.42417860e+00, 3.00906157e+00,
          4.10520601e+00, 5.15117407e+00, 5.14270592e+00, 3.59521174e+00,
          5.03197765e+00, 7.28366709e+00, 3.83954859e+00, 5.03112316e+00,
          6.81657839e+00, 4.91645908e+00, 6.20034170e+00, 7.17075920e+00,
          3.45492387e+00, 5.13978672e+00, 4.83801985e+00, 6.01702595e+00,
          5.95208025e+00, 5.69723606e+00, 4.97169447e+00, 6.19587421e+00,
          5.86840343e+00, 3.43560362e+00, 6.14716816e+00, 5.70386028e+00,
          5.58859730e+00, 4.77923822e+00, 5.92913294e+00, 5.66341686e+00,
          6.04846478e+00, 3.45041251e+00, 5.40550804e+00, 4.68849897e+00,
          6.00331926e+00 ]
      - [ 6.22560072e+00, 4.48856831e+00, 7.63383389e+00, 6.45433617e+00,
          5.76008463e+00, 4.79800415e+00, 2.88211727e+00, 5.28512526e+00,
          4.11148930e+00, 5.22957850e+00, 4.87197018e+00, 3.74545145e+00,
          4.55360746e+00, 5.38282108e+00, 4.99912977e+00, 3.55661798e+00,
          5.10891199e+00, 7.27494335e+00, 3.77986383e+00, 5.14232254e+00,
          6.78843927e+00, 5.01047134e+00, 6.71508455e+00, 6.80402184e+00,
          3.44915819e+00, 4.87926102e+00, 4.52047300e+00, 6.62061405e+00,
          5.83975458e+00, 6.55481720e+00, 4.82382298e+00, 6.23583651e+00,
          5.99703360e+00, 3.59877348e+00, 6.24079943e+00, 5.68319702e+00,
          5.60552502e+00, 4.83200741e+00, 6.21977043e+00, 5.48551369e+00,
          6.08570004e+00, 3.45726538e+00, 5.36174393e+00, 4.66537380e+00,
          5.78138781e+00 ]
      - [ 8.00969315e+00, 7.15547657e+00, 9.35694504e+00, 8.90249538e+00,
          7.80615616e+00, 7.64346647e+00, 6.78847742e+00, 8.29015350e+00,
          6.95187330e+00, 7.89646101e+00, 7.52066135e+00, 6.62699032e+00,
          7.27495098e+00, 8.02383614e+00, 7.76424789e+00, 6.81380272e+00,
          7.39198256e+00, 0., 6.79861403e+00, 7.85658646e+00,
          8.40725517e+00, 7.42078447e+00, 8.56375408e+00, 8.96630859e+00,
          6.66682386e+00, 7.66039467e+00, 7.35864353e+00, 8.88391304e+00,
          7.76060820e+00, 8.19324589e+00, 7.49918604e+00, 8.10927010e+00,
          8.19635773e+00, 6.63860703e+00, 8.14577198e+00, 7.69893265e+00,
          8.09272671e+00, 7.58193684e+00, 8.35538864e+00, 7.59086657e+00,
          8.51733112e+00, 6.71282816e+00, 8.17230606e+00, 7.40426111e+00,
          8.21454334e+00 ]
      - [ 6.44271612e+00, 4.95482635e+00, 7.64716339e+00, 6.68281603e+00,
          5.80167627e+00, 5.27355766e+00, 4.26495171e+00, 5.61683226e+00,
          4.42792177e+00, 5.65183067e+00, 4.93125153e+00, 3.89589071e+00,
          4.49113512e+00, 5.42044783e+00, 5.49908543e+00, 3.99850655e+00,
          5.12722635e+00, 7.66039467e+00, 4.20788479e+00, 5.05396557e+00,
          6.83595610e+00, 5.14743805e+00, 6.68063784e+00, 7.44934702e+00,
          3.88106179e+00, 0., 5.02391243e+00, 6.49658251e+00,
          6.33684969e+00, 6.78434038e+00, 5.01872587e+00, 6.43950033e+00,
          6.22765636e+00, 4.05695009e+00, 6.44280005e+00, 5.75915575e+00,
          5.85844660e+00, 5.06250858e+00, 5.63226604e+00, 5.84179163e+00,
          5.83370876e+00, 3.76848030e+00, 5.51864719e+00, 5.02788639e+00,
          6.19664288e+00 ]
      - [ 7.55215883e+00, 6.79088068e+00, 8.54897308e+00, 0.,
          7.02041578e+00, 6.81884766e+00, 5.97988176e+00, 7.28368568e+00,
          6.05749655e+00, 7.12447405e+00, 7.06330919e+00, 5.87680244e+00,
          6.31148386e+00, 7.15609789e+00, 6.65763712e+00, 5.79258585e+00,
          6.65082502e+00, 8.90249538e+00, 6.05525923e+00, 6.73720837e+00,
          8.45288086e+00, 6.40533781e+00, 8.14879322e+00, 8.49528790e+00,
          5.88065624e+00, 6.68281603e+00, 6.30552292e+00, 8.11237812e+00,
          7.12280655e+00, 8.12051010e+00, 6.58585691e+00, 7.66233063e+00,
          7.67913485e+00, 5.82412481e+00, 7.47937489e+00, 7.40975237e+00,
          7.36984062e+00, 6.16905499e+00, 7.61393738e+00, 7.38619471e+00,
          7.92855978e+00, 5.74127817e+00, 6.83450413e+00, 6.39289999e+00,
          7.47087812e+00 ]
      - [ 6.78348780e+00, 4.77669573e+00, 7.89872551e+00, 6.70500898e+00,
          5.86038828e+00, 5.32832050e+00, 4.24061108e+00, 5.60852385e+00,
          4.51459551e+00, 5.64906883e+00, 5.10548449e+00, 3.96212578e+00,
          4.65826511e+00, 5.29334974e+00, 5.27187443e+00, 3.36709332e+00,
          5.22122192e+00, 7.65240574e+00, 4.14650774e+00, 5.24468422e+00,
          6.82675648e+00, 5.27409029e+00, 6.64152479e+00, 7.40250874e+00,
          3.82199860e+00, 4.96448946e+00, 4.87414408e+00, 6.39732027e+00,
          6.07529831e+00, 6.22038984e+00, 5.08364630e+00, 6.52493048e+00,
          6.20474625e+00, 3.83730507e+00, 6.33542252e+00, 5.71626329e+00,
          6.00591993e+00, 5.30896187e+00, 5.68644476e+00, 5.86433554e+00,
          6.32288980e+00, 3.82083058e+00, 5.51937151e+00, 4.78818512e+00,
          6.38357115e+00 ]
      - [ 7.06798315e+00, 5.19905853e+00, 8.66614532e+00, 7.28368568e+00,
          6.02522087e+00, 5.71915960e+00, 4.64070415e+00, 0.,
          4.95390797e+00, 5.92869139e+00, 5.63516331e+00, 4.52151155e+00,
          5.13325596e+00, 5.78124905e+00, 5.82792044e+00, 4.37310362e+00,
          5.75776720e+00, 8.29015350e+00, 4.64430904e+00, 5.33080626e+00,
          6.89973259e+00, 5.84690189e+00, 6.94326067e+00, 7.47352743e+00,
          4.42941093e+00, 5.61683226e+00, 5.65135574e+00, 6.43403101e+00,
          6.83459568e+00, 6.86703682e+00, 5.72393036e+00, 6.60700178e+00,
          6.32707548e+00, 4.61187744e+00, 6.80512238e+00, 6.31640863e+00,
          6.59087420e+00, 5.45746326e+00, 6.57035875e+00, 6.16664648e+00,
          6.35108852e+00, 4.43901253e+00, 5.91318274e+00, 5.33995581e+00,
          6.19025993e+00 ]
      - [ 6.25253582e+00, 5.02883196e+00, 8.07437515e+00, 6.52634668e+00,
          5.52120972e+00, 5.23911524e+00, 4.18621588e+00, 5.63641596e+00,
          4.44439411e+00, 5.56899309e+00, 5.37605715e+00, 4.10653734e+00,
          4.49451637e+00, 5.48193884e+00, 5.43424034e+00, 4.00317669e+00,
          5.10054016e+00, 7.65484858e+00, 4.28304911e+00, 5.28182697e+00,
          7.18002129e+00, 5.24454880e+00, 6.60108423e+00, 7.45200539e+00,
          3.75557637e+00, 5.26811981e+00, 4.74209499e+00, 6.19620657e+00,
          5.94680309e+00, 6.39369822e+00, 4.95921898e+00, 6.34552860e+00,
          6.20157957e+00, 3.42618275e+00, 6.64117861e+00, 5.93868589e+00,
          5.86438274e+00, 5.15078497e+00, 6.01083612e+00, 5.89269161e+00,
          6.11222649e+00, 3.88807845e+00, 5.42768049e+00, 5.03958321e+00,
          5.93296814e+00 ]
      - [ 6.07932281e+00, 4.61982965e+00, 7.81378937e+00, 6.30552292e+00,
          5.62748337e+00, 4.89159250e+00, 3.91459394e+00, 5.65135574e+00,
          4.26850700e+00, 5.33694315e+00, 5.14369392e+00, 3.62063527e+00,
          4.50867701e+00, 4.95288992e+00, 4.72767544e+00, 3.53306842e+00,
          4.85107231e+00, 7.35864353e+00, 3.85097647e+00, 4.81595421e+00,
          6.85767651e+00, 4.67614222e+00, 6.62063837e+00, 6.76763344e+00,
          3.46692562e+00, 5.02391243e+00, 0., 6.56398773e+00,
          5.69798088e+00, 6.40308475e+00, 4.58631802e+00, 6.34720182e+00,
          6.13343716e+00, 3.39156818e+00, 6.24170637e+00, 5.63386297e+00,
          5.81169319e+00, 4.96109533e+00, 6.02052689e+00, 5.74279308e+00,
          6.04663420e+00, 3.34629464e+00, 5.17820740e+00, 4.76223993e+00,
          5.73995352e+00 ]
      - [ 6.95046568e+00, 5.19297218e+00, 8.20404530e+00, 7.12727547e+00,
          6.47734690e+00, 5.20863533e+00, 4.71975374e+00, 5.70687580e+00,
          5.13217831e+00, 5.97265244e+00, 6.14013958e+00, 4.45317221e+00,
          5.13068008e+00, 5.80551720e+00, 5.64906406e+00, 4.57918930e+00,
          5.78067350e+00, 7.88068295e+00, 4.50827789e+00, 5.57625532e+00,
          7.26915932e+00, 5.52972794e+00, 7.06561756e+00, 7.75686121e+00,
          3.84240413e+00, 5.94769812e+00, 5.22378635e+00, 6.96437073e+00,
          6.39509535e+00, 6.69737673e+00, 5.66506004e+00, 7.01352167e+00,
          6.67685509e+00, 4.34993982e+00, 6.51234913e+00, 6.07249594e+00,
          6.47097015e+00, 5.43622637e+00, 6.92661381e+00, 5.85776424e+00,
          6.58948374e+00, 4.41657925e+00, 5.93192244e+00, 5.19046354e+00,
          6.62619686e+00 ]
      - [ 6.00217009e+00, 4.27099895e+00, 7.56289530e+00, 6.25907993e+00,
          5.38966703e+00, 4.74834204e+00, 3.52821565e+00, 5.14305449e+00,
          3.91684771e+00, 5.20088482e+00, 4.81812382e+00, 3.17222500e+00,
          4.17017698e+00, 4.77395010e+00, 4.86437416e+00, 3.14732194e+00,
          4.64632511e+00, 7.41362095e+00, 3.46140361e+00, 4.70046711e+00,
          6.49232340e+00, 4.60311604e+00, 6.07388830e+00, 7.10580635e+00,
          3.00398397e+00, 4.51170111e+00, 4.35068130e+00, 5.89289570e+00,
          5.67313480e+00, 6.02373600e+00, 4.41568327e+00, 6.02251244e+00,
          5.66335106e+00, 3.11653137e+00, 5.95310879e+00, 5.22842693e+00,
          5.41331768e+00, 4.38436890e+00, 5.68686056e+00, 5.47425413e+00,
          5.71012688e+00, 2.41589046e+00, 5.00741005e+00, 4.60630083e+00,
          5.47437954e+00 ]
      - [ 6.49586868e+00, 4.78735828e+00, 7.92509031e+00, 6.98226738e+00,
          5.90546227e+00, 5.37371063e+00, 4.29728794e+00, 5.73103476e+00,
          4.28107595e+00, 5.53712463e+00, 5.21437979e+00, 3.89667964e+00,
          4.56411362e+00, 5.24842644e+00, 5.09922028e+00, 3.88028383e+00,
          5.31451988e+00, 7.60877609e+00, 4.02025747e+00, 5.03886509e+00,
          6.96843433e+00, 5.28445005e+00, 6.88182640e+00, 7.17451429e+00,
          3.84286189e+00, 5.13335419e+00, 4.78221607e+00, 6.31071901e+00,
          6.24299002e+00, 6.23572874e+00, 5.08605194e+00, 6.51498556e+00,
          6.26795530e+00, 3.36018348e+00, 6.46837664e+00, 6.12674904e+00,
          6.08306313e+00, 5.32543182e+00, 6.11808920e+00, 5.73136759e+00,
          6.48295403e+00, 3.80665445e+00, 5.45788813e+00, 4.82087803e+00,
          6.18814278e+00 ]
      - [ 6.36007023e+00, 4.94458914e+00, 7.92261314e+00, 7.06330919e+00,
          5.60890198e+00, 5.40342045e+00, 4.43686390e+00, 5.63516331e+00,
          4.60746098e+00, 5.77518225e+00, 0., 4.21135998e+00,
          4.85935116e+00, 5.26560545e+00, 5.59412718e+00, 4.07203293e+00,
          5.48745775e+00, 7.52066135e+00, 4.39200497e+00, 5.24283409e+00,
          6.92073727e+00, 5.22424126e+00, 6.81973600e+00, 7.44579506e+00,
          4.13499737e+00, 4.93125153e+00, 5.14369392e+00, 6.76098251e+00,
          6.12381077e+00, 6.88802814e+00, 5.23037958e+00, 6.56346846e+00,
          6.55339622e+00, 4.24357319e+00, 6.62253475e+00, 6.16013479e+00,
          6.21758270e+00, 5.32409000e+00, 5.92545605e+00, 6.06557560e+00,
          6.20780802e+00, 4.09030008e+00, 5.51099110e+00, 5.28052092e+00,
          5.78199625e+00 ]
      - [ 7.21100807e+00, 5.80155611e+00, 8.43431377e+00, 7.47087812e+00,
          6.52877617e+00, 6.03905153e+00, 5.22626352e+00, 6.19025993e+00,
          5.64103460e+00, 6.57417202e+00, 5.78199625e+00, 5.06887531e+00,
          5.76893330e+00, 6.03926229e+00, 6.06557560e+00, 5.10707235e+00,
          6.33577204e+00, 8.21454334e+00, 5.18952274e+00, 6.16595793e+00,
          7.65042925e+00, 6.15371799e+00, 6.93084192e+00, 8.04104424e+00,
          4.94072247e+00, 6.19664288e+00, 5.73995352e+00, 7.18478155e+00,
          7.01769257e+00, 7.26084471e+00, 6.03720713e+00, 7.21932602e+00,
          6.73124027e+00, 5.00105715e+00, 6.99126959e+00, 6.80254745e+00,
          6.83890915e+00, 5.78006792e+00, 6.68847322e+00, 6.70885229e+00,
          6.60465336e+00, 5.00713873e+00, 6.58661318e+00, 5.92261839e+00,
          0. ]
      - [ 6.54646063e+00, 4.84838772e+00, 8.04211903e+00, 7.15609789e+00,
          5.68724966e+00, 5.52166653e+00, 4.54146433e+00, 5.78124905e+00,
          4.69532633e+00, 5.91537333e+00, 5.26560545e+00, 4.13506699e+00,
          4.91287041e+00, 0., 5.11784887e+00, 4.09415102e+00,
          5.38999605e+00, 8.02383614e+00, 4.60817194e+00, 4.97619152e+00,
          6.60563517e+00, 5.47506618e+00, 6.89052105e+00, 7.41659546e+00,
          4.11204672e+00, 5.42044783e+00, 4.95288992e+00, 6.37243128e+00,
          6.50814152e+00, 6.91460943e+00, 5.20035648e+00, 6.87149858e+00,
          6.57519245e+00, 4.11095238e+00, 6.77784204e+00, 6.10306168e+00,
          6.28547668e+00, 5.30497456e+00, 6.07009840e+00, 5.97205353e+00,
          5.98246956e+00, 3.98350501e+00, 5.38159609e+00, 5.26551533e+00,
          6.03926229e+00 ]
      - [ 6.07173681e+00, 4.25295782e+00, 7.52725029e+00, 6.20843935e+00,
          5.45642185e+00, 4.72120428e+00, 3.69925451e+00, 5.21953058e+00,
          3.99991989e+00, 4.96324635e+00, 4.86838627e+00, 3.28585792e+00,
          4.11692524e+00, 4.84344578e+00, 4.49689627e+00, 3.22692800e+00,
          4.77234697e+00, 7.23963261e+00, 3.60969949e+00, 4.66370583e+00,
          6.64296770e+00, 4.55717325e+00, 6.47870827e+00, 6.96401215e+00,
          3.08876419e+00, 4.92244482e+00, 4.26116657e+00, 6.13349771e+00,
          5.59223318e+00, 6.23072052e+00, 4.65860701e+00, 6.13599491e+00,
          6.03887558e+00, 3.06574702e+00, 6.12638807e+00, 5.48282814e+00,
          5.66606474e+00, 4.42797995e+00, 5.71488094e+00, 5.32843781e+00,
          6.13772869e+00, 2.76292205e+00, 5.24856091e+00, 4.43524837e+00,
          5.71916771e+00 ]
      - [ 7.54643250e+00, 6.23881912e+00, 8.78735733e+00, 8.11237812e+00,
          6.96137047e+00, 6.80477095e+00, 5.65095711e+00, 6.43403101e+00,
          5.71219540e+00, 6.70838642e+00, 6.76098251e+00, 5.45517492e+00,
          5.54698324e+00, 6.37243128e+00, 6.50131226e+00, 5.48072767e+00,
          6.41703653e+00, 8.88391304e+00, 5.91446543e+00, 6.41687298e+00,
          7.44724941e+00, 6.62814951e+00, 6.91177416e+00, 8.18943214e+00,
          5.42159033e+00, 6.49658251e+00, 6.56398773e+00, 0.,
          7.44272995e+00, 7.05466557e+00, 6.56984854e+00, 7.36916924e+00,
          7.18838024e+00, 5.39315510e+00, 7.55912399e+00, 6.97181702e+00,
          7.05645561e+00, 6.48213196e+00, 7.07689190e+00, 7.01675987e+00,
          6.92808723e+00, 5.43016243e+00, 6.72269869e+00, 6.10726357e+00,
          7.18478155e+00 ]
      - [ 6.03946161e+00, 4.24526072e+00, 7.68141842e+00, 6.24268913e+00,
          5.35625601e+00, 4.75131130e+00, 3.53845382e+00, 5.14151001e+00,
          4.02813339e+00, 5.18537569e+00, 4.99232292e+00, 3.23726773e+00,
          4.22640324e+00, 4.74813843e+00, 4.85721111e+00, 3.19574547e+00,
          4.65582085e+00, 7.35997009e+00, 3.54146218e+00, 4.83097029e+00,
          6.61706686e+00, 4.64121294e+00, 6.20966005e+00, 7.08897829e+00,
          3.09107542e+00, 4.75905371e+00, 4.37630463e+00, 5.88288927e+00,
          5.87210655e+00, 6.00685549e+00, 4.33255863e+00, 5.99425888e+00,
          5.62900114e+00, 3.17710829e+00, 6.05714798e+00, 5.26695395e+00,
          5.39354324e+00, 4.43389273e+00, 5.72209978e+00, 5.60373545e+00,
          5.60616159e+00, 2.47326922e+00, 5.11871338e+00, 4.57317209e+00,
          5.62643814e+00 ]
      - [ 7.67551327e+00, 5.99939394e+00, 8.54848194e+00, 8.25396156e+00,
          7.05292034e+00, 6.21341133e+00, 5.57152510e+00, 6.45032787e+00,
          5.89831257e+00, 6.37576532e+00, 6.25020361e+00, 5.55842161e+00,
          5.89702702e+00, 6.97701073e+00, 6.79951954e+00, 5.53346634e+00,
          6.61694384e+00, 8.42414951e+00, 4.61281586e+00, 6.36977482e+00,
          7.80814028e+00, 6.60684156e+00, 7.16465616e+00, 7.71071243e+00,
          5.38833618e+00, 6.51275063e+00, 6.28573465e+00, 7.66506100e+00,
          6.90393877e+00, 7.63608122e+00, 6.44779396e+00, 7.12050247e+00,
          7.05015802e+00, 5.46885061e+00, 7.41751432e+00, 7.26122046e+00,
          6.96483231e+00, 6.51638556e+00, 7.13598156e+00, 7.12253237e+00,
          7.74989557e+00, 5.42498446e+00, 6.82034397e+00, 6.24024916e+00,
          7.04848528e+00 ]
      - [ 8.55885410e+00, 6.93388653e+00, 9.55317116e+00, 8.49528790e+00,
          7.78223610e+00, 7.38188410e+00, 6.56808472e+00, 7.47352743e+00,
          6.59429789e+00, 7.43576813e+00, 7.44579506e+00, 6.38700771e+00,
          7.00663805e+00, 7.41659546e+00, 7.50536633e+00, 6.34640694e+00,
          7.24850655e+00, 8.96630859e+00, 6.49976635e+00, 7.22279024e+00,
          8.36338520e+00, 7.48490143e+00, 8.38465405e+00, 0.,
          6.47356844e+00, 7.44934702e+00, 6.76763344e+00, 8.18943214e+00,
          8.03304195e+00, 8.33013058e+00, 6.99902821e+00, 8.23004055e+00,
          8.02459908e+00, 6.43627882e+00, 8.33460712e+00, 7.91533756e+00,
          7.54972982e+00, 7.26361227e+00, 8.46761608e+00, 7.64392710e+00,
          8.33539867e+00, 6.47735882e+00, 7.43400669e+00, 7.09829187e+00,
          8.04104424e+00 ]
      - [ 6.12949085e+00, 4.25617361e+00, 7.85513067e+00, 6.14356089e+00,
          5.13756847e+00, 4.69872856e+00, 3.39293218e+00, 4.89096212e+00,
          3.95364094e+00, 4.82152081e+00, 4.92558050e+00, 3.00322127e+00,
          4.17133474e+00, 4.68637800e+00, 4.60873985e+00, 3.19022632e+00,
          4.99033356e+00, 7.22091722e+00, 3.50070596e+00, 4.72697067e+00,
          6.61630726e+00, 4.71316099e+00, 6.17382431e+00, 6.73368168e+00,
          3.06291342e+00, 4.57727385e+00, 4.07327461e+00, 6.05579519e+00,
          5.70053530e+00, 6.08418798e+00, 4.41859198e+00, 5.93469667e+00,
          5.91605186e+00, 3.11715651e+00, 6.16118622e+00, 5.35958767e+00,
          5.58887243e+00, 4.51421738e+00, 5.57873106e+00, 5.30525780e+00,
          5.64306545e+00, 2.59189105e+00, 4.93854666e+00, 4.30198145e+00,
          5.74405575e+00 ]
      - [ 7.19899130e+00, 5.89551735e+00, 8.75055218e+00, 7.61393738e+00,
          6.45867252e+00, 6.17374468e+00, 5.48208284e+00, 6.57035875e+00,
          5.64985657e+00, 6.82137442e+00, 5.92545605e+00, 5.13269472e+00,
          5.35488129e+00, 6.07009840e+00, 6.47847795e+00, 5.05524874e+00,
          6.15527201e+00, 8.35538864e+00, 5.29222441e+00, 6.11822462e+00,
          7.85721588e+00, 6.32502890e+00, 6.92441559e+00, 8.46761608e+00,
          5.03592777e+00, 5.63226604e+00, 6.02052689e+00, 7.07689190e+00,
          6.98458815e+00, 7.23022938e+00, 6.06718397e+00, 6.21301842e+00,
          7.58481932e+00, 5.16318226e+00, 6.79260111e+00, 6.63306189e+00,
          6.85950089e+00, 6.00608349e+00, 0., 6.87821198e+00,
          6.23803806e+00, 4.94747496e+00, 6.41874599e+00, 5.98502350e+00,
          6.68847322e+00 ]
      - [ 6.35135937e+00, 4.79014301e+00, 7.59970856e+00, 6.16905499e+00,
          5.65718651e+00, 5.43562365e+00, 4.07424021e+00, 5.45746326e+00,
          4.52553701e+00, 5.57005072e+00, 5.32409000e+00, 3.79221892e+00,
          4.53210735e+00, 5.30497456e+00, 5.11160183e+00, 3.95955873e+00,
          5.00419283e+00, 7.58193684e+00, 3.99463224e+00, 5.19607592e+00,
          7.21859694e+00, 4.89543104e+00, 6.15633488e+00, 7.26361227e+00,
          3.73488140e+00, 5.06250858e+00, 4.96109533e+00, 6.48213196e+00,
          6.21115255e+00, 6.38141537e+00, 4.94399834e+00, 6.42134857e+00,
          6.16930056e+00, 3.87926865e+00, 6.42185497e+00, 5.55516386e+00,
          6.16010141e+00, 0., 6.00608349e+00, 5.72405958e+00,
          6.30672693e+00, 3.63652420e+00, 5.55098438e+00, 4.77363014e+00,
          5.78006792e+00 ]
      - [ 6.31821394e+00, 4.86913824e+00, 8.04966736e+00, 6.96691990e+00,
          5.61840105e+00, 5.44351768e+00, 4.39390230e+00, 5.32871914e+00,
          4.37220573e+00, 5.40269852e+00, 5.46929073e+00, 3.99684620e+00,
          4.76614761e+00, 5.50268078e+00, 5.45909595e+00, 3.33557200e+00,
          5.34435463e+00, 7.73573685e+00, 4.31540871e+00, 4.97918653e+00,
          6.96263075e+00, 5.30726099e+00, 6.54452515e+00, 6.96389103e+00,
          3.94368196e+00, 5.28236914e+00, 5.05470085e+00, 6.23431492e+00,
          6.27893114e+00, 6.44230270e+00, 5.36473846e+00, 6.69560528e+00,
          5.85406780e+00, 3.98483634e+00, 6.45043039e+00, 6.14567518e+00,
          6.19680834e+00, 5.23529291e+00, 6.11931849e+00, 5.89744425e+00,
          6.46997881e+00, 3.92958713e+00, 5.53710556e+00, 4.84452200e+00,
          6.06680822e+00 ]
   decision_functions:
      -
         sv_count: 60
         rho: -2.2822079932414899e-01
         alpha: [ 1.1416558545832729e+00, 7.7177918557016090e-01,
             1.1640590194555496e+00, 7.7177917662923046e-01,
             7.7177917277330732e-01, 7.9615836763746672e-01,
             7.7177923099908818e-01, 7.7177918852411087e-01,
             1.0499533560179029e+00, 1.7451479851910738e+00,
             7.7177915518696305e-01, 2.1379405519865227e+00,
             7.7177916373814159e-01, 8.2710770427523073e-01,
             7.7177919317554067e-01, 2.4048924974336305e+00,
             7.7177920906073860e-01, 7.5613701271091738e-01,
             7.7177904169613609e-01, 7.7177921016737849e-01,
             7.7177921678438000e-01, 7.7178014056734967e-01,
             7.9614552220182244e-01, 7.7177969789131773e-01,
             7.7177917659441231e-01, 7.7162728332087227e-01,
             7.6111839949148952e-01, 7.7177915025571786e-01,
             3.1613110489017533e+00, 7.7178436348613977e-01,
             -1.2282188590984073e+00, -1.1352374320026013e+00,
             -1.6358481372135905e+00, -2.4461931998453084e+00,
             -1.0575009060196630e+00, -2.0878913984149411e-01,
             -1.2282207909391847e+00, -9.5370985635109762e-01,
             -1.1002230445831105e+00, -9.9336125768365269e-01,
             -1.2282203336384405e+00, -1.1809946991740583e+00,
             -1.2282212639791967e+00, -5.5104101286689444e-01,
             -6.6579903558760933e-01, -1.2282208004844746e+00,
             -5.9829995530345836e-01, -1.2282208318601437e+00,
             -1.2282207916450820e+00, -8.0612972789796666e-01,
             -9.3245027103821132e-01, -7.1464337679712853e-01,
             -7.1710462115447027e-01, -1.2282205477168684e+00,
             -7.7923190273630683e-01, -9.2955936355421664e-01,
             -9.2538658378795846e-01, -5.9455878001798068e-01,
             -1.2282208302947328e+00, -6.5345992319431012e-01 ]
         index: [ 33, 1, 2, 79, 4, 5, 41, 36, 32, 9, 49, 89, 50, 54, 58,
             59, 63, 64, 78, 68, 20, 69, 44, 55, 82, 25, 84, 85, 86, 88,
             3, 6, 8, 34, 12, 35, 22, 15, 16, 17, 18, 19, 42, 39, 26, 40,
             28, 29, 72, 73, 75, 77, 23, 80, 81, 30, 66, 61, 62, 46 ]
      -
         sv_count: 60
         rho: -1.8162140800011281e-01
         alpha: [ 1.1168983109348785e+00, 8.1837861860584538e-01,
             1.2164606417769821e+00, 8.1837863562609603e-01,
             8.1837853505697733e-01, 8.5506907389256404e-01,
             8.1837849563756537e-01, 8.1837862277751883e-01,
             1.4913663289279733e+00, 1.2284152135666970e+00,
             8.1837862429408370e-01, 1.6949567417301006e+00,
             8.1837862958040486e-01, 8.6985887743190193e-01,
             8.1837858173437961e-01, 2.2097305803327241e+00,
             8.1837863264670552e-01, 8.0166133959321795e-01,
             8.1837861897489983e-01, 8.1837856420486443e-01,
             8.1837857632933475e-01, 8.1838167797167460e-01,
             8.2217900142583156e-01, 8.1837876852990055e-01,
             8.1837862816733042e-01, 8.1821717911364100e-01,
             8.1003094378526153e-01, 8.1837862311853438e-01,
             1.9529478873450439e+00, 8.1838441664489048e-01,
             -1.1816213956298778e+00, -1.7100207487746395e+00,
             -1.2573593117353949e+00, -8.9212308316361200e-01,
             -1.1816166610727161e+00, -1.0679543784974417e+00,
             -1.1815413886274162e+00, -8.8902872665904031e-01,
             -8.6330970157417375e-01, -7.2927389454175029e-01,
             -1.1816213772222721e+00, -8.2594080492736133e-01,
             -8.1466359641183428e-01, -5.5764229591606496e-01,
             -1.1815687894116109e+00, -7.1377411804638224e-01,
             -1.2244545681946954e+00, -1.1816068173878007e+00,
             -1.1816214373498755e+00, -4.9263703873325027e-01,
             -1.1816213704191749e+00, -3.4637144011239601e-01,
             -1.1816194051241640e+00, -9.3405067670259845e-01,
             -8.0168468854781727e-01, -8.9554341932367931e-01,
             -1.3494699656383282e+00, -1.1816213918767351e+00,
             -7.8638690464932770e-01, -8.3248797348639170e-01 ]
         index: [ 33, 1, 2, 79, 4, 5, 41, 36, 32, 9, 49, 89, 50, 54, 58,
             59, 63, 64, 78, 68, 20, 69, 44, 55, 82, 25, 84, 85, 86, 88,
             60, 27, 31, 37, 38, 65, 43, 0, 7, 47, 70, 71, 48, 10, 74,
             13, 76, 51, 45, 52, 53, 14, 21, 83, 56, 57, 11, 87, 24, 67 ]
      -
         sv_count: 60
         rho: 8.1313112200792181e-02
         alpha: [ 1.0813138954973744e+00, 1.4747579601343943e+00,
             1.8242979378866764e+00, 1.2915710956109272e+00,
             1.5301748847529837e+00, 2.0341436995086766e+00,
             1.0813130655743668e+00, 1.3119829550942830e+00,
             1.6027374993478356e+00, 1.2056088385853105e+00,
             1.0813131218569667e+00, 1.0719692267528655e+00,
             1.0813110916746389e+00, 2.1084826410062019e+00,
             1.6514170734862701e+00, 1.0813131249267347e+00,
             2.3782520494556882e+00, 1.0813131258327575e+00,
             1.0813130396112782e+00, 6.6287825794085908e-01,
             1.2173809314060653e+00, 1.5685129286950361e+00,
             1.8567924430189986e+00, 1.0813127074118196e+00,
             1.5232052132846972e+00, 2.2432440463514922e+00,
             1.3058196520210343e+00, 1.3356848813042801e+00,
             1.0813130959176118e+00, 1.4693251185906628e+00,
             -9.1868686791994980e-01, -1.9577397149375033e+00,
             -9.6947699404171339e-01, -1.3865182515781627e+00,
             -9.1868136841413117e-01, -1.2974204982940205e+00,
             -9.1875901731069209e-01, -1.1892307908678585e+00,
             -1.3591178653270024e+00, -2.2759075334971390e+00,
             -9.1868694906696502e-01, -2.3626160493254686e+00,
             -2.0301222859662036e+00, -1.7872874710150748e+00,
             -9.1862264548624040e-01, -9.8067301861528078e-01,
             -2.5903172102643528e+00, -9.1864316430549009e-01,
             -9.1868689041217555e-01, -2.0595762733588954e+00,
             -9.1868689596563002e-01, -2.3837516032189998e+00,
             -9.1868849899770300e-01, -1.2533617776158419e+00,
             -1.7086693564147524e+00, -1.0150612076799730e+00,
             -1.9321356989740073e+00, -9.1868686984236780e-01,
             -1.6984561992617304e+00, -9.7578663456346781e-01 ]
         index: [ 3, 6, 8, 34, 12, 35, 22, 15, 16, 17, 18, 19, 42, 39,
             26, 40, 28, 29, 72, 73, 75, 77, 23, 80, 81, 30, 66, 61, 62,
             46, 60, 27, 31, 37, 38, 65, 43, 0, 7, 47, 70, 71, 48, 10,
             74, 13, 76, 51, 45, 52, 53, 14, 21, 83, 56, 57, 11, 87, 24,
             67 ]
