%YAML:1.0
---
opencv_ml_svm:
   format: 3
   svmType: C_SVC
   kernel:
      type: RBF
      gamma: 5.0624999999999998e-01
   C: 1.2500000000000000e+01
   term_criteria: { epsilon:1.1920928955078125e-07, iterations:1000 }
   var_count: 5
   class_count: 3
   class_labels: !!opencv-matrix
      rows: 3
      cols: 1
      dt: i
      data: [ 0, 1, 2 ]
   sv_total: 98
   support_vectors:
      - [ 0., 0., 1., 0., 0. ]
      - [ 0., 1., 0., 0., 0. ]
      - [ 0., 1., 0., 0., 0. ]
      - [ 0., 0., 1., 0., 0. ]
      - [ 0., 1., 0., 0., 0. ]
      - [ 0., 0., 1., 0., 0. ]
      - [ 0., 1., 0., 0., 0. ]
      - [ 0., 0., 1., 0., 0. ]
      - [ 0., 1., 0., 0., 0. ]
      - [ 0., 0., 0., 1., 0. ]
      - [ 0., 1., 0., 0., 0. ]
      - [ 0., 0., 1., 0., 0. ]
      - [ 0., 1., 0., 0., 0. ]
      - [ 0., 1., 0., 0., 0. ]
      - [ 0., 1., 0., 0., 0. ]
      - [ 0., 1., 0., 0., 0. ]
      - [ 0., 1., 0., 0., 0. ]
      - [ 0., 0., 1., 0., 0. ]
      - [ 0., 0., 1., 0., 0. ]
      - [ 0., 0., 1., 0., 0. ]
      - [ 0., 1., 0., 0., 0. ]
      - [ 0., 1., 0., 0., 0. ]
      - [ 0., 1., 0., 0., 0. ]
      - [ 0., 0., 1., 0., 0. ]
      - [ 0., 1., 0., 0., 0. ]
      - [ 0., 0., 0., 0., 1. ]
      - [ 0., 1., 0., 0., 0. ]
      - [ 0., 1., 0., 0., 0. ]
      - [ 0., 1., 0., 0., 0. ]
      - [ 0., 0., 1., 0., 0. ]
      - [ 0., 0., 1., 0., 0. ]
      - [ 0., 0., 1., 0., 0. ]
      - [ 0., 0., 1., 0., 0. ]
      - [ 0., 1., 0., 0., 0. ]
      - [ 0., 1., 0., 0., 0. ]
      - [ 0., 1., 0., 0., 0. ]
      - [ 0., 1., 0., 0., 0. ]
      - [ 0., 1., 0., 0., 0. ]
      - [ 1., 0., 0., 0., 0. ]
      - [ 0., 0., 1., 0., 0. ]
      - [ 0., 1., 0., 0., 0. ]
      - [ 0., 1., 0., 0., 0. ]
      - [ 0., 0., 1., 0., 0. ]
      - [ 0., 1., 0., 0., 0. ]
      - [ 0., 1., 0., 0., 0. ]
      - [ 0., 0., 1., 0., 0. ]
      - [ 0., 1., 0., 0., 0. ]
      - [ 0., 1., 0., 0., 0. ]
      - [ 0., 1., 0., 0., 0. ]
      - [ 0., 1., 0., 0., 0. ]
      - [ 0., 0., 1., 0., 0. ]
      - [ 0., 1., 0., 0., 0. ]
      - [ 0., 1., 0., 0., 0. ]
      - [ 0., 0., 1., 0., 0. ]
      - [ 0., 1., 0., 0., 0. ]
      - [ 0., 1., 0., 0., 0. ]
      - [ 0., 1., 0., 0., 0. ]
      - [ 0., 1., 0., 0., 0. ]
      - [ 0., 0., 1., 0., 0. ]
      - [ 0., 1., 0., 0., 0. ]
      - [ 0., 1., 0., 0., 0. ]
      - [ 0., 1., 0., 0., 0. ]
      - [ 0., 1., 0., 0., 0. ]
      - [ 0., 0., 1., 0., 0. ]
      - [ 0., 0., 1., 0., 0. ]
      - [ 0., 1., 0., 0., 0. ]
      - [ 0., 1., 0., 0., 0. ]
      - [ 0., 0., 1., 0., 0. ]
      - [ 0., 1., 0., 0., 0. ]
      - [ 0., 1., 0., 0., 0. ]
      - [ 0., 1., 0., 0., 0. ]
      - [ 0., 1., 0., 0., 0. ]
      - [ 0., 1., 0., 0., 0. ]
      - [ 0., 0., 1., 0., 0. ]
      - [ 0., 1., 0., 0., 0. ]
      - [ 0., 0., 1., 0., 0. ]
      - [ 0., 1., 0., 0., 0. ]
      - [ 0., 0., 1., 0., 0. ]
      - [ 0., 1., 0., 0., 0. ]
      - [ 0., 0., 0., 1., 0. ]
      - [ 0., 0., 1., 0., 0. ]
      - [ 0., 1., 0., 0., 0. ]
      - [ 0., 1., 0., 0., 0. ]
      - [ 0., 0., 1., 0., 0. ]
      - [ 0., 0., 1., 0., 0. ]
      - [ 0., 1., 0., 0., 0. ]
      - [ 0., 1., 0., 0., 0. ]
      - [ 0., 1., 0., 0., 0. ]
      - [ 0., 1., 0., 0., 0. ]
      - [ 0., 1., 0., 0., 0. ]
      - [ 0., 0., 0., 1., 0. ]
      - [ 0., 1., 0., 0., 0. ]
      - [ 0., 1., 0., 0., 0. ]
      - [ 0., 1., 0., 0., 0. ]
      - [ 0., 0., 1., 0., 0. ]
      - [ 0., 1., 0., 0., 0. ]
      - [ 0., 1., 0., 0., 0. ]
      - [ 0., 0., 1., 0., 0. ]
   decision_functions:
      -
         sv_count: 65
         rho: -1.9999999702397933e-01
         alpha: [ 1.2500000000000000e+01, 1.2500000000000000e+01,
             1.2500000000000000e+01, 1.2500000000000000e+01,
             1.2500000000000000e+01, 1.2500000000000000e+01,
             1.2500000000000000e+01, 1.2500000000000000e+01,
             1.2500000000000000e+01, 1.2500000000000000e+01,
             1.2564976968155732e+00, 1.2564976314472573e+00,
             1.2500000000000000e+01, 1.2500000000000000e+01,
             1.2500000000000000e+01, 1.2500000000000000e+01,
             1.2500000000000000e+01, 1.2500000000000000e+01,
             1.2500000000000000e+01, 1.2500000000000000e+01,
             1.2500000000000000e+01, 1.2500000000000000e+01,
             1.2500000000000000e+01, 1.2500000000000000e+01,
             1.2500000000000000e+01, 1.2500000000000000e+01,
             1.2500000000000000e+01, 1.2564975823327622e+00,
             1.2500000000000000e+01, 1.2500000000000000e+01,
             1.2500000000000000e+01, 1.2500000000000000e+01,
             1.2500000000000000e+01, -1.2499999100742059e+01,
             -1.2500000000000000e+01, -1.2500000000000000e+01,
             -1.2028813186005774e+01, -1.2500000000000000e+01,
             -1.2500000000000000e+01, -1.2500000000000000e+01,
             -1.2500000000000000e+01, -1.2500000000000000e+01,
             -1.2500000000000000e+01, -1.2500000000000000e+01,
             -1.2500000000000000e+01, -1.2500000000000000e+01,
             -1.2500000000000000e+01, -1.2500000000000000e+01,
             -1.2500000000000000e+01, -1.2500000000000000e+01,
             -1.2500000000000000e+01, -1.2500000000000000e+01,
             -1.2500000000000000e+01, -1.2500000000000000e+01,
             -1.2500000000000000e+01, -1.2500000000000000e+01,
             -1.2500000000000000e+01, -1.2500000000000000e+01,
             -1.2500000000000000e+01, -1.2500000000000000e+01,
             -1.2500000000000000e+01, -1.2500000000000000e+01,
             -1.8847473872399128e+00, -1.2500000000000000e+01,
             -2.3559332366078531e+00 ]
         index: [ 10, 63, 83, 27, 62, 5, 6, 37, 80, 8, 38, 9, 61, 56, 55,
             40, 14, 97, 73, 72, 70, 68, 66, 41, 64, 50, 47, 25, 84, 87,
             89, 93, 95, 12, 13, 21, 23, 24, 29, 30, 32, 33, 34, 35, 36,
             43, 44, 45, 46, 48, 22, 59, 65, 67, 76, 77, 81, 82, 1, 85,
             86, 3, 4, 94, 11 ]
      -
         sv_count: 65
         rho: -6.0000000332795356e-01
         alpha: [ 1.2499177775509748e+01, 1.2500000000000000e+01,
             1.2500000000000000e+01, 1.2500000000000000e+01,
             1.2500000000000000e+01, 1.2500000000000000e+01,
             1.2500000000000000e+01, 1.2500000000000000e+01,
             1.2500000000000000e+01, 1.2500000000000000e+01,
             6.2824878846099952e-01, 1.2500000000000000e+01,
             1.2500000000000000e+01, 1.2500000000000000e+01,
             1.2500000000000000e+01, 1.2500000000000000e+01,
             1.2500000000000000e+01, 1.2500000000000000e+01,
             1.2500000000000000e+01, 1.2500000000000000e+01,
             1.2500000000000000e+01, 1.2500000000000000e+01,
             1.2500000000000000e+01, 1.2500000000000000e+01,
             1.2500000000000000e+01, 1.2500000000000000e+01,
             1.2500000000000000e+01, 6.2824889706327247e-01,
             1.2500000000000000e+01, 1.2500000000000000e+01,
             1.2500000000000000e+01, 6.2824882272198079e-01,
             1.2500000000000000e+01, 6.2907101295125956e-01,
             -1.2500000000000000e+01, -1.2500000000000000e+01,
             -1.2500000000000000e+01, -1.2494618397264061e+01,
             -1.2500000000000000e+01, -1.2500000000000000e+01,
             -1.2500000000000000e+01, -1.2500000000000000e+01,
             -1.2500000000000000e+01, -1.2500000000000000e+01,
             -1.2500000000000000e+01, -1.2500000000000000e+01,
             -1.2500000000000000e+01, -1.2500000000000000e+01,
             -1.2500000000000000e+01, -1.2500000000000000e+01,
             -1.2500000000000000e+01, -1.2500000000000000e+01,
             -1.2500000000000000e+01, -1.2500000000000000e+01,
             -1.2500000000000000e+01, -1.2500000000000000e+01,
             -2.5183768994431959e+00, -1.2500000000000000e+01,
             -1.2500000000000000e+01, -1.2500000000000000e+01,
             -1.2500000000000000e+01, -1.2500000000000000e+01,
             -1.2500000000000000e+01, -1.2500000000000000e+01,
             -1.2500000000000000e+01 ]
         index: [ 10, 63, 83, 27, 62, 5, 6, 37, 80, 8, 38, 9, 61, 56, 55,
             40, 14, 97, 73, 72, 70, 68, 66, 41, 64, 50, 47, 25, 84, 87,
             89, 90, 93, 95, 51, 20, 52, 19, 69, 18, 71, 17, 16, 15, 74,
             75, 53, 54, 78, 79, 7, 39, 31, 2, 57, 58, 42, 60, 88, 49,
             28, 91, 92, 26, 96 ]
      -
         sv_count: 63
         rho: 3.3333333333333354e-01
         alpha: [ 1.2500000000000000e+01, 1.2500000000000000e+01,
             1.2500000000000000e+01, 1.2500000000000000e+01,
             1.2500000000000000e+01, 1.2500000000000000e+01,
             1.2500000000000000e+01, 1.2500000000000000e+01,
             1.2500000000000000e+01, 1.2500000000000000e+01,
             1.2500000000000000e+01, 1.2500000000000000e+01,
             1.2500000000000000e+01, 1.2500000000000000e+01,
             1.2500000000000000e+01, 1.2500000000000000e+01,
             1.2500000000000000e+01, 1.2500000000000000e+01,
             1.2500000000000000e+01, 1.2500000000000000e+01,
             1.2500000000000000e+01, 1.2500000000000000e+01,
             1.2500000000000000e+01, 1.2500000000000000e+01,
             1.2500000000000000e+01, 1.2500000000000000e+01,
             1.2500000000000000e+01, 2.0941626214647178e+00,
             1.2500000000000000e+01, 1.2500000000000000e+01,
             1.2500000000000000e+01, -1.2500000000000000e+01,
             -1.2500000000000000e+01, -1.2500000000000000e+01,
             -1.2500000000000000e+01, -1.2500000000000000e+01,
             -1.2500000000000000e+01, -1.2500000000000000e+01,
             -1.2500000000000000e+01, -1.2500000000000000e+01,
             -1.2500000000000000e+01, -1.2500000000000000e+01,
             -1.2500000000000000e+01, -1.2500000000000000e+01,
             -1.2500000000000000e+01, -1.2500000000000000e+01,
             -1.0470813107323500e+00, -1.2500000000000000e+01,
             -1.2500000000000000e+01, -1.2500000000000000e+01,
             -1.2500000000000000e+01, -1.2500000000000000e+01,
             -1.2500000000000000e+01, -1.2500000000000000e+01,
             -1.2500000000000000e+01, -1.2500000000000000e+01,
             -1.2500000000000000e+01, -1.2500000000000000e+01,
             -1.2500000000000000e+01, -1.2500000000000000e+01,
             -1.2500000000000000e+01, -1.0470813107323673e+00,
             -1.2500000000000000e+01 ]
         index: [ 12, 13, 21, 23, 24, 29, 30, 32, 33, 34, 35, 36, 43, 44,
             45, 46, 48, 22, 59, 65, 67, 76, 77, 81, 82, 1, 85, 86, 3,
             94, 11, 51, 20, 52, 19, 69, 18, 71, 17, 16, 15, 74, 75, 53,
             54, 78, 79, 7, 39, 31, 2, 57, 58, 42, 60, 88, 49, 28, 91,
             92, 26, 0, 96 ]
